%YAML:1.0
my_svm: !!opencv-ml-svm
   svm_type: C_SVC
   kernel: { type:RBF, gamma:5.0000000000000000e-001 }
   C: 1.
   term_criteria: { epsilon:1.1920928955078125e-007, iterations:1000 }
   var_all: 1764
   var_count: 1764
   class_count: 10
   class_labels: !!opencv-matrix
      rows: 1
      cols: 10
      dt: i
      data: [ 0, 1, 2, 3, 4, 5, 6, 7, 8, 9 ]
   sv_total: 10
   support_vectors:
      - [ 7.94996396e-002, 1.00749269e-001, 3.91645022e-002,
          3.93905565e-002, 7.92161822e-002, 1.00152127e-001,
          1.16474599e-001, 1.21746622e-001, 1.45806819e-001,
          1.03247039e-001, 1.05856888e-001, 7.18517303e-002,
          7.47919157e-002, 6.13964312e-002, 1.36560887e-001,
          6.85922801e-002, 8.43912289e-002, 1.26382977e-001,
          2.09858745e-001, 2.49835014e-001, 2.49835014e-001,
          2.49835014e-001, 2.49835014e-001, 2.49835014e-001,
          2.49835014e-001, 2.22755775e-001, 2.23441184e-001,
          1.56749353e-001, 2.49835014e-001, 2.49835014e-001,
          2.49835014e-001, 2.02707618e-001, 1.78213209e-001,
          9.41336676e-002, 9.09510776e-002, 9.62025747e-002,
          1.56068817e-001, 2.57102072e-001, 1.84436604e-001,
          1.04198962e-001, 5.20833470e-002, 6.45337477e-002,
          6.39157444e-002, 5.90619780e-002, 1.14571542e-001,
          2.69410402e-001, 2.69410402e-001, 2.69410402e-001,
          1.81292936e-001, 1.05747886e-001, 4.71797138e-002,
          5.64000793e-002, 6.41048104e-002, 1.69852257e-001,
          1.76370040e-001, 2.69410402e-001, 2.69410402e-001,
          2.69410402e-001, 8.92346501e-002, 5.74548915e-002,
          5.66266887e-002, 7.22764656e-002, 9.39860344e-002,
          2.01409847e-001, 2.69410402e-001, 2.69410402e-001,
          1.37330383e-001, 1.27389818e-001, 6.42500892e-002,
          7.19412118e-002, 9.36619937e-002, 1.34020120e-001,
          1.38741925e-001, 2.24172756e-001, 2.24172756e-001,
          2.24172756e-001, 1.79041311e-001, 7.78852701e-002,
          5.62776700e-002, 6.64870143e-002, 1.04515448e-001,
          1.57079101e-001, 1.49385676e-001, 1.75831661e-001,
          2.24172756e-001, 1.91740587e-001, 1.26464233e-001,
          8.49590302e-002, 9.73228961e-002, 1.25034243e-001,
          8.19681659e-002, 2.24172756e-001, 1.78771943e-001,
          1.74743414e-001, 2.24172756e-001, 1.35816500e-001,
          1.52114630e-001, 9.84207913e-002, 6.57306984e-002,
          1.59010664e-001, 1.70230970e-001, 1.75905630e-001,
          2.24172756e-001, 2.24172756e-001, 1.67105898e-001,
          2.24172756e-001, 1.59835622e-001, 2.07666546e-001,
          2.00093374e-001, 1.03131287e-001, 1.25095010e-001,
          1.23653367e-001, 8.19704756e-002, 9.92876962e-002,
          6.91213235e-002, 1.72431216e-001, 1.78469792e-001,
          1.76321939e-001, 7.22572505e-002, 1.26556620e-001,
          1.14169106e-001, 6.77817985e-002, 1.41592160e-001,
          1.82308361e-001, 2.21961662e-001, 1.97128549e-001,
          2.16435075e-001, 1.46844685e-001, 1.94570586e-001,
          2.21961662e-001, 2.11035624e-001, 1.26447335e-001,
          2.21961662e-001, 2.21961662e-001, 2.21961662e-001,
          1.45173520e-001, 9.52928513e-002, 1.51332140e-001,
          1.61243603e-001, 1.09855406e-001, 2.12154612e-001,
          2.21961662e-001, 2.21961662e-001, 1.52761355e-001,
          1.21888310e-001, 5.10545000e-002, 7.92652518e-002,
          9.70115662e-002, 7.88296238e-002, 1.93087727e-001,
          2.46480614e-001, 2.46480614e-001, 1.46511331e-001,
          1.73977867e-001, 8.45511928e-002, 7.58447945e-002,
          6.37917072e-002, 7.03674108e-002, 1.20596394e-001,
          2.26819113e-001, 2.10015073e-001, 2.06644446e-001,
          1.19462930e-001, 1.07056953e-001, 7.80756027e-002,
          1.15086108e-001, 1.26721710e-001, 2.36827523e-001,
          2.46480614e-001, 2.46480614e-001, 1.55879498e-001,
          2.46480614e-001, 1.76785916e-001, 9.51456577e-002,
          4.94552553e-002, 1.06063411e-001, 1.13522209e-001,
          2.46480614e-001, 2.46480614e-001, 2.46480614e-001,
          1.92389414e-001, 1.17503025e-001, 1.17504343e-001,
          6.25250041e-002, 9.30189565e-002, 8.11504424e-002,
          1.04311690e-001, 1.20394483e-001, 1.69573754e-001,
          1.95583910e-001, 2.53965735e-001, 2.53965735e-001,
          1.48923084e-001, 1.25843331e-001, 7.70730823e-002,
          1.03388257e-001, 1.20665334e-001, 9.46211144e-002,
          2.53965735e-001, 2.38142446e-001, 1.77004546e-001,
          5.10365888e-002, 5.02229519e-002, 7.41372183e-002,
          1.65607482e-001, 2.11199790e-001, 2.53965735e-001,
          2.53965735e-001, 2.53965735e-001, 2.53965735e-001,
          2.52820551e-001, 9.79729891e-002, 3.44511010e-002,
          6.47444129e-002, 1.24655075e-001, 1.62860945e-001,
          1.36908010e-001, 2.40276441e-001, 2.40276441e-001,
          1.70112953e-001, 9.00610015e-002, 3.97446491e-002,
          5.18003404e-002, 6.12755232e-002, 7.33395442e-002,
          1.66918233e-001, 2.01899603e-001, 2.40276441e-001,
          1.49145097e-001, 1.03722021e-001, 7.21340925e-002,
          3.62261012e-002, 1.74745709e-001, 2.40276441e-001,
          1.68128371e-001, 2.40276441e-001, 2.40276441e-001,
          2.40276441e-001, 1.17843039e-001, 3.97858322e-002,
          3.74978967e-002, 7.32727498e-002, 8.08115229e-002,
          2.21862078e-001, 2.20807210e-001, 2.40276441e-001,
          2.29575515e-001, 2.08528921e-001, 1.17864110e-001,
          8.02962035e-002, 1.72304899e-001, 1.63183376e-001,
          1.40899375e-001, 1.75581232e-001, 2.09713697e-001,
          1.90164700e-001, 2.77332097e-001, 1.49106368e-001,
          1.78614184e-001, 1.44443631e-001, 9.88263562e-002,
          4.44358289e-002, 8.34305137e-002, 1.32110208e-001,
          1.80332899e-001, 1.73872307e-001, 4.35717553e-002,
          2.29958110e-002, 2.68325694e-002, 2.58551054e-002,
          2.51787990e-001, 2.77332097e-001, 2.41637617e-001,
          2.77332097e-001, 2.77332097e-001, 2.17155784e-001,
          1.80370986e-001, 1.18208081e-001, 1.16311364e-001,
          3.20752934e-002, 8.22553262e-002, 9.77896303e-002,
          2.34142959e-001, 2.77332097e-001, 4.87717874e-002,
          1.33246044e-002, 1.29909720e-002, 1.52963949e-002,
          9.39553678e-002, 2.42896184e-001, 2.42896184e-001,
          2.42896184e-001, 1.84426665e-001, 6.83158040e-002,
          7.30960593e-002, 1.15066603e-001, 1.12261780e-001,
          7.30859265e-002, 2.42896184e-001, 2.31526822e-001,
          1.46115258e-001, 1.63377151e-001, 9.29676667e-002,
          1.20040201e-001, 1.47619367e-001, 1.03958905e-001,
          9.26551297e-002, 2.38289416e-001, 2.42896184e-001,
          2.42896184e-001, 2.42896184e-001, 9.92390290e-002,
          8.62970874e-002, 1.25273466e-001, 1.04296319e-001,
          6.68444708e-002, 2.03949407e-001, 1.96889654e-001,
          1.96358040e-001, 1.33630469e-001, 1.32363811e-001,
          1.35049731e-001, 2.16791704e-001, 1.00078508e-001,
          2.31237020e-002, 8.10944960e-002, 5.19920215e-002,
          6.18218593e-002, 1.24992155e-001, 6.42944053e-002,
          5.36800474e-002, 4.94075790e-002, 1.73939653e-002,
          1.09875120e-001, 8.30033273e-002, 4.42534983e-002,
          2.50327826e-001, 3.33105028e-001, 1.83165476e-001,
          3.24970603e-001, 1.70444578e-001, 2.05223843e-001,
          1.69459302e-002, 6.15396611e-002, 4.57487293e-002,
          7.66660720e-002, 1.68564782e-001, 9.96334553e-002,
          4.06096280e-002, 5.80525659e-002, 2.44691595e-002,
          5.71160130e-002, 5.12707569e-002, 1.54069439e-001,
          3.33105028e-001, 3.33105028e-001, 3.33105028e-001,
          3.33105028e-001, 1.23164251e-001, 9.02718604e-002,
          7.61436000e-002, 2.63487715e-002, 1.37567474e-002,
          1.01807684e-001, 2.30064079e-001, 9.65941399e-002,
          2.52585381e-001, 2.30837896e-001, 1.62130103e-001,
          4.94217165e-002, 1.51122408e-002, 1.04523720e-002,
          3.41886841e-002, 6.51420653e-002, 7.67438412e-002,
          2.25148514e-001, 1.53091714e-001, 1.14309430e-001,
          9.64082927e-002, 8.04477781e-002, 1.35704845e-001,
          2.51517564e-001, 2.52585381e-001, 2.37098396e-001,
          2.52585381e-001, 2.45803699e-001, 1.82202280e-001,
          9.66423377e-002, 1.00380883e-001, 9.02875736e-002,
          8.13344419e-002, 2.52585381e-001, 1.84937075e-001,
          2.52585381e-001, 2.22435266e-001, 2.30617657e-001,
          1.19507529e-001, 6.66348562e-002, 5.29715382e-002,
          9.61100385e-002, 2.24543393e-001, 1.70645297e-001,
          2.28193238e-001, 1.68123662e-001, 1.95012897e-001,
          1.73641056e-001, 1.41666085e-001, 1.22712642e-001,
          1.11009046e-001, 2.31216043e-001, 9.48980600e-002,
          1.75988287e-001, 2.08163008e-001, 1.86046496e-001,
          1.23885460e-001, 1.08180910e-001, 1.23204373e-001,
          1.72784939e-001, 2.49448568e-001, 2.49448568e-001,
          2.06799328e-001, 1.38656422e-001, 2.21839830e-001,
          7.50461742e-002, 1.37076661e-001, 1.89617202e-001,
          1.83220834e-001, 2.49448568e-001, 1.78762093e-001,
          1.00092836e-001, 8.93498287e-002, 7.73428828e-002,
          2.27966622e-001, 2.36005336e-001, 1.69881552e-001,
          1.25919685e-001, 1.74561307e-001, 1.07384853e-001,
          1.35181531e-001, 1.62199795e-001, 1.49257153e-001,
          2.35693783e-001, 2.36005336e-001, 2.34669656e-001,
          2.36005336e-001, 1.41680002e-001, 6.20356575e-002,
          8.26445222e-002, 1.01628311e-001, 8.82119909e-002,
          8.46117511e-002, 1.74915314e-001, 1.74174279e-001,
          2.36005336e-001, 2.36005336e-001, 1.76924080e-001,
          1.10555775e-001, 8.42389390e-002, 3.44705060e-002,
          1.19936399e-001, 2.36005336e-001, 1.55381769e-001,
          2.36005336e-001, 2.29739115e-001, 9.94208455e-002,
          1.19306616e-001, 7.20868930e-002, 4.68743965e-002,
          5.06300516e-002, 8.83241370e-002, 1.05030373e-001,
          1.52779847e-001, 7.32997283e-002, 3.05240322e-002,
          4.32156175e-002, 4.91811298e-002, 3.97706516e-002,
          1.70367643e-001, 1.34168148e-001, 3.07981580e-001,
          2.18018129e-001, 3.07981580e-001, 1.16409682e-001,
          1.41172290e-001, 1.01986878e-001, 9.20636877e-002,
          3.64241078e-002, 9.26500633e-002, 6.80037364e-002,
          1.37278765e-001, 1.17762655e-001, 4.57215942e-002,
          5.95108271e-002, 3.56701054e-002, 4.24273275e-002,
          1.23761691e-001, 1.02085389e-001, 3.07981580e-001,
          3.07981580e-001, 3.07981580e-001, 2.55811870e-001,
          3.07981580e-001, 1.61861494e-001, 2.25055709e-001,
          1.18403666e-001, 1.92341864e-001, 9.69626233e-002,
          3.49241644e-001, 3.49241644e-001, 2.24824682e-001,
          3.90440375e-002, 1.42923919e-002, 6.98012188e-002,
          1.44276321e-002, 4.60680500e-002, 6.77496493e-002,
          1.97624147e-001, 2.95960486e-001, 5.54017797e-002,
          8.65984801e-003, 1.19642774e-002, 4.40223282e-003,
          2.27107126e-002, 2.88934633e-002, 6.04054444e-002,
          3.49241644e-001, 3.49241644e-001, 2.37763941e-001,
          2.45774481e-002, 1.65256057e-002, 3.36924605e-002,
          1.00022685e-002, 4.18719128e-002, 7.70764351e-002,
          2.42955580e-001, 3.49241644e-001, 3.84658650e-002,
          8.77954345e-003, 1.70329865e-002, 3.37559846e-003,
          8.94792601e-002, 2.06699982e-001, 2.30171785e-001,
          2.30171785e-001, 2.24459186e-001, 1.39387965e-001,
          7.89181441e-002, 1.14512697e-001, 4.97281663e-002,
          1.25162035e-001, 1.88721433e-001, 2.30171785e-001,
          1.46207929e-001, 1.21556379e-001, 1.85628608e-001,
          8.78307298e-002, 1.17757306e-001, 9.01395231e-002,
          9.19354931e-002, 2.30171785e-001, 2.30171785e-001,
          2.30171785e-001, 2.30171785e-001, 1.48320511e-001,
          5.91509901e-002, 1.03493318e-001, 7.94731379e-002,
          1.92162216e-001, 2.19802544e-001, 1.95251375e-001,
          1.41781271e-001, 1.54292747e-001, 2.30171785e-001,
          1.29180953e-001, 1.05487362e-001, 1.83983564e-001,
          2.07658485e-002, 3.62514630e-002, 3.69634330e-002,
          5.69009446e-002, 1.76593065e-001, 1.09457143e-001,
          3.31667140e-002, 2.26366110e-002, 3.01327407e-002,
          5.57546727e-002, 6.54703900e-002, 2.36041680e-001,
          3.66293609e-001, 3.66293609e-001, 2.55714327e-001,
          1.09663166e-001, 4.96999137e-002, 1.12804987e-001,
          4.88521792e-002, 3.11293937e-002, 3.10231633e-002,
          5.53515479e-002, 2.11069614e-001, 1.42183617e-001,
          7.23027065e-002, 2.35442929e-002, 3.84564810e-002,
          7.05383196e-002, 4.77708243e-002, 1.59270272e-001,
          2.94601977e-001, 3.66293609e-001, 3.66293609e-001,
          1.33327812e-001, 1.04646578e-001, 1.56037390e-001,
          1.19884320e-001, 1.70802847e-001, 2.41806284e-001,
          2.50164747e-001, 2.57640570e-001, 1.23479798e-001,
          1.03474192e-001, 6.22891486e-002, 1.61934793e-001,
          1.21658847e-001, 1.88372836e-001, 1.43819720e-001,
          9.36495066e-002, 2.57640570e-001, 1.86061293e-001,
          1.17900506e-001, 7.46267438e-002, 1.53571963e-001,
          1.18611932e-001, 1.06151290e-001, 1.55470103e-001,
          2.04785168e-001, 2.57640570e-001, 2.02826902e-001,
          7.93783739e-002, 6.93065226e-002, 1.78831086e-001,
          1.11243993e-001, 1.02837227e-001, 7.82396272e-002,
          2.25013927e-001, 2.57640570e-001, 2.57640570e-001,
          1.05122790e-001, 4.71227579e-002, 1.37188196e-001,
          6.43167719e-002, 1.18406370e-001, 1.14381820e-001,
          1.79250881e-001, 2.90506989e-001, 2.90506989e-001,
          1.91325724e-001, 7.78908879e-002, 8.32712054e-002,
          1.99849382e-002, 6.59887865e-002, 1.13980725e-001,
          1.57524124e-001, 2.73047626e-001, 1.51237056e-001,
          9.60378423e-002, 5.88448010e-002, 1.73090342e-002,
          4.77800258e-002, 7.92997107e-002, 1.04801074e-001,
          2.90506989e-001, 2.90506989e-001, 2.90506989e-001,
          2.09690243e-001, 5.85524067e-002, 8.50915536e-002,
          4.70265886e-003, 4.63488810e-002, 1.05008297e-001,
          2.58127660e-001, 2.90506989e-001, 2.18708038e-001,
          1.42905921e-001, 4.60893176e-002, 1.95207540e-002,
          6.82741180e-002, 9.88876894e-002, 1.28434330e-001,
          2.72538632e-001, 2.72538632e-001, 1.66982606e-001,
          9.08067524e-002, 7.87316188e-002, 3.27429846e-002,
          1.14928730e-001, 1.73626602e-001, 1.27933145e-001,
          2.72538632e-001, 2.72538632e-001, 1.10252589e-001,
          7.96671137e-002, 6.11798279e-002, 4.27951366e-002,
          2.03800276e-002, 3.61698419e-002, 1.38293728e-001,
          2.72538632e-001, 2.72538632e-001, 2.72538632e-001,
          1.08722851e-001, 5.35099916e-002, 2.42364444e-002,
          8.81163925e-002, 1.01123698e-001, 2.41079852e-001,
          2.72538632e-001, 2.72538632e-001, 2.11017370e-001,
          9.14119855e-002, 6.22224249e-002, 4.07515876e-002,
          3.79615054e-002, 5.21306433e-002, 4.50175442e-002,
          9.56250504e-002, 1.07922867e-001, 6.21534809e-002,
          4.03472967e-002, 2.06342060e-002, 2.71714907e-002,
          6.41790777e-002, 4.44378480e-002, 2.03022942e-001,
          3.28829557e-001, 3.28829557e-001, 3.28829557e-001,
          2.15778217e-001, 1.33176208e-001, 1.49170563e-001,
          4.69404198e-002, 4.52428907e-002, 6.79075420e-002,
          9.44218040e-002, 1.45558074e-001, 9.25671458e-002,
          5.96491024e-002, 2.35057585e-002, 1.74687169e-002,
          1.73154086e-001, 9.29155201e-002, 9.56984758e-002,
          3.28829557e-001, 3.28829557e-001, 3.28829557e-001,
          2.44153947e-001, 1.32288277e-001, 6.01284131e-002,
          2.30630282e-002, 8.04077554e-003, 6.40077442e-002,
          3.84108692e-001, 3.84108692e-001, 1.69242874e-001,
          3.06910668e-002, 2.72206627e-002, 3.72258946e-002,
          1.45619670e-002, 4.21414934e-002, 8.68234485e-002,
          2.26887226e-001, 2.90030867e-001, 2.64453851e-002,
          1.06947068e-002, 1.23892017e-002, 3.91709153e-003,
          2.84269731e-002, 1.68702640e-002, 9.83340666e-002,
          3.84108692e-001, 3.84108692e-001, 2.47442216e-001,
          3.06995809e-002, 5.23693636e-002, 3.53380218e-002,
          1.12102106e-002, 2.94507816e-002, 9.64080244e-002,
          1.87119633e-001, 3.08954060e-001, 7.03976750e-002,
          2.67133974e-002, 1.00543471e-002, 6.81624422e-003,
          1.08133242e-001, 2.17069447e-001, 1.94630235e-001,
          2.28686854e-001, 2.09918663e-001, 8.51591229e-002,
          4.00267914e-002, 7.52901435e-002, 8.17931965e-002,
          2.07469404e-001, 2.13681161e-001, 1.18330978e-001,
          1.61342621e-001, 1.64062917e-001, 2.03358829e-001,
          1.40812442e-001, 9.36010703e-002, 1.75879598e-001,
          8.55915695e-002, 1.36278898e-001, 2.11978495e-001,
          2.13282287e-001, 1.82422578e-001, 1.43699586e-001,
          1.27550229e-001, 8.67510065e-002, 6.86484575e-002,
          1.35839075e-001, 2.12597117e-001, 1.94344908e-001,
          2.28686854e-001, 2.28686854e-001, 2.28686854e-001,
          2.21035808e-001, 9.89148617e-002, 1.05843969e-001,
          6.10066354e-002, 3.62185948e-002, 2.81792451e-002,
          7.56627843e-002, 2.00535774e-001, 1.38242304e-001,
          9.33164209e-002, 1.90033950e-002, 3.01203374e-002,
          3.06398701e-002, 2.17955261e-002, 6.28288984e-002,
          1.66932255e-001, 3.30854148e-001, 3.30854148e-001,
          1.53246209e-001, 5.23442701e-002, 3.91558483e-002,
          3.08430735e-002, 4.55036126e-002, 6.74189776e-002,
          2.04413846e-001, 3.30854148e-001, 1.29792869e-001,
          7.25047439e-002, 1.04178628e-002, 1.75942685e-002,
          1.50291756e-001, 1.69680387e-001, 1.99594468e-001,
          3.30854148e-001, 3.30854148e-001, 3.30854148e-001,
          1.56393394e-001, 4.68677022e-002, 9.12238359e-002,
          5.60718216e-002, 2.77918708e-002, 4.48078029e-002,
          1.65773451e-001, 2.91715354e-001, 2.75231570e-001,
          9.74814743e-002, 4.13236246e-002, 8.42330158e-002,
          5.97047694e-002, 2.73419097e-002, 3.85772064e-002,
          2.91715354e-001, 2.91715354e-001, 1.88934326e-001,
          5.75958192e-002, 1.91055033e-002, 8.70620459e-002,
          2.10659221e-001, 1.34321824e-001, 1.18767560e-001,
          1.32037759e-001, 2.91715354e-001, 2.91715354e-001,
          1.81209460e-001, 7.55533502e-002, 1.71833098e-001,
          1.56334430e-001, 6.48916066e-002, 9.49246064e-002,
          1.98938206e-001, 2.91715354e-001, 1.65778771e-001,
          1.38685375e-001, 5.38187325e-002, 1.31886169e-001,
          2.43406948e-002, 5.02129793e-002, 9.40990672e-002,
          3.19308966e-001, 3.19308966e-001, 2.60370582e-001,
          9.11560655e-002, 1.90839861e-002, 5.21505028e-002,
          2.17968295e-003, 5.14795668e-002, 7.63667226e-002,
          1.94328457e-001, 2.90049613e-001, 2.07123727e-001,
          1.04263984e-001, 2.74702087e-002, 9.09379963e-003,
          5.12413234e-002, 3.70196700e-002, 1.28276780e-001,
          3.19308966e-001, 3.19308966e-001, 2.16371611e-001,
          1.08776174e-001, 2.85294354e-002, 3.46370488e-002,
          4.54370072e-003, 3.24861147e-002, 9.49610770e-002,
          2.51371324e-001, 3.19308966e-001, 2.13408068e-001,
          8.62270817e-002, 5.91883734e-002, 2.59064371e-004,
          4.09568846e-003, 1.06965760e-002, 8.43969285e-002,
          2.23575905e-001, 3.04328412e-001, 2.52581686e-001,
          5.64194769e-002, 1.24388002e-002, 4.95382678e-003,
          2.58617867e-002, 6.79309294e-002, 2.23252982e-001,
          2.24921420e-001, 3.04328412e-001, 1.64788872e-001,
          5.87739348e-002, 2.51010191e-002, 3.96179743e-002,
          9.50435817e-004, 9.51029453e-003, 9.62130278e-002,
          3.04328412e-001, 3.04328412e-001, 2.44840056e-001,
          4.78787348e-002, 2.90046930e-002, 3.44731758e-004,
          4.06690268e-003, 5.00607975e-002, 1.60945415e-001,
          3.04328412e-001, 3.04328412e-001, 2.66999632e-001,
          6.54378310e-002, 3.34659889e-002, 2.81809103e-002,
          2.53007840e-002, 4.93644625e-002, 7.31491446e-002,
          8.16077590e-002, 1.57247052e-001, 8.73634368e-002,
          7.57778734e-002, 2.33927313e-002, 3.48466337e-002,
          1.38097048e-001, 7.41280243e-002, 9.35973451e-002,
          3.01717788e-001, 3.01717788e-001, 3.01717788e-001,
          1.83209911e-001, 1.20170079e-001, 9.86544490e-002,
          8.79006553e-003, 3.23968306e-002, 5.11295311e-002,
          2.04600394e-001, 3.01717788e-001, 1.54538795e-001,
          1.04673296e-001, 4.03252989e-002, 3.10376063e-002,
          7.89805427e-002, 5.32659777e-002, 1.18261606e-001,
          3.01717788e-001, 3.01717788e-001, 3.01717788e-001,
          2.41026014e-001, 2.00179935e-001, 9.73487124e-002,
          2.60531548e-002, 3.86508405e-002, 9.59563926e-002,
          3.36809427e-001, 3.71937811e-001, 2.77415782e-001,
          4.47355658e-002, 3.87229994e-002, 2.61511449e-002,
          7.43503263e-003, 1.68681052e-002, 5.09817153e-002,
          1.11713253e-001, 2.96765149e-001, 8.35184604e-002,
          2.30553616e-002, 1.08345132e-002, 8.70604720e-003,
          2.17161980e-002, 7.27960616e-002, 1.05130941e-001,
          3.71937811e-001, 3.71937811e-001, 3.06921482e-001,
          6.88688979e-002, 8.03841278e-002, 3.99396606e-002,
          1.83031522e-002, 2.58621238e-002, 5.40249385e-002,
          1.57747686e-001, 3.22294235e-001, 8.02266374e-002,
          2.97990236e-002, 1.35264490e-002, 1.02908267e-002,
          7.42918774e-002, 6.45730942e-002, 9.45642143e-002,
          1.21520221e-001, 2.17761874e-001, 1.50216028e-001,
          1.30944461e-001, 7.58435801e-002, 5.15543744e-002,
          6.33111820e-002, 1.05094820e-001, 1.51553512e-001,
          2.59309620e-001, 2.59309620e-001, 2.38111630e-001,
          1.91736490e-001, 1.17266975e-001, 6.07318170e-002,
          1.90393329e-001, 1.29200026e-001, 1.06399059e-001,
          2.08268896e-001, 2.59309620e-001, 1.35114267e-001,
          1.28727168e-001, 6.06523193e-002, 9.41910073e-002,
          1.92162886e-001, 1.62728310e-001, 1.33040652e-001,
          2.59309620e-001, 2.59309620e-001, 2.59309620e-001,
          2.21358880e-001, 9.93656069e-002, 1.45263568e-001,
          5.13816811e-003, 2.87825819e-002, 6.08193167e-002,
          1.71071440e-001, 3.03633839e-001, 8.95008519e-002,
          4.22620997e-002, 1.98275074e-002, 7.28498492e-003,
          1.45418987e-001, 1.45317301e-001, 1.81938604e-001,
          3.05735290e-001, 3.05735290e-001, 2.52615482e-001,
          1.24477640e-001, 9.71938670e-002, 1.57824025e-001,
          2.03136448e-002, 3.06532737e-002, 3.57546024e-002,
          1.09783582e-001, 3.05735290e-001, 1.73747703e-001,
          6.29328042e-002, 2.90443245e-002, 2.11613234e-002,
          7.62086064e-002, 4.55908552e-002, 1.48430765e-001,
          2.38802239e-001, 3.05735290e-001, 3.05735290e-001,
          1.55185714e-001, 1.37311831e-001, 1.55835018e-001,
          1.95335060e-001, 1.28845707e-001, 1.50564522e-001,
          1.35795057e-001, 2.77175158e-001, 1.65355071e-001,
          1.55590251e-001, 1.02644064e-001, 2.16765031e-001,
          1.08219258e-001, 5.12295067e-002, 1.21121153e-001,
          1.07511207e-001, 2.77175158e-001, 1.37195557e-001,
          1.70257524e-001, 5.37823848e-002, 1.03862382e-001,
          1.12824202e-001, 4.80719246e-002, 2.13496789e-001,
          1.95852295e-001, 2.77175158e-001, 2.39290640e-001,
          1.88682109e-001, 9.06493962e-002, 1.43032297e-001,
          6.91865683e-002, 2.44421344e-002, 1.73738495e-001,
          1.80494726e-001, 2.77175158e-001, 2.07936734e-001,
          2.20368102e-001, 2.44775508e-002, 4.32208069e-002,
          2.98182350e-002, 2.61237752e-002, 1.28241256e-001,
          2.41388574e-001, 2.98452020e-001, 2.10987940e-001,
          1.41303152e-001, 2.92204693e-002, 1.80558488e-002,
          7.10988184e-003, 3.15522328e-002, 1.02916293e-001,
          2.60887414e-001, 2.98452020e-001, 1.82207286e-001,
          6.24304451e-002, 6.26305491e-002, 2.59271590e-003,
          1.58352032e-002, 3.12277619e-002, 1.51905462e-001,
          2.76046425e-001, 2.98452020e-001, 2.92752624e-001,
          1.96566418e-001, 3.71794403e-002, 3.11657097e-002,
          1.42820673e-002, 4.34683897e-002, 1.20192289e-001,
          2.63954848e-001, 2.98452020e-001, 2.30006665e-001,
          8.48359019e-002, 6.45550638e-002, 1.92460418e-002,
          9.76196141e-004, 1.44382538e-002, 7.72296339e-002,
          2.90417999e-001, 2.90417999e-001, 2.17991248e-001,
          5.33176996e-002, 2.92320400e-002, 4.99125861e-004,
          2.24146366e-004, 6.09984295e-003, 5.86326048e-002,
          2.90417999e-001, 2.90417999e-001, 2.64742315e-001,
          7.52979442e-002, 3.20323892e-002, 4.14066762e-003,
          2.55377823e-003, 2.68156193e-002, 6.80242106e-002,
          2.84239233e-001, 2.90417999e-001, 2.89786756e-001,
          7.29557350e-002, 2.00881120e-002, 1.80504739e-003,
          1.86551968e-003, 1.26853753e-002, 4.13653068e-002,
          2.90417999e-001, 2.90417999e-001, 2.90417999e-001,
          7.61924759e-002, 3.27705815e-002, 9.14067589e-003,
          9.68386536e-004, 2.54056975e-003, 2.74757873e-002,
          2.19576150e-001, 2.89637387e-001, 1.36501208e-001,
          7.66094029e-002, 3.86307500e-002, 6.10766048e-003,
          5.24325743e-002, 7.69040212e-002, 8.04642886e-002,
          2.95263648e-001, 2.95263648e-001, 2.81185448e-001,
          2.07319796e-001, 9.27144289e-002, 8.45050290e-002,
          1.99770438e-003, 5.05336153e-004, 1.90271344e-002,
          1.85020939e-001, 2.95263648e-001, 1.44704849e-001,
          5.70124835e-002, 3.49542424e-002, 1.02365930e-002,
          8.41081366e-002, 1.45879507e-001, 2.07659483e-001,
          2.95263648e-001, 2.95263648e-001, 2.95263648e-001,
          1.43262759e-001, 5.05104251e-002, 8.64782929e-002,
          2.77918689e-002, 6.58197403e-002, 8.95707235e-002,
          3.80326658e-001, 3.80326658e-001, 2.16207996e-001,
          6.41251728e-002, 6.56724796e-002, 4.28359583e-002,
          1.31233754e-002, 1.42042348e-002, 3.45308892e-002,
          1.42474309e-001, 2.56779701e-001, 8.19756687e-002,
          7.40443319e-002, 3.96697149e-002, 1.31640006e-002,
          5.17400540e-002, 2.37910300e-002, 6.42606616e-002,
          3.11153114e-001, 3.80326658e-001, 3.80326658e-001,
          9.40176621e-002, 6.52834699e-002, 4.70744334e-002,
          1.56598352e-002, 1.19894845e-002, 8.06304812e-003,
          5.08080050e-002, 2.44744405e-001, 1.92233369e-001,
          1.36545047e-001, 8.66260082e-002, 1.33943651e-002,
          1.43233761e-001, 7.19188005e-002, 9.05728564e-002,
          1.85773760e-001, 1.78910986e-001, 1.15775876e-001,
          1.38731986e-001, 8.30105171e-002, 7.98750147e-002,
          1.82571664e-001, 1.11468673e-001, 1.21363573e-001,
          2.38152742e-001, 2.38152742e-001, 2.38152742e-001,
          1.20740525e-001, 7.57457986e-002, 1.23734921e-001,
          1.57557756e-001, 8.55239034e-002, 7.11689666e-002,
          1.10561870e-001, 1.76395744e-001, 2.20023081e-001,
          2.38152742e-001, 1.60478279e-001, 1.39072463e-001,
          1.50527418e-001, 8.58670399e-002, 2.38152742e-001,
          2.38152742e-001, 2.38152742e-001, 2.24081308e-001,
          1.55797347e-001, 1.51242107e-001, 2.38152742e-001,
          3.53431068e-002, 2.65446175e-002, 4.32048887e-002,
          1.91869557e-001, 3.10386211e-001, 2.00571135e-001,
          4.85376008e-002, 3.13016511e-002, 2.78532393e-002,
          7.13383108e-002, 4.55638021e-002, 1.43865854e-001,
          2.28448689e-001, 3.28232020e-001, 2.99977541e-001,
          1.06298566e-001, 9.37650651e-002, 7.80437291e-002,
          2.64600962e-002, 3.18640321e-002, 1.40736625e-001,
          2.69951195e-001, 2.25382358e-001, 1.48398191e-001,
          5.12063280e-002, 3.61408852e-002, 4.96561788e-002,
          7.02369958e-002, 4.97671999e-002, 1.58883736e-001,
          3.21643710e-001, 3.28232020e-001, 1.91998288e-001,
          1.55276954e-001, 1.03188738e-001, 1.49578154e-001,
          1.28462642e-001, 5.48479669e-002, 1.51426241e-001,
          1.56959608e-001, 3.06287616e-001, 1.69815004e-001,
          1.53293371e-001, 1.00802898e-001, 8.98844078e-002,
          1.16314739e-001, 3.48772034e-002, 9.95868891e-002,
          1.59492552e-001, 3.06287616e-001, 1.72695607e-001,
          1.87836185e-001, 7.92496204e-002, 5.25430739e-002,
          1.08813778e-001, 3.49085815e-002, 8.78527313e-002,
          1.71017632e-001, 3.06287616e-001, 1.68576732e-001,
          1.86775282e-001, 1.70190543e-001, 2.07133338e-001,
          9.04871672e-002, 2.71218047e-002, 7.38368183e-002,
          1.71117514e-001, 3.06287616e-001, 2.74427712e-001,
          1.59059227e-001, 1.35821924e-001, 1.08986922e-001,
          3.78317870e-002, 3.54532041e-002, 9.20777917e-002,
          2.34640196e-001, 2.93918550e-001, 2.65808493e-001,
          1.46440998e-001, 4.61752005e-002, 3.11779249e-002,
          1.90625563e-002, 3.27437893e-002, 6.46671727e-002,
          1.80528760e-001, 2.93918550e-001, 2.54407674e-001,
          6.31686375e-002, 3.51292528e-002, 1.86355989e-002,
          3.48153226e-002, 6.43824339e-002, 1.49138361e-001,
          2.82233089e-001, 2.93918550e-001, 2.93918550e-001,
          1.06754646e-001, 4.41664383e-002, 7.33840512e-003,
          7.70801585e-003, 5.10323606e-002, 1.13672696e-001,
          2.58854628e-001, 2.93918550e-001, 2.83337772e-001,
          1.03721343e-001, 2.78718118e-002, 1.14642661e-002,
          4.25248174e-003, 2.26740465e-002, 3.99432518e-002,
          2.09715411e-001, 2.91325837e-001, 2.91325837e-001,
          5.72598130e-002, 1.10619720e-002, 2.42884969e-003,
          6.22186996e-003, 1.57469865e-002, 4.28060591e-002,
          2.91325837e-001, 2.91325837e-001, 2.91325837e-001,
          3.81131098e-002, 2.18627937e-002, 1.21263545e-002,
          1.77032815e-003, 2.69041900e-002, 7.08701387e-002,
          2.33276799e-001, 2.91325837e-001, 2.91325837e-001,
          1.14931323e-001, 2.24401262e-002, 1.34503143e-002,
          1.36046717e-002, 4.98096980e-002, 6.35890961e-002,
          2.76739538e-001, 2.91325837e-001, 2.91325837e-001,
          1.38212204e-001, 3.01975235e-002, 4.65852730e-002,
          6.82038441e-003, 5.06685721e-003, 2.42354088e-002,
          1.80531204e-001, 3.01985800e-001, 9.84060168e-002,
          2.24587582e-002, 2.14348864e-002, 1.17089013e-002,
          6.15568310e-002, 6.57143369e-002, 1.60143837e-001,
          3.01985800e-001, 3.01985800e-001, 3.01985800e-001,
          5.02717867e-002, 2.21707691e-002, 7.02332482e-002,
          1.48960045e-002, 4.37518954e-002, 7.67333135e-002,
          2.04649732e-001, 3.01985800e-001, 1.24895953e-001,
          5.26486821e-002, 1.64598152e-002, 3.32159102e-002,
          9.52252001e-002, 1.25712797e-001, 2.50361174e-001,
          3.01985800e-001, 3.01985800e-001, 3.01985800e-001,
          5.04055098e-002, 3.52019183e-002, 1.43858656e-001,
          3.45717482e-002, 1.22140218e-002, 4.11314517e-002,
          2.25648478e-001, 3.75686288e-001, 3.75686288e-001,
          8.19304436e-002, 3.98622230e-002, 3.05057671e-002,
          1.22365067e-002, 1.27912248e-002, 8.06477200e-003,
          4.63903770e-002, 1.93770617e-001, 2.17526466e-001,
          1.30458087e-001, 5.65117337e-002, 1.97100360e-002,
          6.60200976e-003, 1.88528132e-002, 6.61110282e-002,
          3.75686288e-001, 3.75686288e-001, 3.75686288e-001,
          7.82115385e-002, 2.02599596e-002, 1.71484612e-002,
          1.56385060e-002, 7.95619935e-003, 2.23338697e-002,
          1.10012323e-001, 2.03767508e-001, 2.01228365e-001,
          1.00771412e-001, 3.62687632e-002, 3.71302813e-002,
          1.27012178e-001, 1.02546811e-001, 6.45150244e-002,
          7.92607293e-002, 1.56540304e-001, 2.25083426e-001,
          2.25083426e-001, 1.18325904e-001, 1.32263482e-001,
          1.64595068e-001, 8.20907429e-002, 2.25083426e-001,
          2.25083426e-001, 2.25083426e-001, 2.19014049e-001,
          1.79884404e-001, 9.46936086e-002, 2.10499376e-001,
          9.07787457e-002, 9.13987309e-002, 9.52745453e-002,
          1.49740487e-001, 2.25083426e-001, 2.02969491e-001,
          2.24836037e-001, 9.73278657e-002, 1.11633651e-001,
          1.46122143e-001, 1.24404959e-001, 1.89012557e-001,
          1.89950436e-001, 2.25083426e-001, 2.25083426e-001,
          1.87252760e-001, 7.77467117e-002, 1.42847493e-001,
          2.26208773e-002, 2.24379599e-002, 1.49137467e-001,
          1.73262894e-001, 1.60194084e-001, 1.05494358e-001,
          4.93164919e-002, 1.71908457e-002, 3.86375487e-002,
          9.76499170e-002, 4.73659188e-002, 1.89901203e-001,
          3.20071787e-001, 3.20071787e-001, 9.84813645e-002,
          9.67688709e-002, 7.67176747e-002, 1.68094739e-001,
          4.25608642e-002, 3.53365839e-002, 1.03956148e-001,
          1.78871617e-001, 2.63804168e-001, 1.22591220e-001,
          3.57974097e-002, 1.82881076e-002, 4.42166403e-002,
          3.20071787e-001, 1.54919267e-001, 2.99592018e-001,
          3.20071787e-001, 3.20071787e-001, 1.11095361e-001,
          7.97444880e-002, 2.34910864e-002, 1.48910999e-001,
          1.18934914e-001, 3.14151533e-002, 1.14623696e-001,
          2.14924484e-001, 3.05098385e-001, 1.20803654e-001,
          9.08682942e-002, 9.74251330e-002, 1.96799487e-001,
          5.92957251e-002, 1.87184885e-002, 7.96102360e-002,
          2.39448667e-001, 3.05098385e-001, 1.93756923e-001,
          6.39753491e-002, 5.73136136e-002, 9.15262029e-002,
          2.35452637e-001, 1.07964411e-001, 1.68978676e-001,
          3.05098385e-001, 3.05098385e-001, 8.43912065e-002,
          7.93546140e-002, 3.65797468e-002, 1.42707765e-001,
          7.88212344e-002, 6.40053526e-002, 9.50718671e-002,
          3.05098385e-001, 3.05098385e-001, 1.13477677e-001,
          6.53188676e-002, 2.99631320e-002, 6.25215918e-002,
          9.18279029e-003, 4.34668250e-002, 1.50091708e-001,
          2.98262715e-001, 2.98262715e-001, 2.49287203e-001,
          7.96165019e-002, 2.77309828e-002, 1.53568024e-002,
          8.16012174e-003, 3.68755311e-002, 1.16322272e-001,
          2.77398109e-001, 2.80887842e-001, 2.16661572e-001,
          1.13404125e-001, 4.84003611e-002, 3.37422676e-002,
          1.99636351e-002, 6.30549416e-002, 1.54784799e-001,
          2.98262715e-001, 2.98262715e-001, 1.66615948e-001,
          9.50380042e-002, 3.64148580e-002, 2.45350543e-002,
          5.94005063e-002, 5.24586588e-002, 1.09661534e-001,
          2.84660578e-001, 2.98262715e-001, 2.04089314e-001,
          1.00383513e-001, 5.99666983e-002, 4.92118411e-002,
          1.06757004e-002, 1.63886193e-002, 7.50617087e-002,
          2.35599831e-001, 2.75017709e-001, 2.75017709e-001,
          1.47856832e-001, 3.96853611e-002, 3.14386077e-002,
          2.87484899e-002, 6.26595914e-002, 6.49598315e-002,
          1.33510858e-001, 2.75017709e-001, 2.75017709e-001,
          2.35568643e-001, 9.29702073e-002, 6.34120777e-002,
          6.96731061e-002, 4.46398742e-002, 5.46579808e-002,
          2.24650860e-001, 2.75017709e-001, 2.75017709e-001,
          1.77031070e-001, 5.39585575e-002, 4.99054901e-002,
          4.04369421e-002, 6.99934512e-002, 3.50957848e-002,
          9.93419364e-002, 2.75017709e-001, 2.75017709e-001,
          2.41080076e-001, 1.74476102e-001, 8.96044970e-002,
          2.12891381e-002, 5.66277839e-002, 7.27182850e-002,
          9.53623354e-002, 1.70121565e-001, 1.28028274e-001,
          8.67681652e-002, 4.55039293e-002, 4.30395678e-002,
          6.17584959e-002, 1.05450869e-001, 1.94324791e-001,
          3.35633844e-001, 3.35633844e-001, 3.35633844e-001,
          5.23411036e-002, 6.42857328e-002, 1.11695834e-001,
          3.14045511e-002, 6.22854345e-002, 2.43085884e-002,
          5.58906235e-002, 1.65246397e-001, 1.31946668e-001,
          7.82774016e-002, 8.93786177e-002, 5.49466833e-002,
          7.40759671e-002, 7.43143633e-002, 1.91529617e-001,
          3.35633844e-001, 3.35633844e-001, 3.35633844e-001,
          1.39797658e-001, 1.32152706e-001, 1.36903539e-001 ]
      - [ 1.55561090e-001, 1.47694707e-001, 1.78644791e-001,
          9.37271863e-002, 1.46069780e-001, 2.18550906e-001,
          1.98466256e-001, 1.09761387e-001, 2.03867748e-001,
          1.74572378e-001, 1.57027379e-001, 1.79320022e-001,
          1.15048818e-001, 2.18550906e-001, 2.02726707e-001,
          1.92743823e-001, 9.88441035e-002, 1.86498165e-001,
          1.55446813e-001, 1.39015988e-001, 2.18550906e-001,
          2.18550906e-001, 1.38592511e-001, 1.09846205e-001,
          1.64860293e-001, 1.37886420e-001, 1.05689943e-001,
          1.55720562e-001, 1.89575732e-001, 2.18550906e-001,
          1.97665438e-001, 1.28394306e-001, 1.24405332e-001,
          1.56515911e-001, 1.49867758e-001, 1.55941099e-001,
          1.71257079e-001, 1.35891363e-001, 1.30548045e-001,
          9.78195369e-002, 2.24976465e-001, 1.37484983e-001,
          1.15859963e-001, 9.51083153e-002, 1.17326982e-001,
          1.39425784e-001, 1.74074739e-001, 1.16998188e-001,
          1.84145838e-001, 2.24976465e-001, 2.24976465e-001,
          1.87823385e-001, 1.71639428e-001, 1.33199528e-001,
          1.11212768e-001, 1.13003820e-001, 1.77153394e-001,
          1.47303030e-001, 1.53394490e-001, 1.23740949e-001,
          2.19535753e-001, 1.56463996e-001, 1.37509555e-001,
          1.42792240e-001, 1.55355722e-001, 1.42373443e-001,
          2.24976465e-001, 2.24976465e-001, 2.24976465e-001,
          2.24976465e-001, 1.69675738e-001, 1.78479135e-001,
          8.66016820e-002, 2.05830470e-001, 1.26950890e-001,
          2.21141458e-001, 2.21141458e-001, 1.99394092e-001,
          1.63189292e-001, 1.31929100e-001, 9.60207060e-002,
          1.11618213e-001, 1.74452022e-001, 1.57879367e-001,
          1.67217568e-001, 1.63331747e-001, 1.88847110e-001,
          1.32143095e-001, 8.94075781e-002, 1.15906104e-001,
          1.20786309e-001, 2.07916588e-001, 1.50391042e-001,
          2.21141458e-001, 1.92323625e-001, 2.14939460e-001,
          1.65086269e-001, 9.26306918e-002, 1.67753533e-001,
          1.53441787e-001, 2.21141458e-001, 1.57474890e-001,
          2.21141458e-001, 1.33876920e-001, 2.08595976e-001,
          1.40837163e-001, 8.39265734e-002, 1.81686506e-001,
          1.69343099e-001, 1.36943951e-001, 1.83890879e-001,
          1.33109495e-001, 1.20210730e-001, 1.46957144e-001,
          1.05852865e-001, 1.09750316e-001, 1.40233591e-001,
          1.54279709e-001, 1.06024414e-001, 2.23640963e-001,
          2.23640963e-001, 1.60875201e-001, 1.18462458e-001,
          1.20215870e-001, 1.25468120e-001, 1.31449923e-001,
          1.74523950e-001, 1.82169721e-001, 1.84959561e-001,
          2.16938481e-001, 1.46582499e-001, 1.82129875e-001,
          1.38292894e-001, 1.20066755e-001, 2.02644721e-001,
          1.90698564e-001, 2.08205625e-001, 2.23640963e-001,
          2.23640963e-001, 2.23640963e-001, 1.75276279e-001,
          1.20080508e-001, 1.10627651e-001, 1.89881340e-001,
          5.52439280e-002, 1.03258066e-001, 2.09336177e-001,
          1.77870050e-001, 1.31259650e-001, 1.39683887e-001,
          1.23779856e-001, 8.47546086e-002, 7.47192651e-002,
          1.08041637e-001, 1.82974368e-001, 2.28759170e-001,
          2.28759170e-001, 2.28759170e-001, 2.28759170e-001,
          1.31662324e-001, 1.02303870e-001, 9.75385830e-002,
          1.20025903e-001, 1.77261606e-001, 2.12415174e-001,
          1.64965898e-001, 1.52632087e-001, 1.53439716e-001,
          1.09049194e-001, 7.17118457e-002, 1.32604420e-001,
          2.01659411e-001, 1.95326641e-001, 2.28759170e-001,
          2.28759170e-001, 2.28759170e-001, 2.28759170e-001,
          1.31429940e-001, 1.50417894e-001, 1.55754060e-001,
          7.68785253e-002, 1.66158184e-001, 1.51648030e-001,
          1.88675702e-001, 2.24561170e-001, 2.00252324e-001,
          9.06260014e-002, 8.13650116e-002, 8.90343040e-002,
          1.38496622e-001, 1.75443277e-001, 1.12135835e-001,
          1.24645330e-001, 1.96109802e-001, 2.02770099e-001,
          2.24561170e-001, 1.41031310e-001, 1.01639025e-001,
          1.43992558e-001, 1.53644606e-001, 1.61113709e-001,
          1.65053383e-001, 2.24561170e-001, 2.24561170e-001,
          1.29292488e-001, 1.43506601e-001, 1.15487114e-001,
          1.38846129e-001, 2.24452302e-001, 1.54727593e-001,
          9.87030789e-002, 2.05854535e-001, 2.24561170e-001,
          2.24561170e-001, 2.03614309e-001, 1.30314827e-001,
          1.29468292e-001, 9.71341804e-002, 9.51637998e-002,
          1.28204867e-001, 1.44798070e-001, 1.56978816e-001,
          2.57842779e-001, 1.14648871e-001, 6.48949370e-002,
          7.13251382e-002, 1.81512505e-001, 2.21513614e-001,
          2.57842779e-001, 2.57842779e-001, 1.60605013e-001,
          1.41858086e-001, 5.43534085e-002, 2.04777922e-002,
          1.14267662e-001, 1.20073393e-001, 1.28153130e-001,
          1.37624756e-001, 1.75858662e-001, 2.26386726e-001,
          2.57842779e-001, 2.14623913e-001, 9.72617865e-002,
          4.02137749e-002, 1.69218943e-001, 2.10313097e-001,
          2.57842779e-001, 2.57842779e-001, 1.79693043e-001,
          1.18663870e-001, 1.47395849e-001, 6.60221502e-002,
          1.03824429e-001, 7.08416104e-002, 1.59454644e-001,
          2.27609023e-001, 1.86651334e-001, 1.29246444e-001,
          1.31196901e-001, 1.63968831e-001, 8.06852281e-002,
          1.04040794e-001, 9.63701829e-002, 1.89298362e-001,
          1.81852758e-001, 1.72424451e-001, 1.80759400e-001,
          1.42590299e-001, 1.74370840e-001, 9.71788839e-002,
          1.15030453e-001, 6.85640946e-002, 9.11050513e-002,
          1.78323492e-001, 2.27609023e-001, 2.27609023e-001,
          2.27609023e-001, 1.95465550e-001, 1.51709080e-001,
          1.44490913e-001, 7.05679208e-002, 1.71187073e-001,
          1.87409878e-001, 2.27609023e-001, 2.27609023e-001,
          2.27609023e-001, 1.87406704e-001, 1.88271388e-001,
          1.02047712e-001, 6.35823011e-002, 1.21663369e-001,
          1.26173377e-001, 1.28502473e-001, 1.28421918e-001,
          1.93560526e-001, 1.40784264e-001, 1.02747619e-001,
          1.44780725e-001, 1.13143638e-001, 1.11456104e-001,
          2.19328031e-001, 1.67063445e-001, 1.70771509e-001,
          2.05748349e-001, 1.37983486e-001, 1.68738723e-001,
          1.73071116e-001, 6.47338182e-002, 2.04269901e-001,
          1.42132267e-001, 1.66730925e-001, 2.05462247e-001,
          2.20813319e-001, 1.76979408e-001, 1.60307169e-001,
          2.15190575e-001, 9.46040303e-002, 1.76269829e-001,
          1.81595311e-001, 2.20813319e-001, 1.81821048e-001,
          2.20813319e-001, 2.11198479e-001, 2.10259452e-001,
          1.54854387e-001, 1.43040359e-001, 9.90981087e-002,
          1.91013768e-001, 1.48024946e-001, 1.74906597e-001,
          1.36763155e-001, 1.08368091e-001, 1.96937636e-001,
          1.54960573e-001, 1.88110754e-001, 1.29655987e-001,
          2.08870664e-001, 1.65173322e-001, 1.67755589e-001,
          1.48188591e-001, 9.55449790e-002, 1.64705962e-001,
          1.74511299e-001, 8.23267847e-002, 8.30700174e-002,
          1.03497274e-001, 2.23682076e-001, 1.61669374e-001,
          2.23682076e-001, 1.65925041e-001, 2.23682076e-001,
          1.85427397e-001, 1.50467157e-001, 1.71587035e-001,
          1.57685697e-001, 2.23682076e-001, 1.61758527e-001,
          2.23682076e-001, 1.51260480e-001, 1.80962473e-001,
          1.30967766e-001, 9.73032191e-002, 1.10460170e-001,
          2.13685811e-001, 1.71898991e-001, 1.20077565e-001,
          1.23997532e-001, 1.20295666e-001, 1.40069678e-001,
          1.30912453e-001, 1.13583587e-001, 1.37324616e-001,
          2.02318683e-001, 2.29292080e-001, 1.51571244e-001,
          1.21114261e-001, 1.01044275e-001, 1.48014322e-001,
          2.10879713e-001, 1.27655253e-001, 1.44342408e-001,
          2.29292080e-001, 2.29292080e-001, 1.05507068e-001,
          1.53639048e-001, 1.41649917e-001, 1.50344834e-001,
          2.20281705e-001, 2.01893508e-001, 2.29292080e-001,
          2.29292080e-001, 2.29292080e-001, 1.47567600e-001,
          1.07232712e-001, 1.14322759e-001, 2.23865077e-001,
          8.56125653e-002, 1.55430034e-001, 1.85916036e-001,
          1.45660058e-001, 1.52657941e-001, 1.16424553e-001,
          8.12438577e-002, 5.28941751e-002, 8.93361494e-002,
          1.77365780e-001, 1.60161391e-001, 2.18112037e-001,
          2.18112037e-001, 2.10183412e-001, 2.18112037e-001,
          8.55964273e-002, 1.38211727e-001, 1.47219509e-001,
          9.16199312e-002, 2.06369698e-001, 2.18112037e-001,
          1.83450848e-001, 2.18112037e-001, 1.81913525e-001,
          9.77077633e-002, 1.05837896e-001, 1.11069664e-001,
          1.79222628e-001, 2.01599374e-001, 2.18112037e-001,
          2.18112037e-001, 2.18112037e-001, 1.94986850e-001,
          1.02826089e-001, 1.50442779e-001, 1.77582175e-001,
          1.68598190e-001, 1.19573087e-001, 1.46672383e-001,
          1.60342693e-001, 2.15516552e-001, 2.15516552e-001,
          1.06034786e-001, 1.56780243e-001, 1.40969902e-001,
          1.09083474e-001, 2.06117570e-001, 1.44775435e-001,
          1.23880491e-001, 1.83441162e-001, 2.15516552e-001,
          1.53170228e-001, 1.54666051e-001, 1.21308684e-001,
          1.69474721e-001, 1.31990314e-001, 1.62758142e-001,
          2.13384882e-001, 2.15516552e-001, 1.79601178e-001,
          1.03295296e-001, 1.30222529e-001, 1.59496650e-001,
          1.24499977e-001, 1.82979539e-001, 1.65237725e-001,
          2.15516552e-001, 2.15516552e-001, 1.86594293e-001,
          1.49420217e-001, 1.77101150e-001, 1.37102365e-001,
          7.51697645e-002, 1.14712268e-001, 1.18884921e-001,
          1.65936500e-001, 1.83877185e-001, 2.07582787e-001,
          1.26507103e-001, 1.88190475e-001, 1.20360501e-001,
          3.41666453e-002, 1.10519961e-001, 1.85002089e-001,
          2.40631774e-001, 2.40631774e-001, 1.54495910e-001,
          9.92224067e-002, 1.77624136e-001, 8.72916132e-002,
          1.19074285e-001, 1.68746039e-001, 1.43045336e-001,
          2.22394407e-001, 2.02606216e-001, 1.70504481e-001,
          1.24281324e-001, 1.98885873e-001, 1.20564938e-001,
          1.32313907e-001, 1.60425112e-001, 1.94920972e-001,
          2.40631774e-001, 2.40631774e-001, 2.07590029e-001,
          1.62127644e-001, 1.78027570e-001, 8.75154659e-002,
          1.72596782e-001, 9.70070660e-002, 6.39669970e-002,
          1.76368028e-001, 2.25069523e-001, 1.87530875e-001,
          1.72894776e-001, 1.13489814e-001, 1.50579289e-001,
          1.11208409e-001, 1.04223415e-001, 1.51456594e-001,
          2.07148761e-001, 2.18083248e-001, 2.25069523e-001,
          2.25069523e-001, 1.57932818e-001, 1.62724987e-001,
          1.75038502e-001, 2.25069523e-001, 1.12517029e-001,
          1.76132724e-001, 1.88025326e-001, 1.62778750e-001,
          1.16529331e-001, 1.03560604e-001, 1.10138655e-001,
          1.17987022e-001, 2.11599559e-001, 1.48154885e-001,
          2.25069523e-001, 1.55941516e-001, 1.62324145e-001,
          1.61478668e-001, 1.88182399e-001, 1.26448229e-001,
          1.30009606e-001, 7.09718019e-002, 1.49146214e-001,
          1.37275085e-001, 1.53909847e-001, 1.51706889e-001,
          2.26161405e-001, 1.47990033e-001, 1.38653427e-001,
          1.74690381e-001, 8.91114175e-002, 1.50992170e-001,
          1.23537205e-001, 2.26161405e-001, 1.31356269e-001,
          2.09952518e-001, 1.84957132e-001, 2.04063579e-001,
          1.39113486e-001, 9.76472050e-002, 1.17311895e-001,
          2.26161405e-001, 1.82481095e-001, 1.38565674e-001,
          1.62876666e-001, 1.21675774e-001, 1.25222638e-001,
          2.26161405e-001, 1.29948065e-001, 1.48714215e-001,
          2.18489721e-001, 2.26161405e-001, 1.94829375e-001,
          2.01933473e-001, 1.35320798e-001, 2.03672349e-001,
          1.09484315e-001, 6.31090775e-002, 6.82890117e-002,
          6.79563284e-002, 2.28563219e-001, 1.14336275e-001,
          1.58958495e-001, 1.63842276e-001, 2.14946017e-001,
          1.54952794e-001, 8.78376886e-002, 1.02565691e-001,
          1.21037252e-001, 2.22933933e-001, 1.50552079e-001,
          1.92156777e-001, 1.46388769e-001, 1.69311300e-001,
          2.04892814e-001, 1.21731453e-001, 7.65302554e-002,
          1.14142522e-001, 2.28563219e-001, 2.21823111e-001,
          2.01806650e-001, 2.20229611e-001, 1.61186770e-001,
          1.48762420e-001, 1.67961448e-001, 8.83086771e-002,
          1.45549178e-001, 2.28563219e-001, 2.28563219e-001,
          1.94612190e-001, 2.28563219e-001, 1.62154108e-001,
          1.63403943e-001, 9.30952281e-002, 9.20620337e-002,
          2.06859022e-001, 1.72308534e-001, 1.38480246e-001,
          1.34740695e-001, 8.82216617e-002, 1.15781575e-001,
          1.41212568e-001, 1.58811778e-001, 2.04783797e-001,
          2.29352102e-001, 2.22198039e-001, 1.28627151e-001,
          1.17343239e-001, 7.98077434e-002, 1.58142164e-001,
          1.09195054e-001, 1.50790974e-001, 9.14147496e-002,
          1.48401871e-001, 1.49343133e-001, 2.29352102e-001,
          2.28273258e-001, 1.57552779e-001, 1.44111067e-001,
          2.29352102e-001, 2.29352102e-001, 2.29352102e-001,
          1.73470169e-001, 1.37745410e-001, 1.48287833e-001,
          2.29352102e-001, 1.46597371e-001, 1.77472308e-001,
          5.33915609e-002, 1.08494245e-001, 1.43306568e-001,
          1.30275965e-001, 1.82537794e-001, 1.08772941e-001,
          5.93322627e-002, 6.39232174e-002, 7.13496283e-002,
          1.24596104e-001, 1.34297445e-001, 1.15212150e-001,
          1.35206103e-001, 1.83258668e-001, 1.20497830e-001,
          5.97005896e-002, 8.71735439e-002, 1.04158476e-001,
          3.26563060e-001, 3.26563060e-001, 1.62206233e-001,
          1.53889909e-001, 1.46001890e-001, 5.46024218e-002,
          6.47030994e-002, 7.68014714e-002, 1.73601776e-001,
          3.26563060e-001, 3.26563060e-001, 1.40773669e-001,
          1.66524649e-001, 1.91318110e-001, 6.23454750e-002,
          3.89724560e-002, 1.19334891e-001, 3.26563060e-001,
          9.65457261e-002, 6.71289712e-002, 7.10043907e-002,
          9.58275795e-002, 1.16969287e-001, 6.64455369e-002,
          3.75735275e-002, 5.72329536e-002, 7.14562312e-002,
          9.49741304e-002, 6.37272969e-002, 8.38518068e-002,
          1.07303999e-001, 9.26928818e-002, 8.44680741e-002,
          7.40476847e-002, 1.48819327e-001, 1.00079365e-001,
          4.18188900e-001, 2.59036809e-001, 5.38456663e-002,
          5.60792275e-002, 8.00995976e-002, 3.96951698e-002,
          2.62947343e-002, 9.86053199e-002, 4.18188900e-001,
          4.18188900e-001, 7.00470954e-002, 7.63669163e-002,
          8.93070102e-002, 3.55775356e-002, 5.68423830e-002,
          5.35206385e-002, 1.94234341e-001, 4.18188900e-001,
          7.66255930e-002, 5.42818755e-002, 6.51569515e-002,
          6.61011487e-002, 6.64453655e-002, 9.79103968e-002,
          8.16769078e-002, 1.22576922e-001, 8.67879987e-002,
          7.99000114e-002, 8.95284489e-002, 8.84059593e-002,
          8.19885731e-002, 1.07075855e-001, 1.21346205e-001,
          6.13184161e-002, 7.93787017e-002, 7.89622143e-002,
          4.28847373e-001, 6.52714595e-002, 6.39062747e-002,
          5.81157506e-002, 3.58586349e-002, 7.66948462e-002,
          5.64090200e-002, 1.93418279e-001, 4.28847373e-001,
          3.06794792e-001, 1.16003662e-001, 6.46255836e-002,
          3.66313793e-002, 5.80416061e-002, 8.62256736e-002,
          4.85107973e-002, 3.55193734e-001, 4.28847373e-001,
          1.30317375e-001, 2.25862384e-001, 1.46876365e-001,
          1.35225803e-001, 1.51860192e-001, 1.34220883e-001,
          1.34178326e-001, 1.04860857e-001, 6.80861846e-002,
          1.32874802e-001, 2.25862384e-001, 1.56280726e-001,
          2.25862384e-001, 1.63910136e-001, 1.23620249e-001,
          1.01086862e-001, 1.39285207e-001, 8.57234448e-002,
          1.14789858e-001, 2.25862384e-001, 1.80759043e-001,
          1.44697979e-001, 2.25862384e-001, 1.01295970e-001,
          2.25862384e-001, 1.95123985e-001, 1.30657688e-001,
          1.37668446e-001, 2.25862384e-001, 2.25862384e-001,
          2.02018440e-001, 1.64108306e-001, 1.41006872e-001,
          1.86016753e-001, 2.21157104e-001, 1.20823979e-001,
          1.27803341e-001, 9.70482901e-002, 1.23544574e-001,
          2.20054790e-001, 1.45268381e-001, 9.43781585e-002,
          9.90625769e-002, 6.74821883e-002, 1.17014557e-001,
          2.20054790e-001, 1.04645975e-001, 1.06031455e-001,
          1.87874407e-001, 2.05962211e-001, 1.92890555e-001,
          1.86045602e-001, 8.90446827e-002, 2.20054790e-001,
          1.67488411e-001, 1.51158944e-001, 1.72231987e-001,
          2.01802820e-001, 1.10532157e-001, 9.91994441e-002,
          1.82506859e-001, 9.92525965e-002, 1.41621217e-001,
          2.20054790e-001, 2.12227777e-001, 2.20054790e-001,
          2.18260109e-001, 2.20054790e-001, 1.42935961e-001,
          2.19787881e-001, 1.10035464e-001, 2.20054790e-001,
          1.69646710e-001, 9.39616933e-002, 3.32645290e-002,
          7.28463158e-002, 1.31883949e-001, 1.70184612e-001,
          1.25283897e-001, 9.46185440e-002, 9.45347548e-002,
          1.24434523e-001, 2.06218660e-001, 1.11523144e-001,
          7.65630752e-002, 1.04980789e-001, 1.77164763e-001,
          1.20805912e-001, 1.48688793e-001, 1.20807596e-001,
          2.33144566e-001, 3.35308760e-001, 2.54025251e-001,
          1.26553491e-001, 9.98939723e-002, 9.84662101e-002,
          9.19873863e-002, 7.85882100e-002, 1.02404512e-001,
          3.35308760e-001, 3.35308760e-001, 3.35308760e-001,
          1.58866093e-001, 7.17748776e-002, 7.99646080e-002,
          7.63364434e-002, 8.60785842e-002, 1.52389035e-001,
          1.19962513e-001, 2.59653687e-001, 1.14367329e-001,
          3.94869037e-002, 3.20774429e-002, 6.66277185e-002,
          6.51903674e-002, 5.30410446e-002, 7.11882040e-002,
          3.28592986e-001, 3.28592986e-001, 1.29592314e-001,
          3.64004858e-002, 2.53201034e-002, 2.64159217e-002,
          5.38442470e-002, 3.99930030e-002, 9.67436507e-002,
          3.00639629e-001, 3.28592986e-001, 3.28592986e-001,
          8.30387697e-002, 3.55731137e-002, 2.44303793e-002,
          3.97221297e-002, 3.20444107e-002, 8.95489231e-002,
          3.28592986e-001, 3.28592986e-001, 2.48822987e-001,
          6.79760426e-002, 2.96252426e-002, 3.32381390e-002,
          5.62154651e-002, 4.79273424e-002, 1.33313090e-001,
          2.99803406e-001, 2.99803406e-001, 9.02155489e-002,
          2.65440792e-002, 2.09855232e-002, 1.19938087e-002,
          2.42833830e-002, 2.47980896e-002, 1.26862884e-001,
          2.99803406e-001, 2.99803406e-001, 9.16622728e-002,
          4.55364399e-002, 3.07049192e-002, 1.63801797e-002,
          1.62699539e-002, 5.08736037e-002, 2.80241191e-001,
          2.99803406e-001, 2.99803406e-001, 1.55651122e-001,
          4.42769602e-002, 1.90260448e-002, 3.34625319e-002,
          5.39377145e-002, 4.53349575e-002, 1.71467572e-001,
          2.99803406e-001, 2.99803406e-001, 1.62129447e-001,
          9.32849124e-002, 3.03252023e-002, 3.73050421e-002,
          5.85905388e-002, 7.85588920e-002, 2.21827954e-001,
          3.25594574e-001, 2.53730744e-001, 3.48569490e-002,
          2.81062108e-002, 1.72670800e-002, 2.37201601e-002,
          1.05177397e-002, 6.81105256e-002, 3.25594574e-001,
          3.25594574e-001, 1.11806758e-001, 4.24507894e-002,
          3.27600464e-002, 1.72741730e-002, 2.28505302e-002,
          2.04206351e-002, 1.04966797e-001, 3.25594574e-001,
          3.25594574e-001, 2.17954636e-001, 6.51240274e-002,
          7.11032599e-002, 2.47853454e-002, 6.46962300e-002,
          3.98043431e-002, 1.20526783e-001, 1.93979844e-001,
          3.25594574e-001, 2.59973377e-001, 9.78527591e-002,
          6.92288578e-002, 6.94172755e-002, 7.60585815e-002,
          4.23459820e-002, 1.38856128e-001, 1.79101348e-001,
          3.19521159e-001, 9.86773893e-002, 3.95687856e-002,
          2.66210139e-002, 1.69641823e-002, 1.26608992e-002,
          2.02296916e-002, 1.32237941e-001, 3.19521159e-001,
          2.42718950e-001, 5.12062311e-002, 1.74235906e-002,
          4.76336572e-003, 9.14179161e-003, 1.93947237e-002,
          7.53507167e-002, 3.19157064e-001, 3.19521159e-001,
          2.54378140e-001, 2.24336922e-001, 9.09413844e-002,
          6.05354086e-002, 5.83641008e-002, 4.28945124e-002,
          2.92443857e-002, 1.01048186e-001, 1.99591279e-001,
          3.19521159e-001, 1.94797546e-001, 5.62995225e-002,
          1.46947438e-002, 1.99220218e-002, 3.97655368e-002,
          7.13123605e-002, 2.33685151e-001, 3.19521159e-001,
          5.66564128e-002, 1.19009584e-001, 1.12841047e-001,
          1.05517901e-001, 1.99677110e-001, 1.63293257e-001,
          2.22256064e-001, 1.48421258e-001, 9.07586217e-002,
          1.06970228e-001, 1.93705067e-001, 1.74570039e-001,
          1.11695215e-001, 9.47128981e-002, 1.74218640e-001,
          2.22256064e-001, 1.71348363e-001, 8.16256776e-002,
          1.36935145e-001, 1.55512810e-001, 1.42274529e-001,
          1.81272626e-001, 2.22256064e-001, 2.22256064e-001,
          2.22256064e-001, 1.38195336e-001, 1.33956909e-001,
          2.09341213e-001, 2.22256064e-001, 1.87052891e-001,
          1.11842543e-001, 1.44959554e-001, 1.76434919e-001,
          2.22256064e-001, 1.44050717e-001, 2.22256064e-001,
          1.07287988e-001, 1.09331146e-001, 1.02086067e-001,
          8.78127664e-002, 6.85396418e-002, 6.89242333e-002,
          1.55555472e-001, 1.21233195e-001, 6.08573332e-002,
          1.12542301e-001, 2.21876442e-001, 2.84660190e-001,
          1.71917915e-001, 1.72530994e-001, 5.42647988e-002,
          1.56454608e-001, 1.20574087e-001, 7.28254914e-002,
          1.79225326e-001, 1.91234574e-001, 1.55006602e-001,
          1.19225949e-001, 9.61014181e-002, 9.31666344e-002,
          1.05920456e-001, 1.48597732e-001, 1.93830848e-001,
          2.47161105e-001, 2.84660190e-001, 2.84660190e-001,
          2.84660190e-001, 2.84660190e-001, 1.29770011e-001,
          1.12308256e-001, 1.34936005e-001, 1.59381881e-001,
          7.21948743e-002, 2.69865841e-001, 2.69865841e-001,
          1.11095496e-001, 9.15302336e-002, 2.20911261e-002,
          3.52553800e-002, 3.42748053e-002, 3.25597972e-002,
          2.28161737e-001, 2.69865841e-001, 2.69865841e-001,
          1.11745082e-001, 6.70212656e-002, 2.70656887e-002,
          2.33230330e-002, 1.78903490e-002, 5.48928045e-002,
          2.20154941e-001, 2.69865841e-001, 2.69865841e-001,
          1.97681382e-001, 1.71628535e-001, 3.31230573e-002,
          2.34354716e-002, 2.87069660e-002, 1.51327252e-001,
          2.69865841e-001, 2.69865841e-001, 2.69865841e-001,
          9.48626697e-002, 1.06222056e-001, 2.51611155e-002,
          1.48616098e-002, 4.44320664e-002, 2.69865841e-001,
          2.65618414e-001, 2.65618414e-001, 2.65618414e-001,
          1.13696486e-001, 4.72599156e-002, 4.30344902e-002,
          4.61836830e-002, 2.33906861e-002, 6.67578727e-002,
          2.62394100e-001, 2.65618414e-001, 2.11497948e-001,
          1.14191912e-001, 6.41041249e-002, 7.94247165e-002,
          5.83359897e-002, 6.02596663e-002, 1.09866373e-001,
          2.65618414e-001, 2.65618414e-001, 1.80576786e-001,
          7.97159374e-002, 5.78260012e-002, 4.26799841e-002,
          2.20955182e-002, 4.43729050e-002, 2.53393471e-001,
          2.65618414e-001, 2.65618414e-001, 1.75531417e-001,
          1.08552359e-001, 1.10641561e-001, 9.24022123e-002,
          3.11354026e-002, 8.32857713e-002, 2.65618414e-001,
          1.84255064e-001, 2.79848069e-001, 1.68773547e-001,
          8.56149346e-002, 5.24202920e-002, 4.94883955e-002,
          4.69609499e-002, 6.32886365e-002, 1.52894288e-001,
          2.79848069e-001, 2.79848069e-001, 1.42395645e-001,
          9.79131162e-002, 5.63358925e-002, 2.64831502e-002,
          6.63650259e-002, 1.26020446e-001, 2.54870653e-001,
          2.79848069e-001, 2.79848069e-001, 1.58107802e-001,
          6.46564811e-002, 7.48438314e-002, 5.36852218e-002,
          4.58806120e-002, 7.74376020e-002, 2.42143095e-001,
          2.79848069e-001, 2.79848069e-001, 1.18374079e-001,
          5.27929664e-002, 3.70601863e-002, 2.66481824e-002,
          5.53809218e-002, 1.44239023e-001, 2.79848069e-001,
          2.78657198e-001, 2.25098312e-001, 5.77165931e-002,
          4.87347431e-002, 2.64860392e-002, 3.11297942e-002,
          3.34997475e-002, 1.18128642e-001, 2.08295688e-001,
          2.78657198e-001, 2.78657198e-001, 1.72427163e-001,
          7.06980824e-002, 6.27535358e-002, 4.84550744e-002,
          2.30307765e-002, 9.04915109e-002, 1.96016103e-001,
          2.78657198e-001, 2.78657198e-001, 9.38209519e-002,
          2.90315393e-002, 1.80570930e-002, 1.63437948e-002,
          3.62547636e-002, 1.42261103e-001, 2.57248640e-001,
          2.78657198e-001, 2.78657198e-001, 1.88008457e-001,
          6.24063052e-002, 3.69058885e-002, 2.83734482e-002,
          5.28016351e-002, 1.70837522e-001, 2.78657198e-001,
          2.70605415e-001, 2.70605415e-001, 1.36578918e-001,
          4.43433709e-002, 4.51420061e-002, 3.50342356e-002,
          1.63290706e-002, 7.86183029e-002, 2.02808857e-001,
          2.70605415e-001, 2.70605415e-001, 6.09913915e-002,
          9.49923415e-003, 1.14010591e-002, 2.34422367e-002,
          1.80358384e-002, 1.89435631e-001, 2.70605415e-001,
          2.70605415e-001, 2.70605415e-001, 1.29490852e-001,
          6.27553314e-002, 3.96458358e-002, 3.27901095e-002,
          5.28806970e-002, 1.34317070e-001, 1.98978633e-001,
          2.70605415e-001, 2.70077556e-001, 6.36538267e-002,
          3.98515798e-002, 3.04996185e-002, 2.41668355e-002,
          7.74423406e-002, 2.42537946e-001, 2.65728384e-001,
          1.23168468e-001, 1.57004312e-001, 9.62571427e-002,
          1.00382827e-001, 1.87518924e-001, 1.49205312e-001,
          1.58366308e-001, 9.31334123e-002, 1.30762547e-001,
          1.51068941e-001, 2.11834565e-001, 1.62851065e-001,
          1.47292152e-001, 1.40863210e-001, 7.38233924e-002,
          1.40849948e-001, 1.08769163e-001, 2.54306197e-001,
          1.37336269e-001, 2.12274864e-001, 1.53824046e-001,
          1.36023611e-001, 1.92204073e-001, 1.86033383e-001,
          1.97187841e-001, 9.16001499e-002, 9.86045748e-002,
          1.94766179e-001, 2.42616817e-001, 2.54306197e-001,
          2.54306197e-001, 2.54306197e-001, 1.32772490e-001,
          1.56750813e-001, 9.66128409e-002, 1.24475829e-001,
          7.24522844e-002, 1.33922651e-001, 1.95494682e-001,
          2.11381286e-001, 5.39949536e-002, 3.54810096e-002,
          2.66295504e-002, 4.24880236e-002, 8.02527815e-002,
          1.70297071e-001, 3.03747982e-001, 3.03747982e-001,
          3.03747982e-001, 8.73443931e-002, 5.40849119e-002,
          1.93411447e-002, 2.71502510e-002, 6.93490133e-002,
          5.22118583e-002, 1.44226834e-001, 3.03747982e-001,
          3.03747982e-001, 1.79609939e-001, 4.16145995e-002,
          2.44745854e-002, 1.96397677e-002, 2.40475908e-002,
          1.17849402e-001, 3.03747982e-001, 3.03747982e-001,
          3.03747982e-001, 1.29081905e-001, 4.29795980e-002,
          2.00676117e-002, 2.55913977e-002, 4.04340364e-002,
          2.61473030e-001, 2.61473030e-001, 2.61473030e-001,
          2.02046975e-001, 1.00891910e-001, 4.84198816e-002,
          1.18597941e-002, 1.66777745e-002, 2.00697497e-001,
          2.61473030e-001, 2.61473030e-001, 1.18662208e-001,
          9.46456343e-002, 7.41312727e-002, 3.25932950e-002,
          1.24787483e-002, 4.00619507e-002, 2.61473030e-001,
          2.25652128e-001, 2.61473030e-001, 2.30112925e-001,
          1.68582842e-001, 9.79961827e-002, 6.46844059e-002,
          4.10662629e-002, 4.58526835e-002, 9.98835266e-002,
          2.22666889e-001, 2.51975089e-001, 1.77486897e-001,
          1.51181653e-001, 1.38007164e-001, 8.35027173e-002,
          9.30520520e-002, 7.53198341e-002, 1.60574540e-001,
          2.46343851e-001, 2.46343851e-001, 1.10521518e-001,
          1.27066776e-001, 5.59551679e-002, 2.27066781e-002,
          6.75405143e-003, 4.40551005e-002, 2.46343851e-001,
          2.46343851e-001, 2.46343851e-001, 1.68330088e-001,
          1.78758502e-001, 1.04567766e-001, 5.97142130e-002,
          1.94873158e-002, 7.30489120e-002, 2.46343851e-001,
          1.55832887e-001, 2.46343851e-001, 1.70422241e-001,
          2.10922599e-001, 1.82261303e-001, 7.36886337e-002,
          9.04394090e-002, 7.47613311e-002, 1.45364717e-001,
          1.80314437e-001, 2.46343851e-001, 2.46343851e-001,
          2.28294984e-001, 2.04188511e-001, 1.05645113e-001,
          4.53017764e-002, 7.31530339e-002, 1.43584982e-001,
          2.32844397e-001, 2.32844397e-001, 1.82791412e-001,
          1.12205431e-001, 9.10026804e-002, 7.18365908e-002,
          8.55817646e-002, 1.10071436e-001, 2.32844397e-001,
          2.32844397e-001, 2.32844397e-001, 1.39160112e-001,
          1.00974426e-001, 5.47066666e-002, 1.07740581e-001,
          1.36911675e-001, 2.16457218e-001, 2.32844397e-001,
          1.89313844e-001, 2.06746399e-001, 2.32844397e-001,
          1.83819890e-001, 1.51192665e-001, 9.32678357e-002,
          6.71092421e-002, 1.05948627e-001, 1.01227947e-001,
          1.32469773e-001, 1.88873678e-001, 2.32844397e-001,
          1.72687113e-001, 9.65301841e-002, 1.32873252e-001,
          1.68463007e-001, 2.32844397e-001, 1.13029875e-001,
          2.19220430e-001, 2.19220430e-001, 1.25732794e-001,
          7.72693753e-002, 6.00754693e-002, 9.71218869e-002,
          1.35963887e-001, 1.98693871e-001, 1.98950291e-001,
          2.19220430e-001, 2.19220430e-001, 1.90159529e-001,
          1.38416395e-001, 9.20359567e-002, 9.61555019e-002,
          1.78510383e-001, 2.19220430e-001, 2.19220430e-001,
          7.99362287e-002, 1.62455037e-001, 2.11795107e-001,
          9.76986140e-002, 1.04512259e-001, 1.37909412e-001,
          1.95050389e-001, 1.65922672e-001, 1.14413545e-001,
          1.27188131e-001, 1.56146139e-001, 2.01795042e-001,
          1.68725267e-001, 1.08777501e-001, 2.19220430e-001,
          2.19220430e-001, 1.97804257e-001, 1.39930055e-001,
          2.08247736e-001, 1.94976941e-001, 1.69905767e-001,
          1.76800743e-001, 1.08756378e-001, 1.13927625e-001,
          1.38067693e-001, 2.16135070e-001, 2.15588793e-001,
          2.03063577e-001, 1.52658746e-001, 1.35312349e-001,
          1.37413770e-001, 1.31239697e-001, 9.89987478e-002,
          1.67789504e-001, 2.16135070e-001, 1.82631254e-001,
          1.33914739e-001, 1.21794119e-001, 1.62630364e-001,
          2.16135070e-001, 1.28782213e-001, 2.16135070e-001,
          1.43396914e-001, 1.68621734e-001, 1.56373411e-001,
          1.14570163e-001, 9.98604596e-002, 1.44057289e-001,
          2.16135070e-001, 1.80309772e-001, 2.16135070e-001,
          1.35392070e-001, 1.89905956e-001, 1.24196380e-001,
          6.89486414e-002, 1.11145288e-001, 1.40578881e-001,
          1.16812751e-001, 1.13240033e-001, 1.28083363e-001,
          1.38247952e-001, 7.15694726e-002, 5.01322299e-002,
          1.13378108e-001, 9.69986841e-002, 2.79054672e-001,
          3.11586499e-001, 3.11586499e-001, 2.20913112e-001,
          8.71029571e-002, 4.51872349e-002, 8.50354508e-002,
          5.84095456e-002, 1.31111369e-001, 1.35632351e-001,
          1.42740592e-001, 1.62596390e-001, 1.45792678e-001,
          1.44885108e-001, 1.12313613e-001, 5.00268415e-002,
          7.27452710e-002, 9.82123688e-002, 3.05934727e-001,
          3.11586499e-001, 3.11586499e-001, 2.41589457e-001,
          1.17927447e-001, 7.77396783e-002, 7.89262578e-002,
          3.17944437e-002, 5.45635521e-002, 2.36586839e-001,
          2.86254913e-001, 2.86254913e-001, 1.24959752e-001,
          1.49560720e-002, 6.13136217e-003, 1.82442199e-002,
          1.02785915e-001, 1.52419224e-001, 2.01450691e-001,
          2.86254913e-001, 2.41154179e-001, 1.04547158e-001,
          1.74190812e-002, 2.64878254e-002, 4.69070747e-002,
          1.64191928e-002, 4.35568430e-002, 2.37347752e-001,
          2.86254913e-001, 2.86254913e-001, 1.79293260e-001,
          3.13450396e-002, 1.29617089e-002, 2.28020735e-002,
          7.30846152e-002, 1.27530694e-001, 2.01624334e-001,
          2.86254913e-001, 2.86254913e-001, 1.91767350e-001,
          4.30362970e-002, 4.53585051e-002, 7.38033205e-002,
          2.12490365e-001, 2.02815965e-001, 1.35128438e-001,
          1.97144940e-001, 1.80377796e-001, 1.00430049e-001,
          9.04467553e-002, 9.02121961e-002, 1.17850408e-001,
          1.31667659e-001, 1.35770619e-001, 2.05192968e-001,
          1.82800859e-001, 2.02057973e-001, 1.38783738e-001,
          2.12490365e-001, 1.79785714e-001, 1.34117395e-001,
          1.73718765e-001, 2.00000942e-001, 1.30793497e-001,
          2.12490365e-001, 2.12490365e-001, 1.50614649e-001,
          1.15484074e-001, 1.04031749e-001, 1.44153044e-001,
          1.86122641e-001, 1.53552279e-001, 1.63698524e-001,
          2.07189113e-001, 1.60382241e-001, 1.64322332e-001,
          2.12490365e-001, 1.34876654e-001, 1.59894884e-001,
          8.75021294e-002, 1.49941489e-001, 1.89445242e-001,
          2.07713410e-001, 2.12651238e-001, 1.13301508e-001,
          2.12651238e-001, 1.31703436e-001, 1.58435255e-001,
          1.34146139e-001, 2.12120578e-001, 2.08886862e-001,
          2.02966571e-001, 2.12651238e-001, 1.45942748e-001,
          1.00465141e-001, 8.50069597e-002, 1.41968921e-001,
          1.05673492e-001, 1.48130253e-001, 2.12651238e-001,
          2.02690288e-001, 1.31344005e-001, 1.63922742e-001,
          1.81776449e-001, 1.10385679e-001, 1.42748415e-001,
          1.28265664e-001, 1.82162464e-001, 2.10560843e-001,
          2.12651238e-001, 2.12651238e-001, 1.47697702e-001,
          1.51370183e-001, 7.31142834e-002, 1.65939197e-001,
          1.44204900e-001, 1.39714941e-001, 1.72169611e-001,
          1.86089873e-001, 1.97031334e-001, 1.09861128e-001,
          7.23672360e-002, 6.45577908e-002, 7.75595829e-002,
          1.43764734e-001, 2.13987768e-001, 2.35262141e-001,
          2.35262141e-001, 1.88703254e-001, 9.72010940e-002,
          1.02785759e-001, 1.00391246e-001, 9.08230245e-002,
          1.84334651e-001, 1.11552201e-001, 1.99155569e-001,
          2.35262141e-001, 2.14889392e-001, 1.27585441e-001,
          1.07263625e-001, 3.94062772e-002, 1.62734956e-001,
          2.35262141e-001, 2.00886562e-001, 2.35262141e-001,
          2.35262141e-001, 2.35262141e-001, 1.86998561e-001,
          9.01673883e-002, 3.86346430e-002, 1.60857767e-001,
          7.48428553e-002, 1.97344348e-001, 2.37785816e-001,
          1.57798752e-001, 1.83999553e-001, 9.58158001e-002,
          8.64485651e-002, 7.00635761e-002, 6.87798858e-002,
          1.13618225e-001, 1.08862586e-001, 2.01540068e-001,
          1.30783498e-001, 1.74067810e-001, 2.37785816e-001,
          1.05192855e-001, 1.14585198e-001, 1.29881144e-001,
          1.34790704e-001, 1.77025765e-001, 2.37785816e-001,
          2.37785816e-001, 2.37785816e-001, 2.37785816e-001,
          7.68157765e-002, 6.62113950e-002, 9.18980315e-002,
          1.62175775e-001, 1.56828687e-001, 2.22505972e-001,
          2.37785816e-001, 2.37785816e-001, 2.37785816e-001,
          9.86021757e-002, 1.22817673e-001, 1.08873464e-001,
          1.42305017e-001, 8.00254047e-002, 1.47193551e-001,
          1.58537582e-001, 2.05293864e-001, 2.20353469e-001,
          8.58149752e-002, 1.13974750e-001, 1.20097615e-001,
          1.14445768e-001, 1.30856559e-001, 1.77297100e-001,
          2.20353469e-001, 1.82280406e-001, 2.03697294e-001,
          9.42294672e-002, 1.40437916e-001, 8.98168683e-002,
          1.68851614e-001, 1.73459232e-001, 1.88824385e-001,
          2.20353469e-001, 2.20353469e-001, 2.06415713e-001,
          1.06080107e-001, 1.45082727e-001, 6.91872388e-002,
          1.77452892e-001, 2.20353469e-001, 2.20353469e-001,
          1.84539571e-001, 2.20353469e-001, 1.67650059e-001,
          1.41561121e-001, 1.90338671e-001, 1.03040449e-001 ]
      - [ 3.32291335e-001, 4.91930619e-002, 2.80151851e-002,
          3.20612751e-002, 3.62198241e-002, 2.53615454e-002,
          2.14458592e-002, 6.21668436e-002, 3.32291335e-001,
          3.14152807e-001, 5.05726039e-002, 4.05077934e-002,
          1.71229094e-002, 2.91745048e-002, 5.53809963e-002,
          3.51790451e-002, 1.00869335e-001, 3.32291335e-001,
          3.32291335e-001, 1.27216101e-001, 1.81860831e-002,
          2.74953898e-002, 4.11614738e-002, 1.93825029e-002,
          1.92948803e-002, 1.28666744e-001, 3.32291335e-001,
          3.32291335e-001, 1.71745107e-001, 4.39122692e-002,
          3.36535685e-002, 1.72869526e-002, 2.71148812e-002,
          2.09440030e-002, 1.56309634e-001, 3.32291335e-001,
          2.91530877e-001, 2.90223304e-002, 2.99520064e-002,
          6.34647021e-003, 1.82352159e-002, 6.07996359e-002,
          3.87683287e-002, 8.91117975e-002, 3.42593759e-001,
          3.42593759e-001, 4.72186469e-002, 4.12989371e-002,
          1.40508879e-002, 1.97886191e-002, 4.94371690e-002,
          5.50401881e-002, 7.58054927e-002, 3.42593759e-001,
          3.42593759e-001, 1.00201614e-001, 2.69272421e-002,
          1.10643813e-002, 3.04445671e-003, 2.33985893e-002,
          2.76216436e-002, 1.22863702e-001, 3.42593759e-001,
          3.42593759e-001, 9.62460041e-002, 3.29058394e-002,
          8.16443993e-004, 7.99433049e-003, 2.99696866e-002,
          5.44473715e-002, 1.31984755e-001, 3.42593759e-001,
          2.44953185e-001, 5.35442680e-002, 2.94519160e-002,
          1.96926109e-002, 1.61873177e-002, 2.18406040e-002,
          4.79149856e-002, 6.59018233e-002, 3.56683910e-001,
          3.13630521e-001, 6.56032935e-002, 2.41149366e-002,
          1.80863738e-002, 2.52849180e-002, 2.40036249e-002,
          4.94276881e-002, 9.19616818e-002, 3.56683910e-001,
          3.56683910e-001, 6.49786815e-002, 2.95724105e-002,
          1.84538693e-003, 4.94775921e-003, 1.62287932e-002,
          2.91321222e-002, 1.08133852e-001, 3.56683910e-001,
          3.56683910e-001, 7.28977695e-002, 1.07237166e-002,
          4.54056682e-003, 5.38060255e-003, 4.57873801e-003,
          2.32892334e-002, 1.48087755e-001, 3.56683910e-001,
          3.42864960e-001, 5.89879937e-002, 2.14715637e-002,
          6.89325389e-003, 1.83620248e-002, 2.33725496e-002,
          6.36692345e-002, 7.45166466e-002, 2.84966469e-001,
          3.28013688e-001, 4.76630516e-002, 3.52236517e-002,
          9.29818116e-003, 2.57951040e-002, 2.77675129e-002,
          5.07196486e-002, 7.26987347e-002, 3.42864960e-001,
          3.42864960e-001, 8.49558040e-002, 1.30998995e-002,
          1.77826593e-003, 4.90321219e-003, 5.00455499e-003,
          3.89434397e-002, 1.21446043e-001, 3.42864960e-001,
          3.42864960e-001, 7.75735378e-002, 2.61141788e-002,
          6.10326510e-003, 1.23459026e-002, 6.41790591e-003,
          4.31183465e-002, 2.06323788e-001, 3.42864960e-001,
          2.39723489e-001, 2.88948361e-002, 2.40572542e-002,
          1.72406118e-002, 3.89391892e-002, 3.67512479e-002,
          3.14587019e-002, 6.18817769e-002, 3.45403761e-001,
          2.71311462e-001, 3.44964750e-002, 1.89509578e-002,
          2.95638125e-002, 3.34522501e-002, 3.96262035e-002,
          2.95557994e-002, 4.85134274e-002, 3.61990660e-001,
          3.61990660e-001, 5.09236939e-002, 1.31043643e-002,
          5.99489780e-003, 1.57700516e-002, 1.29739102e-002,
          2.86357962e-002, 2.05971405e-001, 3.61990660e-001,
          3.61990660e-001, 6.63192198e-002, 6.99313637e-003,
          3.62252118e-003, 1.77924950e-002, 2.24410389e-002,
          4.28078622e-002, 1.39659017e-001, 3.61990660e-001,
          1.98967740e-001, 3.77203077e-002, 2.98357047e-002,
          4.31181900e-002, 2.36328766e-002, 2.56401524e-002,
          2.53447797e-002, 5.56735620e-002, 3.30995888e-001,
          1.62710771e-001, 5.47824875e-002, 4.75740954e-002,
          5.65529689e-002, 3.68626416e-002, 4.45282012e-002,
          3.54795568e-002, 8.94460231e-002, 3.74181688e-001,
          3.74181688e-001, 6.61762804e-002, 2.34760568e-002,
          9.95708257e-003, 1.40160015e-002, 1.55078275e-002,
          3.44308987e-002, 1.48614824e-001, 3.74181688e-001,
          3.74181688e-001, 1.24948405e-001, 3.33721824e-002,
          1.20038148e-002, 1.59198102e-002, 2.42882613e-002,
          2.90574003e-002, 2.07583934e-001, 3.74181688e-001,
          1.77940547e-001, 4.17746380e-002, 4.38321829e-002,
          3.44797596e-002, 4.17894050e-002, 3.73112783e-002,
          2.45144814e-002, 5.14137931e-002, 2.88292021e-001,
          2.54336864e-001, 3.77702452e-002, 3.80782895e-002,
          2.52153631e-002, 3.76692005e-002, 3.12368069e-002,
          1.99969299e-002, 5.20178080e-002, 3.35415542e-001,
          3.99148613e-001, 1.04635239e-001, 1.58129372e-002,
          8.83042254e-003, 1.62375476e-002, 2.02966947e-002,
          2.30141953e-002, 1.09872580e-001, 3.99148613e-001,
          3.99148613e-001, 1.10257953e-001, 1.72849596e-002,
          8.20482522e-003, 1.25690773e-002, 8.99395254e-003,
          1.33234663e-002, 9.49956551e-002, 3.99148613e-001,
          2.34290883e-001, 9.15834755e-002, 2.31951177e-002,
          9.23474208e-002, 1.64997190e-001, 7.71166682e-002,
          3.32298391e-002, 5.94799817e-002, 2.34290883e-001,
          2.34290883e-001, 1.27827376e-001, 9.63483751e-002,
          1.18575655e-001, 7.32800066e-002, 9.73316729e-002,
          7.24346861e-002, 9.63417888e-002, 2.34290883e-001,
          2.34290883e-001, 2.03519166e-001, 8.64252970e-002,
          1.57364056e-001, 1.69039890e-001, 1.35857210e-001,
          9.88395736e-002, 1.99340492e-001, 2.34290883e-001,
          2.34290883e-001, 1.72810614e-001, 1.65537909e-001,
          2.26813644e-001, 1.18113771e-001, 2.14157999e-001,
          2.01472655e-001, 2.34290883e-001, 2.34290883e-001,
          2.65009910e-001, 1.27409279e-001, 6.07246906e-002,
          5.77553436e-002, 1.88951790e-002, 4.95752096e-002,
          6.07386790e-002, 1.00584805e-001, 2.65009910e-001,
          2.65009910e-001, 1.66331545e-001, 5.83374873e-002,
          6.70567974e-002, 7.00043216e-002, 2.75792759e-002,
          3.81788760e-002, 1.40316814e-001, 2.65009910e-001,
          2.65009910e-001, 1.49421334e-001, 1.01139382e-001,
          1.72037497e-001, 8.37707594e-002, 1.22145362e-001,
          1.69035867e-001, 1.69984445e-001, 2.65009910e-001,
          2.65009910e-001, 2.45943263e-001, 1.30873576e-001,
          1.81540847e-001, 1.78589135e-001, 6.55427352e-002,
          1.05512016e-001, 1.83861598e-001, 2.65009910e-001,
          2.65710354e-001, 1.27115861e-001, 1.00184277e-001,
          4.76630032e-002, 4.32666056e-002, 3.01084556e-002,
          1.78964008e-002, 9.15513113e-002, 2.65710354e-001,
          2.65710354e-001, 1.02037787e-001, 7.06171617e-002,
          1.91302188e-002, 1.99076254e-003, 6.10592365e-002,
          4.55696136e-002, 7.87998065e-002, 2.65710354e-001,
          2.65710354e-001, 2.47043014e-001, 2.17912644e-001,
          1.33117124e-001, 1.06128186e-001, 5.92170358e-002,
          5.34963124e-002, 2.17666000e-001, 2.65710354e-001,
          2.65710354e-001, 2.06053361e-001, 1.78964600e-001,
          9.26130414e-002, 1.17038570e-001, 1.20098621e-001,
          9.78861675e-002, 2.29750216e-001, 2.65710354e-001,
          2.78872937e-001, 1.00108661e-001, 3.84911075e-002,
          3.15907225e-002, 8.69376771e-003, 3.56060937e-002,
          5.70931882e-002, 1.21247903e-001, 2.78872937e-001,
          2.78872937e-001, 8.71589035e-002, 7.75765628e-002,
          6.71912953e-002, 4.56842221e-002, 2.96780206e-002,
          6.51675910e-002, 1.82374075e-001, 2.78872937e-001,
          2.78872937e-001, 1.69816971e-001, 1.33601665e-001,
          1.34913370e-001, 9.40212533e-002, 9.28885490e-002,
          1.61139742e-001, 1.65799156e-001, 2.78872937e-001,
          2.78872937e-001, 9.56345722e-002, 1.58512905e-001,
          1.87231734e-001, 8.35748017e-002, 1.19634837e-001,
          1.38116539e-001, 1.97809786e-001, 2.78872937e-001,
          2.68398851e-001, 6.36854395e-002, 5.49535416e-002,
          2.82914042e-002, 3.27266566e-002, 4.29871120e-002,
          5.74111901e-002, 1.40206754e-001, 2.68398851e-001,
          2.68398851e-001, 7.26493970e-002, 1.90086663e-002,
          1.02787074e-002, 6.69283494e-002, 9.15819332e-002,
          1.21239826e-001, 1.59256488e-001, 2.68398851e-001,
          2.68398851e-001, 7.66474307e-002, 1.46816820e-001,
          7.95427114e-002, 7.13441148e-002, 1.13159366e-001,
          1.01753846e-001, 1.74532056e-001, 2.68398851e-001,
          2.68398851e-001, 1.57181770e-001, 1.67334795e-001,
          1.13523401e-001, 2.21247718e-001, 1.87128499e-001,
          2.05864012e-001, 2.10195690e-001, 2.68398851e-001,
          2.52129883e-001, 6.49363622e-002, 2.99351308e-002,
          3.20788510e-002, 5.29909879e-002, 6.36985525e-002,
          6.22368976e-002, 1.33901998e-001, 2.52129883e-001,
          2.52129883e-001, 1.36478677e-001, 5.91996536e-002,
          3.00102662e-002, 5.99135123e-002, 8.84019434e-002,
          4.94250655e-002, 1.78024709e-001, 2.52129883e-001,
          2.52129883e-001, 1.22502133e-001, 1.01396374e-001,
          1.23655692e-001, 1.71833098e-001, 1.47356436e-001,
          1.50319323e-001, 1.71819419e-001, 2.52129883e-001,
          2.52129883e-001, 1.61451399e-001, 9.62885842e-002,
          9.17806104e-002, 1.96164012e-001, 2.31377989e-001,
          2.05566809e-001, 2.52129883e-001, 2.52129883e-001,
          2.52837747e-001, 1.05026051e-001, 4.11586426e-002,
          1.21069858e-002, 4.54588383e-002, 6.55812472e-002,
          4.09453698e-002, 1.62444666e-001, 2.52837747e-001,
          2.52837747e-001, 1.45169109e-001, 1.19518384e-001,
          4.53602560e-002, 9.86962765e-003, 3.49711217e-002,
          4.35781516e-002, 9.75123495e-002, 2.52837747e-001,
          2.52837747e-001, 1.23693988e-001, 9.64287668e-002,
          1.02132745e-001, 1.55471757e-001, 1.90239325e-001,
          1.53751075e-001, 2.52837747e-001, 2.52837747e-001,
          2.52837747e-001, 1.93988517e-001, 2.52837747e-001,
          1.36285767e-001, 6.56631142e-002, 1.53097019e-001,
          9.60859358e-002, 2.20309734e-001, 2.52837747e-001,
          2.17114940e-001, 2.36223221e-001, 1.21689729e-001,
          1.17666773e-001, 4.79072519e-002, 8.56664404e-002,
          1.37719214e-001, 2.35012978e-001, 2.36223221e-001,
          2.36223221e-001, 2.36223221e-001, 1.53318420e-001,
          2.04782560e-001, 1.46211833e-001, 1.84246704e-001,
          1.90234736e-001, 2.36223221e-001, 2.36223221e-001,
          2.36223221e-001, 1.77218139e-001, 4.92217690e-002,
          2.77364273e-002, 2.00431105e-002, 2.91633271e-002,
          7.36343116e-002, 1.00722186e-001, 2.36223221e-001,
          2.36223221e-001, 2.32779890e-001, 8.03746283e-002,
          5.86968325e-002, 7.23173469e-002, 3.90384793e-002,
          7.74758384e-002, 7.31502026e-002, 2.12671131e-001,
          2.45605469e-001, 2.35234678e-001, 8.03783089e-002,
          1.88899443e-001, 1.20391726e-001, 1.31379709e-001,
          2.24975213e-001, 1.66006252e-001, 2.45605469e-001,
          2.45605469e-001, 2.45605469e-001, 1.55337676e-001,
          1.49322435e-001, 1.50393978e-001, 1.08405456e-001,
          2.45412603e-001, 1.66877896e-001, 2.45605469e-001,
          2.45605469e-001, 1.95679232e-001, 5.25866076e-002,
          4.49136086e-002, 3.72048728e-002, 2.76103113e-002,
          9.37026516e-002, 6.73523843e-002, 1.56463504e-001,
          2.45605469e-001, 1.87401533e-001, 7.63080567e-002,
          3.26462872e-002, 2.31125932e-002, 3.88046876e-002,
          1.17781863e-001, 1.19456023e-001, 2.09297791e-001,
          2.33020231e-001, 2.24053696e-001, 2.33020231e-001,
          1.36209905e-001, 1.01659477e-001, 8.43044072e-002,
          1.12958424e-001, 2.33020231e-001, 2.33020231e-001,
          2.33020231e-001, 1.98403522e-001, 2.30234593e-001,
          1.41043887e-001, 2.33020231e-001, 9.59607735e-002,
          1.19845137e-001, 2.33020231e-001, 2.33020231e-001,
          2.33020231e-001, 1.08888701e-001, 1.04701832e-001,
          5.51447496e-002, 3.35069783e-002, 5.57056330e-002,
          9.43535864e-002, 1.40071422e-001, 1.81865558e-001,
          2.31948122e-001, 9.96241421e-002, 1.20170735e-001,
          6.06521182e-002, 9.80994999e-002, 6.69853091e-002,
          1.02715679e-001, 1.59461230e-001, 2.24892676e-001,
          2.64930397e-001, 1.33285150e-001, 1.94781095e-001,
          1.87224463e-001, 1.78293467e-001, 9.66723785e-002,
          2.20677480e-001, 1.46116480e-001, 2.64930397e-001,
          2.64930397e-001, 6.78827688e-002, 1.33314684e-001,
          2.04809904e-001, 1.09667547e-001, 1.64679512e-001,
          1.53368890e-001, 1.82053581e-001, 2.64930397e-001,
          2.64930397e-001, 8.76324698e-002, 7.80216381e-002,
          6.41180500e-002, 6.62225783e-002, 5.01636527e-002,
          9.11233053e-002, 9.79082137e-002, 2.33474597e-001,
          2.64930397e-001, 7.88764134e-002, 5.51335476e-002,
          7.78398439e-002, 4.94806059e-002, 6.95522130e-002,
          4.55700569e-002, 1.48638427e-001, 2.64930397e-001,
          2.47137621e-001, 9.08383504e-002, 1.36285424e-001,
          8.93099979e-002, 7.45628476e-002, 1.06968150e-001,
          7.80119896e-002, 2.43804783e-001, 2.47137621e-001,
          2.47137621e-001, 2.08533421e-001, 2.47137621e-001,
          1.92766428e-001, 2.37048388e-001, 1.60960421e-001,
          1.46963641e-001, 1.72686443e-001, 2.47137621e-001,
          2.47137621e-001, 8.41423348e-002, 5.98951876e-002,
          4.56572212e-002, 2.84650642e-002, 5.40861040e-002,
          3.87649871e-002, 1.78345636e-001, 2.47137621e-001,
          2.47137621e-001, 1.30148083e-001, 1.08917803e-001,
          7.54342079e-002, 6.91950619e-002, 8.47680718e-002,
          9.15353000e-002, 1.08172111e-001, 2.47137621e-001,
          2.40796313e-001, 1.23922594e-001, 1.47567466e-001,
          1.38669685e-001, 2.33010605e-001, 1.74201444e-001,
          1.41609833e-001, 1.24481544e-001, 2.40796313e-001,
          2.40796313e-001, 1.22754738e-001, 1.01965755e-001,
          8.52892697e-002, 2.40796313e-001, 2.40796313e-001,
          2.03487605e-001, 2.40796313e-001, 2.40796313e-001,
          2.40796313e-001, 8.20709541e-002, 5.85562438e-002,
          3.84459160e-002, 1.03806920e-001, 9.13947746e-002,
          6.38120323e-002, 8.29107165e-002, 2.40796313e-001,
          2.33007342e-001, 9.33646411e-002, 7.04862997e-002,
          4.21257243e-002, 1.10896818e-001, 1.20617531e-001,
          5.52214421e-002, 1.60313413e-001, 2.40796313e-001,
          2.29926094e-001, 1.06486537e-001, 1.06419846e-001,
          1.46626770e-001, 1.95883125e-001, 2.29926094e-001,
          1.77926987e-001, 2.29926094e-001, 2.29926094e-001,
          2.29926094e-001, 1.50502294e-001, 2.17148751e-001,
          1.17528901e-001, 1.19951442e-001, 2.29926094e-001,
          1.58551276e-001, 2.29926094e-001, 2.29926094e-001,
          2.29926094e-001, 8.69098604e-002, 6.33764341e-002,
          6.45866245e-002, 5.88044375e-002, 9.74092484e-002,
          6.71957731e-002, 1.21371828e-001, 2.29926094e-001,
          2.29926094e-001, 1.17709287e-001, 6.50465116e-002,
          4.01175916e-002, 4.92763966e-002, 1.10909358e-001,
          1.22190118e-001, 1.69362545e-001, 2.29926094e-001,
          3.22789222e-001, 1.14468448e-001, 2.90344190e-002,
          1.07415449e-002, 1.53529141e-002, 2.61201430e-002,
          4.61178198e-002, 1.11032553e-001, 3.22789222e-001,
          3.22789222e-001, 1.42167345e-001, 4.93690483e-002,
          2.06590164e-002, 8.77347589e-003, 1.00046601e-002,
          2.68901121e-002, 9.44411606e-002, 3.22789222e-001,
          3.22789222e-001, 1.12839766e-001, 2.11267751e-002,
          6.27731979e-002, 5.87284230e-002, 2.49840897e-002,
          3.87326255e-002, 1.35653451e-001, 3.22789222e-001,
          3.22789222e-001, 8.41491818e-002, 1.07789496e-002,
          6.48128800e-003, 6.44348981e-003, 1.04962643e-002,
          3.77064459e-002, 2.25819677e-001, 3.22789222e-001,
          3.11142176e-001, 1.65418833e-001, 6.35440648e-002,
          2.30298210e-002, 2.96993274e-003, 7.51949148e-003,
          3.31392474e-002, 7.74918273e-002, 3.11142176e-001,
          3.11142176e-001, 2.01966122e-001, 7.88236633e-002,
          1.35052931e-002, 1.25088880e-003, 2.35078633e-002,
          5.59182279e-002, 1.20627373e-001, 3.11142176e-001,
          3.11142176e-001, 8.19430202e-002, 2.86889132e-002,
          1.24704009e-002, 7.73495948e-003, 1.09345643e-002,
          5.00011370e-002, 1.78472683e-001, 3.11142176e-001,
          3.11142176e-001, 9.61386710e-002, 3.59163843e-002,
          3.76131665e-003, 3.11338101e-002, 3.39845866e-002,
          6.40767887e-002, 2.42683470e-001, 3.11142176e-001,
          2.84293115e-001, 1.19526021e-001, 6.32603541e-002,
          1.08606014e-002, 7.53511302e-003, 2.37369929e-002,
          8.55357051e-002, 1.45666122e-001, 2.90973574e-001,
          2.90973574e-001, 1.47271320e-001, 3.97601649e-002,
          8.03194754e-003, 2.26494502e-002, 3.18657942e-002,
          1.01396747e-001, 1.82763889e-001, 2.90973574e-001,
          2.90973574e-001, 7.05344677e-002, 1.64220650e-002,
          2.85500963e-003, 3.29357684e-002, 3.66517231e-002,
          7.26830140e-002, 2.89468437e-001, 2.90973574e-001,
          2.90973574e-001, 1.40058383e-001, 1.37813529e-002,
          1.12266224e-002, 2.11014505e-002, 2.83326618e-002,
          7.00048506e-002, 2.90973574e-001, 2.90973574e-001,
          2.92980075e-001, 1.70692295e-001, 1.69422459e-002,
          5.37954504e-003, 1.38401864e-002, 2.74861772e-002,
          5.39947450e-002, 1.78517431e-001, 2.92980075e-001,
          2.92980075e-001, 1.52279466e-001, 4.24947403e-002,
          1.51420217e-002, 1.86194992e-003, 1.80280730e-002,
          3.54317091e-002, 2.03491360e-001, 2.92980075e-001,
          2.92980075e-001, 1.76856637e-001, 1.49390334e-002,
          1.55006908e-002, 2.49308795e-002, 2.07752530e-002,
          4.47565317e-002, 2.45856464e-001, 2.92980075e-001,
          2.92980075e-001, 1.61543354e-001, 1.29916864e-002,
          1.70453805e-002, 2.02004835e-002, 2.88691651e-002,
          4.23496515e-002, 2.28342146e-001, 2.92980075e-001,
          2.78053105e-001, 1.22225210e-001, 5.61268739e-002,
          2.38459725e-002, 4.30933293e-003, 3.09157353e-002,
          4.13444825e-002, 1.98794588e-001, 2.78053105e-001,
          2.78053105e-001, 1.72555774e-001, 5.43350428e-002,
          2.39782538e-002, 1.58653259e-002, 4.01311889e-002,
          8.34664553e-002, 1.83937788e-001, 2.78053105e-001,
          2.78053105e-001, 1.62486702e-001, 1.57709420e-002,
          7.07484782e-003, 5.74178528e-003, 1.80164557e-002,
          4.61000949e-002, 2.27684855e-001, 2.78053105e-001,
          2.78053105e-001, 2.74439156e-001, 4.26598489e-002,
          3.87490727e-003, 4.49724793e-002, 2.17971336e-002,
          6.24573492e-002, 2.78053105e-001, 2.78053105e-001,
          2.72427201e-001, 1.27644107e-001, 6.18598573e-002,
          1.12304827e-002, 1.49044245e-002, 2.19920259e-002,
          5.09190634e-002, 1.13143072e-001, 2.46270463e-001,
          2.72427201e-001, 1.25634670e-001, 9.44394767e-002,
          2.40580570e-002, 1.91937312e-002, 1.45713128e-002,
          3.53743397e-002, 1.41195849e-001, 2.72427201e-001,
          2.72427201e-001, 2.72427201e-001, 9.92958471e-002,
          2.39886139e-002, 9.64015648e-002, 2.37202141e-002,
          3.68670970e-002, 1.27631858e-001, 2.72427201e-001,
          2.72427201e-001, 2.72427201e-001, 2.16917634e-001,
          6.10624067e-002, 1.04426622e-001, 4.90897037e-002,
          1.91723600e-001, 2.15613276e-001, 2.72427201e-001,
          2.91706502e-001, 8.88686627e-002, 4.78481278e-002,
          3.57658677e-002, 9.06556286e-003, 3.24804382e-003,
          3.31962295e-002, 1.07530087e-001, 2.91706502e-001,
          2.91706502e-001, 1.18671052e-001, 2.98600812e-002,
          2.88009122e-002, 6.03366364e-003, 2.29191929e-002,
          6.44424185e-002, 1.22598857e-001, 2.91706502e-001,
          2.91706502e-001, 1.53602049e-001, 9.86045897e-002,
          3.54501903e-002, 7.23770112e-002, 9.70405787e-002,
          2.74073541e-001, 2.54622102e-001, 2.91706502e-001,
          2.91706502e-001, 8.85638222e-002, 2.43208092e-002,
          2.32412778e-002, 4.96919714e-002, 7.75333792e-002,
          1.14646740e-001, 1.91817611e-001, 2.91706502e-001,
          2.96252906e-001, 1.15753077e-001, 2.17339285e-002,
          5.73233664e-002, 6.25056922e-002, 1.82147194e-002,
          4.47768755e-002, 1.05047524e-001, 2.96252906e-001,
          2.96252906e-001, 7.27907047e-002, 1.31953079e-002,
          1.23284422e-002, 5.45484312e-002, 2.45567169e-002,
          6.68496192e-002, 2.62811631e-001, 2.96252906e-001,
          2.96252906e-001, 1.03393063e-001, 3.61529291e-002,
          2.61272322e-002, 3.18331718e-002, 1.84757784e-002,
          6.00862764e-002, 1.87984675e-001, 2.96252906e-001,
          2.96252906e-001, 1.45462394e-001, 5.13878055e-002,
          4.17758971e-002, 8.67381468e-002, 2.84769554e-002,
          5.57424873e-002, 2.96252906e-001, 2.96252906e-001,
          2.77826905e-001, 7.09445551e-002, 2.73752026e-002,
          1.26647130e-002, 3.89034823e-002, 1.02859326e-002,
          3.91315483e-002, 1.89368173e-001, 2.77826905e-001,
          2.77826905e-001, 1.03658535e-001, 3.14775333e-002,
          3.48504400e-003, 2.75212340e-002, 9.19086765e-003,
          2.57140379e-002, 2.49852732e-001, 2.77826905e-001,
          2.77826905e-001, 2.49504268e-001, 1.33755058e-001,
          6.80965781e-002, 8.00258666e-002, 1.66670214e-002,
          2.88172588e-002, 1.51871622e-001, 2.77826905e-001,
          2.77826905e-001, 2.77826905e-001, 1.61620721e-001,
          6.92236349e-002, 6.96189851e-002, 9.56334360e-003,
          3.38973738e-002, 1.71885580e-001, 2.77826905e-001,
          2.93369472e-001, 4.74842303e-002, 5.15465438e-003,
          2.37577921e-003, 2.55790260e-002, 2.20929664e-002,
          3.94601971e-002, 2.47914374e-001, 2.93369472e-001,
          2.93369472e-001, 7.97449574e-002, 8.06436874e-003,
          1.28196478e-002, 1.87035967e-002, 2.28020363e-002,
          3.07889208e-002, 2.25383684e-001, 2.93369472e-001,
          2.93369472e-001, 1.49718463e-001, 4.45773937e-002,
          2.10808218e-002, 3.10076866e-002, 1.03314193e-002,
          8.18953738e-002, 2.47181982e-001, 2.93369472e-001,
          2.93369472e-001, 1.53338552e-001, 1.48287388e-002,
          6.80665206e-003, 4.69298195e-003, 1.30575290e-002,
          6.12233430e-002, 2.47891724e-001, 2.93369472e-001,
          2.80027688e-001, 1.01735041e-001, 1.30207082e-002,
          1.66411661e-002, 1.92285497e-002, 2.24020611e-002,
          1.36639392e-002, 1.69633776e-001, 2.83682197e-001,
          2.83682197e-001, 1.34665594e-001, 2.00278927e-002,
          1.43872276e-002, 2.33014543e-002, 3.68310213e-002,
          1.79044195e-002, 1.38454631e-001, 2.83682197e-001,
          2.83682197e-001, 1.67365924e-001, 1.14690922e-001,
          1.14052249e-002, 5.85541083e-003, 1.96065735e-002,
          2.29746457e-002, 1.65608838e-001, 2.83682197e-001,
          2.83682197e-001, 2.83682197e-001, 2.83682197e-001,
          8.96103531e-002, 1.04045667e-001, 5.70114069e-002,
          3.25207561e-002, 1.44481048e-001, 2.83682197e-001,
          2.59857148e-001, 1.18425056e-001, 1.69297457e-002,
          4.36656084e-003, 1.50574818e-002, 2.92222295e-002,
          3.55313309e-002, 1.11754648e-001, 2.59857148e-001,
          2.59857148e-001, 1.56844810e-001, 4.12241444e-002,
          9.26464703e-003, 1.26325324e-001, 7.27064684e-002,
          9.16032642e-002, 1.32887304e-001, 2.59857148e-001,
          2.59857148e-001, 2.51278788e-001, 1.80873379e-001,
          1.33017883e-001, 1.81647778e-001, 1.23055279e-001,
          1.08393140e-001, 1.31528437e-001, 2.59857148e-001,
          2.59857148e-001, 8.71327817e-002, 6.25896156e-002,
          7.85126463e-002, 2.14826033e-001, 1.68847084e-001,
          2.09228024e-001, 1.65854946e-001, 2.59857148e-001,
          2.27856040e-001, 1.63356289e-001, 5.01028933e-002,
          1.72747690e-002, 1.56201378e-001, 6.55147731e-002,
          1.03038631e-001, 5.90935349e-002, 1.28366262e-001,
          2.27856040e-001, 2.27856040e-001, 1.43172294e-001,
          6.35847896e-002, 1.02329604e-001, 9.35667232e-002,
          1.77558064e-001, 1.29789084e-001, 1.77303791e-001,
          2.20631436e-001, 7.06109852e-002, 5.61887026e-002,
          5.41594476e-002, 2.26903096e-001, 1.53118372e-001,
          2.27856040e-001, 1.36418760e-001, 2.21978828e-001,
          2.27856040e-001, 2.27856040e-001, 2.27856040e-001,
          1.53894410e-001, 1.68013096e-001, 1.67299122e-001,
          2.27856040e-001, 1.88782483e-001, 2.27856040e-001,
          1.70065314e-001, 1.60718739e-001, 1.21922307e-001,
          9.98313576e-002, 1.50079668e-001, 1.93066627e-001,
          2.32501671e-001, 1.56971321e-001, 1.44540116e-001,
          1.90834150e-001, 5.52938916e-002, 3.17982659e-002,
          6.32789731e-002, 1.15695484e-001, 1.31703928e-001,
          1.24812722e-001, 9.90791097e-002, 1.74545139e-001,
          1.75358742e-001, 2.32501671e-001, 2.32501671e-001,
          2.32501671e-001, 1.75373167e-001, 1.71958745e-001,
          2.26157665e-001, 1.16715007e-001, 1.92928329e-001,
          2.32501671e-001, 2.06714034e-001, 1.74850821e-001,
          1.66010723e-001, 1.42183736e-001, 1.21836632e-001,
          1.10000640e-001, 1.27460077e-001, 2.32501671e-001,
          2.22358033e-001, 1.38758466e-001, 9.36415046e-002,
          2.43935939e-002, 1.97348781e-002, 1.07005034e-002,
          2.42054835e-002, 1.28121212e-001, 2.41218999e-001,
          2.41218999e-001, 8.54850560e-002, 4.98564690e-002,
          4.56595644e-002, 6.24665394e-002, 7.28959888e-002,
          9.11790803e-002, 2.41218999e-001, 2.41218999e-001,
          2.41218999e-001, 2.41218999e-001, 2.41218999e-001,
          4.35936078e-002, 6.51451796e-002, 3.35515961e-002,
          5.41007891e-002, 1.24279372e-001, 2.30597526e-001,
          2.41218999e-001, 2.41218999e-001, 2.41218999e-001,
          1.07784294e-001, 1.62326023e-001, 1.58601552e-001,
          1.80103675e-001, 2.41218999e-001, 2.41218999e-001,
          1.76859766e-001, 2.05507323e-001, 1.34843066e-001,
          5.69956228e-002, 6.83846772e-002, 7.07455650e-002,
          6.33787960e-002, 1.05340756e-001, 1.23237118e-001,
          2.20340073e-001, 2.53557235e-001, 2.04316556e-001,
          1.03925332e-001, 1.45575523e-001, 5.52299246e-002,
          7.93553218e-002, 7.03383535e-002, 1.91692740e-001,
          1.70930102e-001, 2.53557235e-001, 2.53557235e-001,
          1.08655572e-001, 1.17112748e-001, 1.41296238e-001,
          1.42537192e-001, 1.69280767e-001, 1.49092987e-001,
          2.53557235e-001, 2.53557235e-001, 2.53557235e-001,
          1.79014966e-001, 1.84415117e-001, 1.55794218e-001,
          2.08306834e-001, 8.36331099e-002, 1.29790083e-001,
          1.86450168e-001, 1.34050965e-001, 6.48695603e-002,
          4.62610833e-002, 8.39575082e-002, 7.40107670e-002,
          2.27306411e-001, 1.97387829e-001, 2.31736571e-001,
          1.79672614e-001, 8.61420780e-002, 6.51108921e-002,
          1.47823356e-002, 1.69864316e-002, 7.52487704e-002,
          2.31736571e-001, 2.31736571e-001, 2.31736571e-001,
          1.66015625e-001, 2.11165264e-001, 1.16511472e-001,
          1.09043635e-001, 1.71402007e-001, 2.31736571e-001,
          2.31736571e-001, 1.72313794e-001, 2.04081267e-001,
          1.17418028e-001, 1.23094827e-001, 1.36778027e-001,
          5.42787760e-002, 1.03727981e-001, 2.05735460e-001,
          2.31736571e-001, 2.31736571e-001, 2.31736571e-001,
