%YAML:1.0
my_svm: !!opencv-ml-svm
   svm_type: C_SVC
   kernel: { type:RBF, gamma:5.0000000000000000e-001 }
   C: 1.
   term_criteria: { epsilon:1.1920928955078125e-007, iterations:1000 }
   var_all: 1764
   var_count: 1764
   class_count: 11
   class_labels: !!opencv-matrix
      rows: 1
      cols: 11
      dt: i
      data: [ 0, 1, 2, 3, 4, 5, 6, 7, 8, 9, 14 ]
   sv_total: 31
   support_vectors:
      - [ 7.94996396e-002, 1.00749269e-001, 3.91645022e-002,
          3.93905565e-002, 7.92161822e-002, 1.00152127e-001,
          1.16474599e-001, 1.21746622e-001, 1.45806819e-001,
          1.03247039e-001, 1.05856888e-001, 7.18517303e-002,
          7.47919157e-002, 6.13964312e-002, 1.36560887e-001,
          6.85922801e-002, 8.43912289e-002, 1.26382977e-001,
          2.09858745e-001, 2.49835014e-001, 2.49835014e-001,
          2.49835014e-001, 2.49835014e-001, 2.49835014e-001,
          2.49835014e-001, 2.22755775e-001, 2.23441184e-001,
          1.56749353e-001, 2.49835014e-001, 2.49835014e-001,
          2.49835014e-001, 2.02707618e-001, 1.78213209e-001,
          9.41336676e-002, 9.09510776e-002, 9.62025747e-002,
          1.56068817e-001, 2.57102072e-001, 1.84436604e-001,
          1.04198962e-001, 5.20833470e-002, 6.45337477e-002,
          6.39157444e-002, 5.90619780e-002, 1.14571542e-001,
          2.69410402e-001, 2.69410402e-001, 2.69410402e-001,
          1.81292936e-001, 1.05747886e-001, 4.71797138e-002,
          5.64000793e-002, 6.41048104e-002, 1.69852257e-001,
          1.76370040e-001, 2.69410402e-001, 2.69410402e-001,
          2.69410402e-001, 8.92346501e-002, 5.74548915e-002,
          5.66266887e-002, 7.22764656e-002, 9.39860344e-002,
          2.01409847e-001, 2.69410402e-001, 2.69410402e-001,
          1.37330383e-001, 1.27389818e-001, 6.42500892e-002,
          7.19412118e-002, 9.36619937e-002, 1.34020120e-001,
          1.38741925e-001, 2.24172756e-001, 2.24172756e-001,
          2.24172756e-001, 1.79041311e-001, 7.78852701e-002,
          5.62776700e-002, 6.64870143e-002, 1.04515448e-001,
          1.57079101e-001, 1.49385676e-001, 1.75831661e-001,
          2.24172756e-001, 1.91740587e-001, 1.26464233e-001,
          8.49590302e-002, 9.73228961e-002, 1.25034243e-001,
          8.19681659e-002, 2.24172756e-001, 1.78771943e-001,
          1.74743414e-001, 2.24172756e-001, 1.35816500e-001,
          1.52114630e-001, 9.84207913e-002, 6.57306984e-002,
          1.59010664e-001, 1.70230970e-001, 1.75905630e-001,
          2.24172756e-001, 2.24172756e-001, 1.67105898e-001,
          2.24172756e-001, 1.59835622e-001, 2.07666546e-001,
          2.00093374e-001, 1.03131287e-001, 1.25095010e-001,
          1.23653367e-001, 8.19704756e-002, 9.92876962e-002,
          6.91213235e-002, 1.72431216e-001, 1.78469792e-001,
          1.76321939e-001, 7.22572505e-002, 1.26556620e-001,
          1.14169106e-001, 6.77817985e-002, 1.41592160e-001,
          1.82308361e-001, 2.21961662e-001, 1.97128549e-001,
          2.16435075e-001, 1.46844685e-001, 1.94570586e-001,
          2.21961662e-001, 2.11035624e-001, 1.26447335e-001,
          2.21961662e-001, 2.21961662e-001, 2.21961662e-001,
          1.45173520e-001, 9.52928513e-002, 1.51332140e-001,
          1.61243603e-001, 1.09855406e-001, 2.12154612e-001,
          2.21961662e-001, 2.21961662e-001, 1.52761355e-001,
          1.21888310e-001, 5.10545000e-002, 7.92652518e-002,
          9.70115662e-002, 7.88296238e-002, 1.93087727e-001,
          2.46480614e-001, 2.46480614e-001, 1.46511331e-001,
          1.73977867e-001, 8.45511928e-002, 7.58447945e-002,
          6.37917072e-002, 7.03674108e-002, 1.20596394e-001,
          2.26819113e-001, 2.10015073e-001, 2.06644446e-001,
          1.19462930e-001, 1.07056953e-001, 7.80756027e-002,
          1.15086108e-001, 1.26721710e-001, 2.36827523e-001,
          2.46480614e-001, 2.46480614e-001, 1.55879498e-001,
          2.46480614e-001, 1.76785916e-001, 9.51456577e-002,
          4.94552553e-002, 1.06063411e-001, 1.13522209e-001,
          2.46480614e-001, 2.46480614e-001, 2.46480614e-001,
          1.92389414e-001, 1.17503025e-001, 1.17504343e-001,
          6.25250041e-002, 9.30189565e-002, 8.11504424e-002,
          1.04311690e-001, 1.20394483e-001, 1.69573754e-001,
          1.95583910e-001, 2.53965735e-001, 2.53965735e-001,
          1.48923084e-001, 1.25843331e-001, 7.70730823e-002,
          1.03388257e-001, 1.20665334e-001, 9.46211144e-002,
          2.53965735e-001, 2.38142446e-001, 1.77004546e-001,
          5.10365888e-002, 5.02229519e-002, 7.41372183e-002,
          1.65607482e-001, 2.11199790e-001, 2.53965735e-001,
          2.53965735e-001, 2.53965735e-001, 2.53965735e-001,
          2.52820551e-001, 9.79729891e-002, 3.44511010e-002,
          6.47444129e-002, 1.24655075e-001, 1.62860945e-001,
          1.36908010e-001, 2.40276441e-001, 2.40276441e-001,
          1.70112953e-001, 9.00610015e-002, 3.97446491e-002,
          5.18003404e-002, 6.12755232e-002, 7.33395442e-002,
          1.66918233e-001, 2.01899603e-001, 2.40276441e-001,
          1.49145097e-001, 1.03722021e-001, 7.21340925e-002,
          3.62261012e-002, 1.74745709e-001, 2.40276441e-001,
          1.68128371e-001, 2.40276441e-001, 2.40276441e-001,
          2.40276441e-001, 1.17843039e-001, 3.97858322e-002,
          3.74978967e-002, 7.32727498e-002, 8.08115229e-002,
          2.21862078e-001, 2.20807210e-001, 2.40276441e-001,
          2.29575515e-001, 2.08528921e-001, 1.17864110e-001,
          8.02962035e-002, 1.72304899e-001, 1.63183376e-001,
          1.40899375e-001, 1.75581232e-001, 2.09713697e-001,
          1.90164700e-001, 2.77332097e-001, 1.49106368e-001,
          1.78614184e-001, 1.44443631e-001, 9.88263562e-002,
          4.44358289e-002, 8.34305137e-002, 1.32110208e-001,
          1.80332899e-001, 1.73872307e-001, 4.35717553e-002,
          2.29958110e-002, 2.68325694e-002, 2.58551054e-002,
          2.51787990e-001, 2.77332097e-001, 2.41637617e-001,
          2.77332097e-001, 2.77332097e-001, 2.17155784e-001,
          1.80370986e-001, 1.18208081e-001, 1.16311364e-001,
          3.20752934e-002, 8.22553262e-002, 9.77896303e-002,
          2.34142959e-001, 2.77332097e-001, 4.87717874e-002,
          1.33246044e-002, 1.29909720e-002, 1.52963949e-002,
          9.39553678e-002, 2.42896184e-001, 2.42896184e-001,
          2.42896184e-001, 1.84426665e-001, 6.83158040e-002,
          7.30960593e-002, 1.15066603e-001, 1.12261780e-001,
          7.30859265e-002, 2.42896184e-001, 2.31526822e-001,
          1.46115258e-001, 1.63377151e-001, 9.29676667e-002,
          1.20040201e-001, 1.47619367e-001, 1.03958905e-001,
          9.26551297e-002, 2.38289416e-001, 2.42896184e-001,
          2.42896184e-001, 2.42896184e-001, 9.92390290e-002,
          8.62970874e-002, 1.25273466e-001, 1.04296319e-001,
          6.68444708e-002, 2.03949407e-001, 1.96889654e-001,
          1.96358040e-001, 1.33630469e-001, 1.32363811e-001,
          1.35049731e-001, 2.16791704e-001, 1.00078508e-001,
          2.31237020e-002, 8.10944960e-002, 5.19920215e-002,
          6.18218593e-002, 1.24992155e-001, 6.42944053e-002,
          5.36800474e-002, 4.94075790e-002, 1.73939653e-002,
          1.09875120e-001, 8.30033273e-002, 4.42534983e-002,
          2.50327826e-001, 3.33105028e-001, 1.83165476e-001,
          3.24970603e-001, 1.70444578e-001, 2.05223843e-001,
          1.69459302e-002, 6.15396611e-002, 4.57487293e-002,
          7.66660720e-002, 1.68564782e-001, 9.96334553e-002,
          4.06096280e-002, 5.80525659e-002, 2.44691595e-002,
          5.71160130e-002, 5.12707569e-002, 1.54069439e-001,
          3.33105028e-001, 3.33105028e-001, 3.33105028e-001,
          3.33105028e-001, 1.23164251e-001, 9.02718604e-002,
          7.61436000e-002, 2.63487715e-002, 1.37567474e-002,
          1.01807684e-001, 2.30064079e-001, 9.65941399e-002,
          2.52585381e-001, 2.30837896e-001, 1.62130103e-001,
          4.94217165e-002, 1.51122408e-002, 1.04523720e-002,
          3.41886841e-002, 6.51420653e-002, 7.67438412e-002,
          2.25148514e-001, 1.53091714e-001, 1.14309430e-001,
          9.64082927e-002, 8.04477781e-002, 1.35704845e-001,
          2.51517564e-001, 2.52585381e-001, 2.37098396e-001,
          2.52585381e-001, 2.45803699e-001, 1.82202280e-001,
          9.66423377e-002, 1.00380883e-001, 9.02875736e-002,
          8.13344419e-002, 2.52585381e-001, 1.84937075e-001,
          2.52585381e-001, 2.22435266e-001, 2.30617657e-001,
          1.19507529e-001, 6.66348562e-002, 5.29715382e-002,
          9.61100385e-002, 2.24543393e-001, 1.70645297e-001,
          2.28193238e-001, 1.68123662e-001, 1.95012897e-001,
          1.73641056e-001, 1.41666085e-001, 1.22712642e-001,
          1.11009046e-001, 2.31216043e-001, 9.48980600e-002,
          1.75988287e-001, 2.08163008e-001, 1.86046496e-001,
          1.23885460e-001, 1.08180910e-001, 1.23204373e-001,
          1.72784939e-001, 2.49448568e-001, 2.49448568e-001,
          2.06799328e-001, 1.38656422e-001, 2.21839830e-001,
          7.50461742e-002, 1.37076661e-001, 1.89617202e-001,
          1.83220834e-001, 2.49448568e-001, 1.78762093e-001,
          1.00092836e-001, 8.93498287e-002, 7.73428828e-002,
          2.27966622e-001, 2.36005336e-001, 1.69881552e-001,
          1.25919685e-001, 1.74561307e-001, 1.07384853e-001,
          1.35181531e-001, 1.62199795e-001, 1.49257153e-001,
          2.35693783e-001, 2.36005336e-001, 2.34669656e-001,
          2.36005336e-001, 1.41680002e-001, 6.20356575e-002,
          8.26445222e-002, 1.01628311e-001, 8.82119909e-002,
          8.46117511e-002, 1.74915314e-001, 1.74174279e-001,
          2.36005336e-001, 2.36005336e-001, 1.76924080e-001,
          1.10555775e-001, 8.42389390e-002, 3.44705060e-002,
          1.19936399e-001, 2.36005336e-001, 1.55381769e-001,
          2.36005336e-001, 2.29739115e-001, 9.94208455e-002,
          1.19306616e-001, 7.20868930e-002, 4.68743965e-002,
          5.06300516e-002, 8.83241370e-002, 1.05030373e-001,
          1.52779847e-001, 7.32997283e-002, 3.05240322e-002,
          4.32156175e-002, 4.91811298e-002, 3.97706516e-002,
          1.70367643e-001, 1.34168148e-001, 3.07981580e-001,
          2.18018129e-001, 3.07981580e-001, 1.16409682e-001,
          1.41172290e-001, 1.01986878e-001, 9.20636877e-002,
          3.64241078e-002, 9.26500633e-002, 6.80037364e-002,
          1.37278765e-001, 1.17762655e-001, 4.57215942e-002,
          5.95108271e-002, 3.56701054e-002, 4.24273275e-002,
          1.23761691e-001, 1.02085389e-001, 3.07981580e-001,
          3.07981580e-001, 3.07981580e-001, 2.55811870e-001,
          3.07981580e-001, 1.61861494e-001, 2.25055709e-001,
          1.18403666e-001, 1.92341864e-001, 9.69626233e-002,
          3.49241644e-001, 3.49241644e-001, 2.24824682e-001,
          3.90440375e-002, 1.42923919e-002, 6.98012188e-002,
          1.44276321e-002, 4.60680500e-002, 6.77496493e-002,
          1.97624147e-001, 2.95960486e-001, 5.54017797e-002,
          8.65984801e-003, 1.19642774e-002, 4.40223282e-003,
          2.27107126e-002, 2.88934633e-002, 6.04054444e-002,
          3.49241644e-001, 3.49241644e-001, 2.37763941e-001,
          2.45774481e-002, 1.65256057e-002, 3.36924605e-002,
          1.00022685e-002, 4.18719128e-002, 7.70764351e-002,
          2.42955580e-001, 3.49241644e-001, 3.84658650e-002,
          8.77954345e-003, 1.70329865e-002, 3.37559846e-003,
          8.94792601e-002, 2.06699982e-001, 2.30171785e-001,
          2.30171785e-001, 2.24459186e-001, 1.39387965e-001,
          7.89181441e-002, 1.14512697e-001, 4.97281663e-002,
          1.25162035e-001, 1.88721433e-001, 2.30171785e-001,
          1.46207929e-001, 1.21556379e-001, 1.85628608e-001,
          8.78307298e-002, 1.17757306e-001, 9.01395231e-002,
          9.19354931e-002, 2.30171785e-001, 2.30171785e-001,
          2.30171785e-001, 2.30171785e-001, 1.48320511e-001,
          5.91509901e-002, 1.03493318e-001, 7.94731379e-002,
          1.92162216e-001, 2.19802544e-001, 1.95251375e-001,
          1.41781271e-001, 1.54292747e-001, 2.30171785e-001,
          1.29180953e-001, 1.05487362e-001, 1.83983564e-001,
          2.07658485e-002, 3.62514630e-002, 3.69634330e-002,
          5.69009446e-002, 1.76593065e-001, 1.09457143e-001,
          3.31667140e-002, 2.26366110e-002, 3.01327407e-002,
          5.57546727e-002, 6.54703900e-002, 2.36041680e-001,
          3.66293609e-001, 3.66293609e-001, 2.55714327e-001,
          1.09663166e-001, 4.96999137e-002, 1.12804987e-001,
          4.88521792e-002, 3.11293937e-002, 3.10231633e-002,
          5.53515479e-002, 2.11069614e-001, 1.42183617e-001,
          7.23027065e-002, 2.35442929e-002, 3.84564810e-002,
          7.05383196e-002, 4.77708243e-002, 1.59270272e-001,
          2.94601977e-001, 3.66293609e-001, 3.66293609e-001,
          1.33327812e-001, 1.04646578e-001, 1.56037390e-001,
          1.19884320e-001, 1.70802847e-001, 2.41806284e-001,
          2.50164747e-001, 2.57640570e-001, 1.23479798e-001,
          1.03474192e-001, 6.22891486e-002, 1.61934793e-001,
          1.21658847e-001, 1.88372836e-001, 1.43819720e-001,
          9.36495066e-002, 2.57640570e-001, 1.86061293e-001,
          1.17900506e-001, 7.46267438e-002, 1.53571963e-001,
          1.18611932e-001, 1.06151290e-001, 1.55470103e-001,
          2.04785168e-001, 2.57640570e-001, 2.02826902e-001,
          7.93783739e-002, 6.93065226e-002, 1.78831086e-001,
          1.11243993e-001, 1.02837227e-001, 7.82396272e-002,
          2.25013927e-001, 2.57640570e-001, 2.57640570e-001,
          1.05122790e-001, 4.71227579e-002, 1.37188196e-001,
          6.43167719e-002, 1.18406370e-001, 1.14381820e-001,
          1.79250881e-001, 2.90506989e-001, 2.90506989e-001,
          1.91325724e-001, 7.78908879e-002, 8.32712054e-002,
          1.99849382e-002, 6.59887865e-002, 1.13980725e-001,
          1.57524124e-001, 2.73047626e-001, 1.51237056e-001,
          9.60378423e-002, 5.88448010e-002, 1.73090342e-002,
          4.77800258e-002, 7.92997107e-002, 1.04801074e-001,
          2.90506989e-001, 2.90506989e-001, 2.90506989e-001,
          2.09690243e-001, 5.85524067e-002, 8.50915536e-002,
          4.70265886e-003, 4.63488810e-002, 1.05008297e-001,
          2.58127660e-001, 2.90506989e-001, 2.18708038e-001,
          1.42905921e-001, 4.60893176e-002, 1.95207540e-002,
          6.82741180e-002, 9.88876894e-002, 1.28434330e-001,
          2.72538632e-001, 2.72538632e-001, 1.66982606e-001,
          9.08067524e-002, 7.87316188e-002, 3.27429846e-002,
          1.14928730e-001, 1.73626602e-001, 1.27933145e-001,
          2.72538632e-001, 2.72538632e-001, 1.10252589e-001,
          7.96671137e-002, 6.11798279e-002, 4.27951366e-002,
          2.03800276e-002, 3.61698419e-002, 1.38293728e-001,
          2.72538632e-001, 2.72538632e-001, 2.72538632e-001,
          1.08722851e-001, 5.35099916e-002, 2.42364444e-002,
          8.81163925e-002, 1.01123698e-001, 2.41079852e-001,
          2.72538632e-001, 2.72538632e-001, 2.11017370e-001,
          9.14119855e-002, 6.22224249e-002, 4.07515876e-002,
          3.79615054e-002, 5.21306433e-002, 4.50175442e-002,
          9.56250504e-002, 1.07922867e-001, 6.21534809e-002,
          4.03472967e-002, 2.06342060e-002, 2.71714907e-002,
          6.41790777e-002, 4.44378480e-002, 2.03022942e-001,
          3.28829557e-001, 3.28829557e-001, 3.28829557e-001,
          2.15778217e-001, 1.33176208e-001, 1.49170563e-001,
          4.69404198e-002, 4.52428907e-002, 6.79075420e-002,
          9.44218040e-002, 1.45558074e-001, 9.25671458e-002,
          5.96491024e-002, 2.35057585e-002, 1.74687169e-002,
          1.73154086e-001, 9.29155201e-002, 9.56984758e-002,
          3.28829557e-001, 3.28829557e-001, 3.28829557e-001,
          2.44153947e-001, 1.32288277e-001, 6.01284131e-002,
          2.30630282e-002, 8.04077554e-003, 6.40077442e-002,
          3.84108692e-001, 3.84108692e-001, 1.69242874e-001,
          3.06910668e-002, 2.72206627e-002, 3.72258946e-002,
          1.45619670e-002, 4.21414934e-002, 8.68234485e-002,
          2.26887226e-001, 2.90030867e-001, 2.64453851e-002,
          1.06947068e-002, 1.23892017e-002, 3.91709153e-003,
          2.84269731e-002, 1.68702640e-002, 9.83340666e-002,
          3.84108692e-001, 3.84108692e-001, 2.47442216e-001,
          3.06995809e-002, 5.23693636e-002, 3.53380218e-002,
          1.12102106e-002, 2.94507816e-002, 9.64080244e-002,
          1.87119633e-001, 3.08954060e-001, 7.03976750e-002,
          2.67133974e-002, 1.00543471e-002, 6.81624422e-003,
          1.08133242e-001, 2.17069447e-001, 1.94630235e-001,
          2.28686854e-001, 2.09918663e-001, 8.51591229e-002,
          4.00267914e-002, 7.52901435e-002, 8.17931965e-002,
          2.07469404e-001, 2.13681161e-001, 1.18330978e-001,
          1.61342621e-001, 1.64062917e-001, 2.03358829e-001,
          1.40812442e-001, 9.36010703e-002, 1.75879598e-001,
          8.55915695e-002, 1.36278898e-001, 2.11978495e-001,
          2.13282287e-001, 1.82422578e-001, 1.43699586e-001,
          1.27550229e-001, 8.67510065e-002, 6.86484575e-002,
          1.35839075e-001, 2.12597117e-001, 1.94344908e-001,
          2.28686854e-001, 2.28686854e-001, 2.28686854e-001,
          2.21035808e-001, 9.89148617e-002, 1.05843969e-001,
          6.10066354e-002, 3.62185948e-002, 2.81792451e-002,
          7.56627843e-002, 2.00535774e-001, 1.38242304e-001,
          9.33164209e-002, 1.90033950e-002, 3.01203374e-002,
          3.06398701e-002, 2.17955261e-002, 6.28288984e-002,
          1.66932255e-001, 3.30854148e-001, 3.30854148e-001,
          1.53246209e-001, 5.23442701e-002, 3.91558483e-002,
          3.08430735e-002, 4.55036126e-002, 6.74189776e-002,
          2.04413846e-001, 3.30854148e-001, 1.29792869e-001,
          7.25047439e-002, 1.04178628e-002, 1.75942685e-002,
          1.50291756e-001, 1.69680387e-001, 1.99594468e-001,
          3.30854148e-001, 3.30854148e-001, 3.30854148e-001,
          1.56393394e-001, 4.68677022e-002, 9.12238359e-002,
          5.60718216e-002, 2.77918708e-002, 4.48078029e-002,
          1.65773451e-001, 2.91715354e-001, 2.75231570e-001,
          9.74814743e-002, 4.13236246e-002, 8.42330158e-002,
          5.97047694e-002, 2.73419097e-002, 3.85772064e-002,
          2.91715354e-001, 2.91715354e-001, 1.88934326e-001,
          5.75958192e-002, 1.91055033e-002, 8.70620459e-002,
          2.10659221e-001, 1.34321824e-001, 1.18767560e-001,
          1.32037759e-001, 2.91715354e-001, 2.91715354e-001,
          1.81209460e-001, 7.55533502e-002, 1.71833098e-001,
          1.56334430e-001, 6.48916066e-002, 9.49246064e-002,
          1.98938206e-001, 2.91715354e-001, 1.65778771e-001,
          1.38685375e-001, 5.38187325e-002, 1.31886169e-001,
          2.43406948e-002, 5.02129793e-002, 9.40990672e-002,
          3.19308966e-001, 3.19308966e-001, 2.60370582e-001,
          9.11560655e-002, 1.90839861e-002, 5.21505028e-002,
          2.17968295e-003, 5.14795668e-002, 7.63667226e-002,
          1.94328457e-001, 2.90049613e-001, 2.07123727e-001,
          1.04263984e-001, 2.74702087e-002, 9.09379963e-003,
          5.12413234e-002, 3.70196700e-002, 1.28276780e-001,
          3.19308966e-001, 3.19308966e-001, 2.16371611e-001,
          1.08776174e-001, 2.85294354e-002, 3.46370488e-002,
          4.54370072e-003, 3.24861147e-002, 9.49610770e-002,
          2.51371324e-001, 3.19308966e-001, 2.13408068e-001,
          8.62270817e-002, 5.91883734e-002, 2.59064371e-004,
          4.09568846e-003, 1.06965760e-002, 8.43969285e-002,
          2.23575905e-001, 3.04328412e-001, 2.52581686e-001,
          5.64194769e-002, 1.24388002e-002, 4.95382678e-003,
          2.58617867e-002, 6.79309294e-002, 2.23252982e-001,
          2.24921420e-001, 3.04328412e-001, 1.64788872e-001,
          5.87739348e-002, 2.51010191e-002, 3.96179743e-002,
          9.50435817e-004, 9.51029453e-003, 9.62130278e-002,
          3.04328412e-001, 3.04328412e-001, 2.44840056e-001,
          4.78787348e-002, 2.90046930e-002, 3.44731758e-004,
          4.06690268e-003, 5.00607975e-002, 1.60945415e-001,
          3.04328412e-001, 3.04328412e-001, 2.66999632e-001,
          6.54378310e-002, 3.34659889e-002, 2.81809103e-002,
          2.53007840e-002, 4.93644625e-002, 7.31491446e-002,
          8.16077590e-002, 1.57247052e-001, 8.73634368e-002,
          7.57778734e-002, 2.33927313e-002, 3.48466337e-002,
          1.38097048e-001, 7.41280243e-002, 9.35973451e-002,
          3.01717788e-001, 3.01717788e-001, 3.01717788e-001,
          1.83209911e-001, 1.20170079e-001, 9.86544490e-002,
          8.79006553e-003, 3.23968306e-002, 5.11295311e-002,
          2.04600394e-001, 3.01717788e-001, 1.54538795e-001,
          1.04673296e-001, 4.03252989e-002, 3.10376063e-002,
          7.89805427e-002, 5.32659777e-002, 1.18261606e-001,
          3.01717788e-001, 3.01717788e-001, 3.01717788e-001,
          2.41026014e-001, 2.00179935e-001, 9.73487124e-002,
          2.60531548e-002, 3.86508405e-002, 9.59563926e-002,
          3.36809427e-001, 3.71937811e-001, 2.77415782e-001,
          4.47355658e-002, 3.87229994e-002, 2.61511449e-002,
          7.43503263e-003, 1.68681052e-002, 5.09817153e-002,
          1.11713253e-001, 2.96765149e-001, 8.35184604e-002,
          2.30553616e-002, 1.08345132e-002, 8.70604720e-003,
          2.17161980e-002, 7.27960616e-002, 1.05130941e-001,
          3.71937811e-001, 3.71937811e-001, 3.06921482e-001,
          6.88688979e-002, 8.03841278e-002, 3.99396606e-002,
          1.83031522e-002, 2.58621238e-002, 5.40249385e-002,
          1.57747686e-001, 3.22294235e-001, 8.02266374e-002,
          2.97990236e-002, 1.35264490e-002, 1.02908267e-002,
          7.42918774e-002, 6.45730942e-002, 9.45642143e-002,
          1.21520221e-001, 2.17761874e-001, 1.50216028e-001,
          1.30944461e-001, 7.58435801e-002, 5.15543744e-002,
          6.33111820e-002, 1.05094820e-001, 1.51553512e-001,
          2.59309620e-001, 2.59309620e-001, 2.38111630e-001,
          1.91736490e-001, 1.17266975e-001, 6.07318170e-002,
          1.90393329e-001, 1.29200026e-001, 1.06399059e-001,
          2.08268896e-001, 2.59309620e-001, 1.35114267e-001,
          1.28727168e-001, 6.06523193e-002, 9.41910073e-002,
          1.92162886e-001, 1.62728310e-001, 1.33040652e-001,
          2.59309620e-001, 2.59309620e-001, 2.59309620e-001,
          2.21358880e-001, 9.93656069e-002, 1.45263568e-001,
          5.13816811e-003, 2.87825819e-002, 6.08193167e-002,
          1.71071440e-001, 3.03633839e-001, 8.95008519e-002,
          4.22620997e-002, 1.98275074e-002, 7.28498492e-003,
          1.45418987e-001, 1.45317301e-001, 1.81938604e-001,
          3.05735290e-001, 3.05735290e-001, 2.52615482e-001,
          1.24477640e-001, 9.71938670e-002, 1.57824025e-001,
          2.03136448e-002, 3.06532737e-002, 3.57546024e-002,
          1.09783582e-001, 3.05735290e-001, 1.73747703e-001,
          6.29328042e-002, 2.90443245e-002, 2.11613234e-002,
          7.62086064e-002, 4.55908552e-002, 1.48430765e-001,
          2.38802239e-001, 3.05735290e-001, 3.05735290e-001,
          1.55185714e-001, 1.37311831e-001, 1.55835018e-001,
          1.95335060e-001, 1.28845707e-001, 1.50564522e-001,
          1.35795057e-001, 2.77175158e-001, 1.65355071e-001,
          1.55590251e-001, 1.02644064e-001, 2.16765031e-001,
          1.08219258e-001, 5.12295067e-002, 1.21121153e-001,
          1.07511207e-001, 2.77175158e-001, 1.37195557e-001,
          1.70257524e-001, 5.37823848e-002, 1.03862382e-001,
          1.12824202e-001, 4.80719246e-002, 2.13496789e-001,
          1.95852295e-001, 2.77175158e-001, 2.39290640e-001,
          1.88682109e-001, 9.06493962e-002, 1.43032297e-001,
          6.91865683e-002, 2.44421344e-002, 1.73738495e-001,
          1.80494726e-001, 2.77175158e-001, 2.07936734e-001,
          2.20368102e-001, 2.44775508e-002, 4.32208069e-002,
          2.98182350e-002, 2.61237752e-002, 1.28241256e-001,
          2.41388574e-001, 2.98452020e-001, 2.10987940e-001,
          1.41303152e-001, 2.92204693e-002, 1.80558488e-002,
          7.10988184e-003, 3.15522328e-002, 1.02916293e-001,
          2.60887414e-001, 2.98452020e-001, 1.82207286e-001,
          6.24304451e-002, 6.26305491e-002, 2.59271590e-003,
          1.58352032e-002, 3.12277619e-002, 1.51905462e-001,
          2.76046425e-001, 2.98452020e-001, 2.92752624e-001,
          1.96566418e-001, 3.71794403e-002, 3.11657097e-002,
          1.42820673e-002, 4.34683897e-002, 1.20192289e-001,
          2.63954848e-001, 2.98452020e-001, 2.30006665e-001,
          8.48359019e-002, 6.45550638e-002, 1.92460418e-002,
          9.76196141e-004, 1.44382538e-002, 7.72296339e-002,
          2.90417999e-001, 2.90417999e-001, 2.17991248e-001,
          5.33176996e-002, 2.92320400e-002, 4.99125861e-004,
          2.24146366e-004, 6.09984295e-003, 5.86326048e-002,
          2.90417999e-001, 2.90417999e-001, 2.64742315e-001,
          7.52979442e-002, 3.20323892e-002, 4.14066762e-003,
          2.55377823e-003, 2.68156193e-002, 6.80242106e-002,
          2.84239233e-001, 2.90417999e-001, 2.89786756e-001,
          7.29557350e-002, 2.00881120e-002, 1.80504739e-003,
          1.86551968e-003, 1.26853753e-002, 4.13653068e-002,
          2.90417999e-001, 2.90417999e-001, 2.90417999e-001,
          7.61924759e-002, 3.27705815e-002, 9.14067589e-003,
          9.68386536e-004, 2.54056975e-003, 2.74757873e-002,
          2.19576150e-001, 2.89637387e-001, 1.36501208e-001,
          7.66094029e-002, 3.86307500e-002, 6.10766048e-003,
          5.24325743e-002, 7.69040212e-002, 8.04642886e-002,
          2.95263648e-001, 2.95263648e-001, 2.81185448e-001,
          2.07319796e-001, 9.27144289e-002, 8.45050290e-002,
          1.99770438e-003, 5.05336153e-004, 1.90271344e-002,
          1.85020939e-001, 2.95263648e-001, 1.44704849e-001,
          5.70124835e-002, 3.49542424e-002, 1.02365930e-002,
          8.41081366e-002, 1.45879507e-001, 2.07659483e-001,
          2.95263648e-001, 2.95263648e-001, 2.95263648e-001,
          1.43262759e-001, 5.05104251e-002, 8.64782929e-002,
          2.77918689e-002, 6.58197403e-002, 8.95707235e-002,
          3.80326658e-001, 3.80326658e-001, 2.16207996e-001,
          6.41251728e-002, 6.56724796e-002, 4.28359583e-002,
          1.31233754e-002, 1.42042348e-002, 3.45308892e-002,
          1.42474309e-001, 2.56779701e-001, 8.19756687e-002,
          7.40443319e-002, 3.96697149e-002, 1.31640006e-002,
          5.17400540e-002, 2.37910300e-002, 6.42606616e-002,
          3.11153114e-001, 3.80326658e-001, 3.80326658e-001,
          9.40176621e-002, 6.52834699e-002, 4.70744334e-002,
          1.56598352e-002, 1.19894845e-002, 8.06304812e-003,
          5.08080050e-002, 2.44744405e-001, 1.92233369e-001,
          1.36545047e-001, 8.66260082e-002, 1.33943651e-002,
          1.43233761e-001, 7.19188005e-002, 9.05728564e-002,
          1.85773760e-001, 1.78910986e-001, 1.15775876e-001,
          1.38731986e-001, 8.30105171e-002, 7.98750147e-002,
          1.82571664e-001, 1.11468673e-001, 1.21363573e-001,
          2.38152742e-001, 2.38152742e-001, 2.38152742e-001,
          1.20740525e-001, 7.57457986e-002, 1.23734921e-001,
          1.57557756e-001, 8.55239034e-002, 7.11689666e-002,
          1.10561870e-001, 1.76395744e-001, 2.20023081e-001,
          2.38152742e-001, 1.60478279e-001, 1.39072463e-001,
          1.50527418e-001, 8.58670399e-002, 2.38152742e-001,
          2.38152742e-001, 2.38152742e-001, 2.24081308e-001,
          1.55797347e-001, 1.51242107e-001, 2.38152742e-001,
          3.53431068e-002, 2.65446175e-002, 4.32048887e-002,
          1.91869557e-001, 3.10386211e-001, 2.00571135e-001,
          4.85376008e-002, 3.13016511e-002, 2.78532393e-002,
          7.13383108e-002, 4.55638021e-002, 1.43865854e-001,
          2.28448689e-001, 3.28232020e-001, 2.99977541e-001,
          1.06298566e-001, 9.37650651e-002, 7.80437291e-002,
          2.64600962e-002, 3.18640321e-002, 1.40736625e-001,
          2.69951195e-001, 2.25382358e-001, 1.48398191e-001,
          5.12063280e-002, 3.61408852e-002, 4.96561788e-002,
          7.02369958e-002, 4.97671999e-002, 1.58883736e-001,
          3.21643710e-001, 3.28232020e-001, 1.91998288e-001,
          1.55276954e-001, 1.03188738e-001, 1.49578154e-001,
          1.28462642e-001, 5.48479669e-002, 1.51426241e-001,
          1.56959608e-001, 3.06287616e-001, 1.69815004e-001,
          1.53293371e-001, 1.00802898e-001, 8.98844078e-002,
          1.16314739e-001, 3.48772034e-002, 9.95868891e-002,
          1.59492552e-001, 3.06287616e-001, 1.72695607e-001,
          1.87836185e-001, 7.92496204e-002, 5.25430739e-002,
          1.08813778e-001, 3.49085815e-002, 8.78527313e-002,
          1.71017632e-001, 3.06287616e-001, 1.68576732e-001,
          1.86775282e-001, 1.70190543e-001, 2.07133338e-001,
          9.04871672e-002, 2.71218047e-002, 7.38368183e-002,
          1.71117514e-001, 3.06287616e-001, 2.74427712e-001,
          1.59059227e-001, 1.35821924e-001, 1.08986922e-001,
          3.78317870e-002, 3.54532041e-002, 9.20777917e-002,
          2.34640196e-001, 2.93918550e-001, 2.65808493e-001,
          1.46440998e-001, 4.61752005e-002, 3.11779249e-002,
          1.90625563e-002, 3.27437893e-002, 6.46671727e-002,
          1.80528760e-001, 2.93918550e-001, 2.54407674e-001,
          6.31686375e-002, 3.51292528e-002, 1.86355989e-002,
          3.48153226e-002, 6.43824339e-002, 1.49138361e-001,
          2.82233089e-001, 2.93918550e-001, 2.93918550e-001,
          1.06754646e-001, 4.41664383e-002, 7.33840512e-003,
          7.70801585e-003, 5.10323606e-002, 1.13672696e-001,
          2.58854628e-001, 2.93918550e-001, 2.83337772e-001,
          1.03721343e-001, 2.78718118e-002, 1.14642661e-002,
          4.25248174e-003, 2.26740465e-002, 3.99432518e-002,
          2.09715411e-001, 2.91325837e-001, 2.91325837e-001,
          5.72598130e-002, 1.10619720e-002, 2.42884969e-003,
          6.22186996e-003, 1.57469865e-002, 4.28060591e-002,
          2.91325837e-001, 2.91325837e-001, 2.91325837e-001,
          3.81131098e-002, 2.18627937e-002, 1.21263545e-002,
          1.77032815e-003, 2.69041900e-002, 7.08701387e-002,
          2.33276799e-001, 2.91325837e-001, 2.91325837e-001,
          1.14931323e-001, 2.24401262e-002, 1.34503143e-002,
          1.36046717e-002, 4.98096980e-002, 6.35890961e-002,
          2.76739538e-001, 2.91325837e-001, 2.91325837e-001,
          1.38212204e-001, 3.01975235e-002, 4.65852730e-002,
          6.82038441e-003, 5.06685721e-003, 2.42354088e-002,
          1.80531204e-001, 3.01985800e-001, 9.84060168e-002,
          2.24587582e-002, 2.14348864e-002, 1.17089013e-002,
          6.15568310e-002, 6.57143369e-002, 1.60143837e-001,
          3.01985800e-001, 3.01985800e-001, 3.01985800e-001,
          5.02717867e-002, 2.21707691e-002, 7.02332482e-002,
          1.48960045e-002, 4.37518954e-002, 7.67333135e-002,
          2.04649732e-001, 3.01985800e-001, 1.24895953e-001,
          5.26486821e-002, 1.64598152e-002, 3.32159102e-002,
          9.52252001e-002, 1.25712797e-001, 2.50361174e-001,
          3.01985800e-001, 3.01985800e-001, 3.01985800e-001,
          5.04055098e-002, 3.52019183e-002, 1.43858656e-001,
          3.45717482e-002, 1.22140218e-002, 4.11314517e-002,
          2.25648478e-001, 3.75686288e-001, 3.75686288e-001,
          8.19304436e-002, 3.98622230e-002, 3.05057671e-002,
          1.22365067e-002, 1.27912248e-002, 8.06477200e-003,
          4.63903770e-002, 1.93770617e-001, 2.17526466e-001,
          1.30458087e-001, 5.65117337e-002, 1.97100360e-002,
          6.60200976e-003, 1.88528132e-002, 6.61110282e-002,
          3.75686288e-001, 3.75686288e-001, 3.75686288e-001,
          7.82115385e-002, 2.02599596e-002, 1.71484612e-002,
          1.56385060e-002, 7.95619935e-003, 2.23338697e-002,
          1.10012323e-001, 2.03767508e-001, 2.01228365e-001,
          1.00771412e-001, 3.62687632e-002, 3.71302813e-002,
          1.27012178e-001, 1.02546811e-001, 6.45150244e-002,
          7.92607293e-002, 1.56540304e-001, 2.25083426e-001,
          2.25083426e-001, 1.18325904e-001, 1.32263482e-001,
          1.64595068e-001, 8.20907429e-002, 2.25083426e-001,
          2.25083426e-001, 2.25083426e-001, 2.19014049e-001,
          1.79884404e-001, 9.46936086e-002, 2.10499376e-001,
          9.07787457e-002, 9.13987309e-002, 9.52745453e-002,
          1.49740487e-001, 2.25083426e-001, 2.02969491e-001,
          2.24836037e-001, 9.73278657e-002, 1.11633651e-001,
          1.46122143e-001, 1.24404959e-001, 1.89012557e-001,
          1.89950436e-001, 2.25083426e-001, 2.25083426e-001,
          1.87252760e-001, 7.77467117e-002, 1.42847493e-001,
          2.26208773e-002, 2.24379599e-002, 1.49137467e-001,
          1.73262894e-001, 1.60194084e-001, 1.05494358e-001,
          4.93164919e-002, 1.71908457e-002, 3.86375487e-002,
          9.76499170e-002, 4.73659188e-002, 1.89901203e-001,
          3.20071787e-001, 3.20071787e-001, 9.84813645e-002,
          9.67688709e-002, 7.67176747e-002, 1.68094739e-001,
          4.25608642e-002, 3.53365839e-002, 1.03956148e-001,
          1.78871617e-001, 2.63804168e-001, 1.22591220e-001,
          3.57974097e-002, 1.82881076e-002, 4.42166403e-002,
          3.20071787e-001, 1.54919267e-001, 2.99592018e-001,
          3.20071787e-001, 3.20071787e-001, 1.11095361e-001,
          7.97444880e-002, 2.34910864e-002, 1.48910999e-001,
          1.18934914e-001, 3.14151533e-002, 1.14623696e-001,
          2.14924484e-001, 3.05098385e-001, 1.20803654e-001,
          9.08682942e-002, 9.74251330e-002, 1.96799487e-001,
          5.92957251e-002, 1.87184885e-002, 7.96102360e-002,
          2.39448667e-001, 3.05098385e-001, 1.93756923e-001,
          6.39753491e-002, 5.73136136e-002, 9.15262029e-002,
          2.35452637e-001, 1.07964411e-001, 1.68978676e-001,
          3.05098385e-001, 3.05098385e-001, 8.43912065e-002,
          7.93546140e-002, 3.65797468e-002, 1.42707765e-001,
          7.88212344e-002, 6.40053526e-002, 9.50718671e-002,
          3.05098385e-001, 3.05098385e-001, 1.13477677e-001,
          6.53188676e-002, 2.99631320e-002, 6.25215918e-002,
          9.18279029e-003, 4.34668250e-002, 1.50091708e-001,
          2.98262715e-001, 2.98262715e-001, 2.49287203e-001,
          7.96165019e-002, 2.77309828e-002, 1.53568024e-002,
          8.16012174e-003, 3.68755311e-002, 1.16322272e-001,
          2.77398109e-001, 2.80887842e-001, 2.16661572e-001,
          1.13404125e-001, 4.84003611e-002, 3.37422676e-002,
          1.99636351e-002, 6.30549416e-002, 1.54784799e-001,
          2.98262715e-001, 2.98262715e-001, 1.66615948e-001,
          9.50380042e-002, 3.64148580e-002, 2.45350543e-002,
          5.94005063e-002, 5.24586588e-002, 1.09661534e-001,
          2.84660578e-001, 2.98262715e-001, 2.04089314e-001,
          1.00383513e-001, 5.99666983e-002, 4.92118411e-002,
          1.06757004e-002, 1.63886193e-002, 7.50617087e-002,
          2.35599831e-001, 2.75017709e-001, 2.75017709e-001,
          1.47856832e-001, 3.96853611e-002, 3.14386077e-002,
          2.87484899e-002, 6.26595914e-002, 6.49598315e-002,
          1.33510858e-001, 2.75017709e-001, 2.75017709e-001,
          2.35568643e-001, 9.29702073e-002, 6.34120777e-002,
          6.96731061e-002, 4.46398742e-002, 5.46579808e-002,
          2.24650860e-001, 2.75017709e-001, 2.75017709e-001,
          1.77031070e-001, 5.39585575e-002, 4.99054901e-002,
          4.04369421e-002, 6.99934512e-002, 3.50957848e-002,
          9.93419364e-002, 2.75017709e-001, 2.75017709e-001,
          2.41080076e-001, 1.74476102e-001, 8.96044970e-002,
          2.12891381e-002, 5.66277839e-002, 7.27182850e-002,
          9.53623354e-002, 1.70121565e-001, 1.28028274e-001,
          8.67681652e-002, 4.55039293e-002, 4.30395678e-002,
          6.17584959e-002, 1.05450869e-001, 1.94324791e-001,
          3.35633844e-001, 3.35633844e-001, 3.35633844e-001,
          5.23411036e-002, 6.42857328e-002, 1.11695834e-001,
          3.14045511e-002, 6.22854345e-002, 2.43085884e-002,
          5.58906235e-002, 1.65246397e-001, 1.31946668e-001,
          7.82774016e-002, 8.93786177e-002, 5.49466833e-002,
          7.40759671e-002, 7.43143633e-002, 1.91529617e-001,
          3.35633844e-001, 3.35633844e-001, 3.35633844e-001,
          1.39797658e-001, 1.32152706e-001, 1.36903539e-001 ]
      - [ 1.02865301e-001, 1.52711600e-001, 1.19211905e-001,
          5.85774072e-002, 1.02113135e-001, 1.04901306e-001,
          1.30602419e-001, 1.15339436e-001, 6.40476644e-002,
          1.71631157e-001, 2.63780504e-001, 1.83002681e-001,
          8.82923827e-002, 8.68946537e-002, 1.25908598e-001,
          9.85764191e-002, 1.86245799e-001, 1.05980761e-001,
          2.73758680e-001, 2.73758680e-001, 2.73758680e-001,
          1.68410823e-001, 2.06785962e-001, 8.98263231e-002,
          1.40816152e-001, 1.19692132e-001, 1.18368506e-001,
          2.73758680e-001, 2.73758680e-001, 2.73758680e-001,
          2.32264847e-001, 9.19257477e-002, 5.13266549e-002,
          5.37953116e-002, 1.20689407e-001, 1.04642987e-001,
          1.34286866e-001, 1.77360982e-001, 2.47833237e-001,
          1.51144132e-001, 8.87141675e-002, 8.19699317e-002,
          5.39745912e-002, 8.36687535e-002, 8.82088616e-002,
          1.57304227e-001, 2.12505668e-001, 2.47833237e-001,
          2.47833237e-001, 2.01470301e-001, 1.02422304e-001,
          1.05005540e-001, 9.92473140e-002, 1.12420619e-001,
          2.47833237e-001, 2.47833237e-001, 2.47833237e-001,
          1.51958555e-001, 1.27523318e-001, 4.09021862e-002,
          3.02737504e-002, 7.89440051e-002, 1.12510026e-001,
          1.33623853e-001, 2.47833237e-001, 2.47833237e-001,
          2.26883978e-001, 2.47833237e-001, 1.37394086e-001,
          1.29642546e-001, 1.00396648e-001, 9.84145403e-002,
          1.98351219e-001, 1.23733610e-001, 1.46380454e-001,
          9.18529779e-002, 1.42084405e-001, 1.30267948e-001,
          1.69152066e-001, 2.19987199e-001, 2.15462834e-001,
          2.28500798e-001, 1.06341042e-001, 5.41516431e-002,
          3.43659930e-002, 5.78630567e-002, 9.25682858e-002,
          1.57115728e-001, 2.28500798e-001, 2.28500798e-001,
          1.34652898e-001, 1.27221137e-001, 1.75612971e-001,
          1.49906546e-001, 2.28500798e-001, 2.00193137e-001,
          2.16946095e-001, 1.53179422e-001, 1.51339784e-001,
          1.72116503e-001, 1.17072903e-001, 1.27199590e-001,
          1.04236469e-001, 1.85794920e-001, 1.36036858e-001,
          2.06809670e-001, 2.28500798e-001, 2.28500798e-001,
          1.89091548e-001, 7.61322007e-002, 3.95538136e-002,
          2.97002662e-002, 8.66474062e-002, 1.63851365e-001,
          1.87138930e-001, 2.35207483e-001, 2.35207483e-001,
          9.62417051e-002, 7.88903758e-002, 1.03480168e-001,
          9.03213099e-002, 1.67712212e-001, 2.35207483e-001,
          2.35207483e-001, 2.35207483e-001, 1.06980830e-001,
          8.96142647e-002, 9.61358994e-002, 8.19978043e-002,
          5.42242154e-002, 1.88215435e-001, 2.35207483e-001,
          2.04306647e-001, 2.35207483e-001, 1.50527179e-001,
          1.64883077e-001, 1.00032844e-001, 4.98420522e-002,
          6.34229034e-002, 2.35207483e-001, 2.35207483e-001,
          2.35207483e-001, 2.35207483e-001, 1.77034050e-001,
          1.15367711e-001, 9.89293978e-002, 1.04776487e-001,
          8.99469852e-002, 1.14951871e-001, 1.29663199e-001,
          1.68356925e-001, 1.55808672e-001, 7.62868822e-002,
          2.25143775e-001, 2.53746271e-001, 1.55333132e-001,
          7.95257315e-002, 1.24537036e-001, 9.15896222e-002,
          9.89152864e-002, 1.15051359e-001, 7.26973861e-002,
          2.53746271e-001, 1.42184541e-001, 8.83908942e-002,
          6.52975217e-002, 1.04933009e-001, 1.76447883e-001,
          1.96340695e-001, 2.53746271e-001, 2.53746271e-001,
          2.53746271e-001, 2.53746271e-001, 2.53746271e-001,
          7.66694844e-002, 9.28204730e-002, 1.30522653e-001,
          9.73832011e-002, 2.53746271e-001, 2.53746271e-001,
          1.92274332e-001, 2.65450925e-001, 2.05617934e-001,
          8.15602988e-002, 8.47014710e-002, 7.68690333e-002,
          5.39818108e-002, 5.58799580e-002, 4.18541804e-002,
          1.87522590e-001, 2.65450925e-001, 2.65450925e-001,
          2.53557026e-001, 9.16084647e-002, 8.64674300e-002,
          3.59704532e-002, 6.52820915e-002, 1.60997510e-001,
          2.65450925e-001, 2.65450925e-001, 2.65450925e-001,
          8.88443664e-002, 5.43850064e-002, 4.34466042e-002,
          3.36911455e-002, 1.02683708e-001, 1.26528338e-001,
          2.14021429e-001, 2.65450925e-001, 2.65450925e-001,
          2.38515139e-001, 8.68165046e-002, 1.19889624e-001,
          6.54771924e-002, 6.29415140e-002, 8.23436752e-002,
          2.43557528e-001, 2.20897511e-001, 1.34645760e-001,
          1.46187231e-001, 6.57801181e-002, 6.17857389e-002,
          4.53965589e-002, 1.36902526e-001, 2.51589268e-001,
          2.51589268e-001, 2.24215627e-001, 7.07559139e-002,
          3.90261896e-002, 3.79496217e-002, 7.17883036e-002,
          8.80446881e-002, 2.51589268e-001, 2.51589268e-001,
          1.72222525e-001, 2.45324329e-001, 1.57983363e-001,
          1.55958340e-001, 1.09101139e-001, 1.41215384e-001,
          9.82585400e-002, 1.22100100e-001, 2.19833866e-001,
          2.51589268e-001, 1.40207872e-001, 4.61492278e-002,
          5.62557392e-002, 1.11280531e-001, 1.19391985e-001,
          1.06029950e-001, 2.51589268e-001, 2.51589268e-001,
          1.45099044e-001, 1.80914357e-001, 2.67543674e-001,
          2.67543674e-001, 2.48166680e-001, 8.04889277e-002,
          9.23842937e-002, 6.84818253e-002, 7.33850971e-002,
          2.25644812e-001, 2.59560883e-001, 2.67543674e-001,
          2.45985717e-001, 5.15792593e-002, 1.70141049e-002,
          1.30584473e-002, 3.32726836e-002, 4.26847711e-002,
          5.29109128e-002, 1.20964237e-001, 2.67543674e-001,
          2.67543674e-001, 2.67543674e-001, 1.35564506e-001,
          4.28940542e-002, 5.26892059e-002, 3.29715870e-002,
          1.08002223e-001, 1.92045033e-001, 2.67543674e-001,
          2.62273848e-001, 7.21946731e-002, 3.34039032e-002,
          2.12680567e-002, 4.87421304e-002, 5.44241928e-002,
          2.46909022e-001, 2.54670978e-001, 2.50589728e-001,
          1.65042788e-001, 4.85262126e-002, 3.01548503e-002,
          3.84406857e-002, 6.18522912e-002, 7.71904886e-002,
          1.48146659e-001, 2.18528345e-001, 2.41632625e-001,
          2.12869704e-001, 2.54670978e-001, 1.18427545e-001,
          1.01460062e-001, 9.02599543e-002, 8.57746452e-002,
          1.52693942e-001, 2.37567931e-001, 1.98717684e-001,
          1.89238042e-001, 4.55348976e-002, 6.27813190e-002,
          7.72273764e-002, 7.81031027e-002, 4.73932773e-002,
          8.44481364e-002, 1.57862231e-001, 2.02302977e-001,
          2.54670978e-001, 2.54670978e-001, 2.54670978e-001,
          1.57925114e-001, 1.39205977e-001, 4.17457484e-002,
          7.61962831e-002, 2.90624034e-002, 4.01977524e-002,
          9.67878774e-002, 2.19657600e-001, 5.49723506e-002,
          1.10886887e-001, 1.03377856e-001, 6.91964105e-002,
          7.95834586e-002, 2.44524255e-002, 3.76748815e-002,
          6.60802349e-002, 1.22198641e-001, 4.32047471e-002,
          2.66946793e-001, 2.21690401e-001, 1.31563425e-001,
          5.47323786e-002, 1.88416000e-002, 9.99945477e-002,
          2.02394620e-001, 2.74015099e-001, 2.67245829e-001,
          2.74015099e-001, 1.42600849e-001, 6.82551637e-002,
          1.19129464e-001, 2.75472496e-002, 1.39042675e-001,
          1.50836423e-001, 2.74015099e-001, 2.74015099e-001,
          2.74015099e-001, 2.74015099e-001, 2.74015099e-001,
          5.03955521e-002, 4.48628776e-002, 5.08043841e-002,
          2.52597369e-002, 9.31248069e-002, 1.03979371e-001,
          2.41909504e-001, 2.33754709e-001, 1.45317554e-001,
          1.02679558e-001, 5.49475290e-002, 3.21608894e-002,
          4.18679602e-002, 1.30059719e-001, 1.50931731e-001,
          7.91308209e-002, 1.53061718e-001, 9.57837254e-002,
          1.65019214e-001, 6.60100952e-002, 1.49131015e-001,
          3.93110849e-002, 2.95089364e-001, 2.95089364e-001,
          2.95089364e-001, 2.95089364e-001, 2.95089364e-001,
          6.12848774e-002, 5.42899072e-002, 9.37846974e-002,
          8.05757865e-002, 2.87423939e-001, 2.95089364e-001,
          1.74073517e-001, 1.40257731e-001, 9.04960781e-002,
          2.26955399e-001, 1.43028930e-001, 1.35279298e-001,
          7.52349794e-002, 1.36775360e-001, 1.37703910e-001,
          5.97895868e-002, 2.26955399e-001, 2.25511089e-001,
          2.26955399e-001, 2.26955399e-001, 2.26955399e-001,
          1.05755821e-001, 1.25043541e-001, 9.21534970e-002,
          6.22549281e-002, 1.81125626e-001, 2.07815006e-001,
          7.51784444e-002, 1.07800826e-001, 2.06469223e-001,
          1.46868035e-001, 1.94036588e-001, 2.26955399e-001,
          1.43248618e-001, 1.51908457e-001, 8.01037252e-002,
          9.75524858e-002, 1.79983974e-001, 2.26955399e-001,
          2.26955399e-001, 2.04788804e-001, 2.09865913e-001,
          1.20095573e-001, 1.33960053e-001, 6.75663948e-002,
          2.30584607e-001, 2.30584607e-001, 2.30584607e-001,
          1.34173453e-001, 9.16309804e-002, 4.45324704e-002,
          5.05550727e-002, 9.18215141e-002, 9.68956202e-002,
          2.30584607e-001, 2.30584607e-001, 2.30584607e-001,
          1.90504342e-001, 2.27477759e-001, 1.16711147e-001,
          9.11308452e-002, 8.13998654e-002, 5.75118773e-002,
          1.10311203e-001, 1.73225895e-001, 2.30584607e-001,
          2.30584607e-001, 1.31852955e-001, 1.35112569e-001,
          9.12545323e-002, 6.25310838e-002, 3.31108943e-002,
          2.22542882e-001, 1.60834029e-001, 2.30584607e-001,
          2.30584607e-001, 2.30584607e-001, 2.30584607e-001,
          1.25420779e-001, 8.07828307e-002, 4.70037647e-002,
          1.00234911e-001, 9.88453776e-002, 5.83039597e-002,
          1.00689873e-001, 1.02914184e-001, 4.81202863e-002,
          3.75706628e-002, 5.07596806e-002, 6.87748864e-002,
          2.04133719e-001, 1.59154564e-001, 6.91230297e-002,
          1.18584923e-001, 1.90087825e-001, 9.47554410e-002,
          1.34462953e-001, 1.47470370e-001, 1.66853502e-001,
          1.39673546e-001, 1.43528536e-001, 1.25487804e-001,
          2.51162142e-001, 2.51162142e-001, 1.44038916e-001,
          7.76442587e-002, 1.14872210e-001, 4.47611101e-002,
          2.51162142e-001, 2.51162142e-001, 2.48549864e-001,
          2.51162142e-001, 2.51162142e-001, 2.51162142e-001,
          2.51162142e-001, 2.48826697e-001, 1.33064687e-001,
          4.23870087e-002, 7.61287659e-002, 2.68098742e-001,
          3.33416253e-001, 3.33416253e-001, 1.70000717e-001,
          2.41588932e-002, 3.59345339e-002, 2.90299226e-002,
          1.10986486e-001, 1.52393833e-001, 2.05820307e-001,
          2.05453560e-001, 8.74551013e-002, 7.33808652e-002,
          4.81333546e-002, 6.67031035e-002, 9.12747756e-002,
          5.57327420e-002, 1.11051738e-001, 2.35948011e-001,
          3.33416253e-001, 3.33416253e-001, 1.29590183e-001,
          3.30361724e-002, 1.73873920e-002, 2.67749056e-002,
          1.49363458e-001, 1.09756872e-001, 1.43813655e-001,
          2.71500558e-001, 1.18389934e-001, 1.23710491e-001,
          1.30457506e-001, 9.01559517e-002, 1.39418319e-001,
          1.05222240e-001, 1.38291389e-001, 1.16770029e-001,
          1.41312763e-001, 9.75766107e-002, 6.32389560e-002,
          8.00853521e-002, 1.01742424e-001, 7.38092661e-002,
          3.42726298e-002, 9.70118716e-002, 1.52120873e-001,
          2.55720496e-001, 3.10084552e-001, 3.10084552e-001,
          1.84375286e-001, 1.35854378e-001, 4.09514904e-002,
          1.45327553e-001, 6.79253116e-002, 7.76319057e-002,
          1.01957448e-001, 1.57560617e-001, 1.19327530e-001,
          2.05939323e-001, 1.52346745e-001, 1.50535449e-001,
          6.90075308e-002, 6.43188804e-002, 1.32440075e-001,
          1.76870078e-001, 3.10084552e-001, 3.10084552e-001,
          3.10084552e-001, 1.75445378e-001, 7.31625333e-002,
          1.51454965e-002, 4.26333509e-002, 1.59833729e-001,
          1.66114420e-001, 2.60857910e-001, 1.78626835e-001,
          1.20112874e-001, 2.91006360e-002, 1.72709934e-002,
          1.38094306e-001, 1.18586272e-001, 2.60857910e-001,
          1.74145848e-001, 2.60857910e-001, 2.10679039e-001,
          2.47435927e-001, 1.34887904e-001, 1.74517706e-001,
          3.51226293e-002, 7.98084512e-002, 1.00914054e-001,
          1.22297809e-001, 2.60857910e-001, 1.56742841e-001,
          6.79915696e-002, 6.84838593e-002, 4.04600687e-002,
          1.92418501e-001, 2.23422810e-001, 2.49802440e-001,
          2.03255475e-001, 2.60857910e-001, 1.79823548e-001,
          9.10887495e-002, 1.12717628e-001, 1.56566843e-001,
          2.10433587e-001, 9.42355096e-002, 2.40645409e-001,
          8.18184689e-002, 2.60305256e-001, 2.60305256e-001,
          2.35823125e-001, 1.76413849e-001, 2.34906733e-001,
          3.29315141e-002, 2.29357425e-002, 7.84108415e-002,
          7.81101733e-002, 2.60305256e-001, 1.66139334e-001,
          7.60766044e-002, 5.40560931e-002, 4.27682996e-002,
          2.43055671e-001, 1.34607643e-001, 1.79872960e-001,
          1.88803792e-001, 2.60305256e-001, 2.60305256e-001,
          1.34126499e-001, 1.16644703e-001, 1.79956272e-001,
          4.09912318e-002, 1.81353688e-002, 5.73748872e-002,
          1.33960441e-001, 2.60305256e-001, 1.99171200e-001,
          5.49216010e-002, 4.25651334e-002, 4.73433509e-002,
          2.59106345e-002, 8.24191347e-002, 2.04189599e-001,
          2.10114464e-001, 2.27691576e-001, 2.40461648e-001,
          1.40880823e-001, 1.22453868e-001, 5.84345274e-002,
          3.96053642e-002, 1.00165717e-001, 2.19123393e-001,
          2.54530638e-001, 2.54530638e-001, 2.22402737e-001,
          1.20810710e-001, 1.03670485e-001, 4.77004573e-002,
          4.17065769e-002, 6.93969876e-002, 2.31644079e-001,
          2.54530638e-001, 2.54530638e-001, 2.01190934e-001,
          7.00965598e-002, 1.00910239e-001, 7.40390345e-002,
          5.82204089e-002, 9.03200582e-002, 1.98786035e-001,
          2.54530638e-001, 2.54530638e-001, 2.03190178e-001,
          9.62061808e-002, 8.12607035e-002, 3.65625471e-002,
          5.47113977e-002, 1.33844197e-001, 1.78391665e-001,
          2.54539162e-001, 2.02555686e-001, 1.29537359e-001,
          9.18254480e-002, 4.82297838e-002, 3.92769538e-002,
          1.00958332e-001, 1.63828015e-001, 1.75173298e-001,
          2.40651295e-001, 2.54539162e-001, 2.35294804e-001,
          1.37764573e-001, 8.26663822e-002, 6.72830641e-002,
          7.88314939e-002, 1.45337671e-001, 1.84054479e-001,
          2.54539162e-001, 2.54539162e-001, 1.13671333e-001,
          9.40425172e-002, 4.00973484e-002, 4.38065678e-002,
          9.82067361e-002, 1.79287389e-001, 1.85634539e-001,
          2.54539162e-001, 2.54539162e-001, 2.54539162e-001,
          1.33118138e-001, 1.11794092e-001, 1.29527226e-001,
          7.44662806e-002, 5.38317412e-002, 9.18063894e-002,
          1.72255054e-001, 2.82359838e-001, 1.34588748e-001,
          6.71086237e-002, 6.56415522e-002, 2.20872443e-002,
          1.81535274e-001, 1.31277144e-001, 1.65288210e-001,
          2.51337290e-001, 2.82359838e-001, 2.28340536e-001,
          1.74420610e-001, 1.11607783e-001, 7.68462643e-002,
          5.32582179e-002, 5.05546369e-002, 9.65703577e-002,
          1.18059956e-001, 2.82359838e-001, 1.80556983e-001,
          1.17271006e-001, 7.10199848e-002, 4.60040234e-002,
          1.64916575e-001, 1.03325993e-001, 1.34269953e-001,
          1.56141728e-001, 2.82359838e-001, 2.82359838e-001,
          2.58170784e-001, 1.87706798e-001, 1.36544660e-001,
          5.44265136e-002, 1.30572706e-001, 2.10460141e-001,
          3.32982719e-001, 3.32982719e-001, 1.12032220e-001,
          2.30661407e-002, 2.12403629e-002, 5.42965271e-002,
          1.38330221e-001, 1.59522966e-001, 1.31061807e-001,
          1.71979472e-001, 1.02612659e-001, 9.06459019e-002,
          8.10913220e-002, 9.39910859e-002, 1.50489882e-001,
          5.28930277e-002, 1.69095382e-001, 2.08086088e-001,
          3.32982719e-001, 3.32982719e-001, 1.98019028e-001,
          4.29845117e-002, 3.74686718e-002, 5.75785264e-002,
          1.06025860e-001, 2.68525988e-001, 1.84669465e-001,
          1.67239875e-001, 1.24124691e-001, 6.11019954e-002,
          6.89434931e-002, 1.59547105e-001, 9.48543400e-002,
          1.20366782e-001, 1.43383637e-001, 7.67035857e-002,
          6.73966333e-002, 1.37527183e-001, 1.72333673e-001,
          1.42264992e-001, 1.41793653e-001, 1.20372705e-001,
          5.85971698e-002, 6.53358176e-002, 6.84395358e-002,
          1.24949127e-001, 3.13699126e-001, 3.13699126e-001,
          1.99729830e-001, 1.39392242e-001, 3.87559868e-002,
          7.74594471e-002, 1.97020009e-001, 1.50855109e-001,
          1.57127813e-001, 2.86521286e-001, 2.45451614e-001,
          7.07419142e-002, 1.49884552e-001, 6.39975891e-002,
          3.06704845e-002, 9.83606651e-002, 1.05936117e-001,
          2.61916220e-001, 3.13699126e-001, 3.13699126e-001,
          6.81336522e-002, 6.27035722e-002, 1.76836085e-002,
          2.56385934e-002, 2.91253254e-002, 1.83658730e-002,
          7.28446841e-002, 3.03068668e-001, 2.03941345e-001,
          6.01890683e-002, 6.27003685e-002, 3.03485859e-002,
          1.26800418e-001, 8.45133811e-002, 4.89377566e-002,
          1.64295331e-001, 3.03068668e-001, 2.38971695e-001,
          8.89071524e-002, 8.23403075e-002, 1.64050877e-001,
          7.48428479e-002, 9.21346843e-002, 2.91479733e-002,
          9.73046497e-002, 3.03068668e-001, 2.26714626e-001,
          1.08643800e-001, 1.01342248e-002, 1.62420161e-002,
          3.02282780e-001, 1.44398078e-001, 7.47560933e-002,
          1.53310508e-001, 3.03068668e-001, 2.52713770e-001,
          3.03068668e-001, 4.99250777e-002, 1.83129430e-001,
          1.19692042e-001, 4.18159775e-002, 3.63259837e-002,
          2.40134016e-001, 3.21611106e-001, 2.93251812e-001,
          7.06695840e-002, 4.94647846e-002, 1.78343967e-001,
          2.07866542e-002, 1.57377217e-002, 3.93183492e-002,
          1.52577639e-001, 3.21611106e-001, 1.61606744e-001,
          3.77594680e-002, 3.41499150e-002, 3.56094837e-002,
          2.64032036e-001, 7.27171376e-002, 1.36269704e-001,
          2.63519496e-001, 3.21611106e-001, 1.77546576e-001,
          1.88026249e-001, 6.71987906e-002, 1.96041122e-001,
          2.45756172e-002, 2.91271135e-002, 6.65470138e-002,
          1.82121649e-001, 3.21611106e-001, 1.00039378e-001,
          6.05253167e-002, 3.67539562e-002, 1.89251583e-002,
          2.19358820e-002, 5.78579716e-002, 1.67916715e-001,
          2.48224437e-001, 2.20427364e-001, 1.78903073e-001,
          6.01999797e-002, 8.02538544e-002, 4.79359701e-002,
          4.61628065e-002, 6.49747550e-002, 1.35313362e-001,
          2.80491441e-001, 2.80491441e-001, 2.61216551e-001,
          5.67508303e-002, 5.34475930e-002, 1.27360849e-002,
          1.21728219e-002, 5.59608936e-002, 1.61446497e-001,
          2.80491441e-001, 2.60652930e-001, 2.46105552e-001,
          8.96057710e-002, 5.51114306e-002, 1.45538095e-002,
          5.40179387e-003, 7.45579302e-002, 2.42294937e-001,
          2.80491441e-001, 2.80491441e-001, 2.80491441e-001,
          4.66279797e-002, 6.17184825e-002, 1.41737156e-003,
          5.95469326e-002, 6.75401017e-002, 1.55928254e-001,
          2.30531946e-001, 2.66732842e-001, 1.39004782e-001,
          3.75521295e-002, 2.56323144e-002, 3.06605641e-002,
          6.54155165e-002, 9.12458748e-002, 1.60547212e-001,
          1.70868173e-001, 2.66732842e-001, 2.30074123e-001,
          9.38610435e-002, 7.62183592e-002, 7.37904832e-002,
          1.19660469e-002, 7.27316812e-002, 2.66732842e-001,
          2.66732842e-001, 2.66732842e-001, 2.66732842e-001,
          4.17968258e-002, 4.56905775e-002, 2.63433065e-002,
          1.57039743e-002, 6.05171658e-002, 2.64256358e-001,
          2.66732842e-001, 2.66732842e-001, 2.66732842e-001,
          1.30655438e-001, 7.20801950e-002, 5.07736728e-002,
          4.28149328e-002, 3.93149517e-002, 6.44350350e-002,
          9.98231173e-002, 2.69923657e-001, 1.96926385e-001,
          9.63095054e-002, 4.59144562e-002, 4.26153876e-002,
          1.79988265e-001, 6.95137009e-002, 9.17215049e-002,
          1.49675176e-001, 2.69923657e-001, 2.69923657e-001,
          1.97452679e-001, 1.41232476e-001, 1.29194826e-001,
          3.37030552e-002, 4.72253002e-002, 8.64406005e-002,
          1.77320614e-001, 2.69923657e-001, 1.80753574e-001,
          1.00094505e-001, 3.92772332e-002, 6.14425205e-002,
          2.26384059e-001, 1.17979616e-001, 1.56336561e-001,
          2.69923657e-001, 2.69923657e-001, 2.53158003e-001,
          2.34115541e-001, 1.50910214e-001, 1.59479812e-001,
          3.34006809e-002, 9.35997814e-002, 1.48681805e-001,
          3.47563475e-001, 3.47563475e-001, 2.63538271e-001,
          1.08588181e-001, 3.69870774e-002, 3.25186253e-002,
          8.26831907e-002, 1.39555410e-001, 1.52079314e-001,
          1.44795373e-001, 1.31038651e-001, 6.49927408e-002,
          1.26197293e-001, 1.40355349e-001, 4.27429155e-002,
          4.64074761e-002, 9.88051221e-002, 2.62401134e-001,
          3.47563475e-001, 3.47563475e-001, 1.53563440e-001,
          7.92833641e-002, 2.27568392e-002, 2.06346903e-002,
          1.28555730e-001, 1.85846269e-001, 1.79876581e-001,
          1.70127392e-001, 1.29697859e-001, 7.87729993e-002,
          8.65806788e-002, 7.10976720e-002, 9.43212509e-002,
          4.31102924e-002, 7.36684427e-002, 1.18349276e-001,
          1.46251664e-001, 2.54104763e-001, 1.35375544e-001,
          7.01107010e-002, 7.29199797e-002, 1.96679421e-002,
          1.17888991e-002, 7.46473595e-002, 1.10854253e-001,
          2.96145380e-001, 3.24621856e-001, 3.24621856e-001,
          8.80469084e-002, 2.00410150e-002, 8.03119037e-003,
          8.74059871e-002, 1.05121031e-001, 1.00174204e-001,
          1.45879641e-001, 2.51625836e-001, 1.82337686e-001,
          1.13817342e-001, 4.26825061e-002, 9.01679024e-002,
          2.78504808e-002, 4.26114611e-002, 7.98903257e-002,
          3.10769498e-001, 3.24621856e-001, 3.24621856e-001,
          2.18916610e-001, 3.36696133e-002, 3.22047621e-002,
          1.05554588e-001, 1.12649582e-001, 5.02138995e-002,
          1.18226901e-001, 2.69239396e-001, 1.37524068e-001,
          1.09821022e-001, 4.84328195e-002, 4.71415296e-002,
          2.69239396e-001, 1.60179287e-001, 1.01234287e-001,
          1.57828823e-001, 2.69239396e-001, 1.55894741e-001,
          2.38177016e-001, 1.10158682e-001, 2.04441205e-001,
          3.77641916e-002, 3.28026600e-002, 5.39786257e-002,
          1.33823216e-001, 2.69239396e-001, 1.75559625e-001,
          1.20825991e-001, 1.19559772e-001, 6.52396157e-002,
          1.25537813e-001, 1.14541478e-001, 1.53348655e-001,
          2.69239396e-001, 2.69239396e-001, 2.69239396e-001,
          1.46792874e-001, 1.72132954e-001, 1.65412828e-001,
          2.73717493e-001, 9.02388841e-002, 1.60098121e-001,
          2.60711521e-001, 2.82980919e-001, 1.70775399e-001,
          1.89245939e-001, 1.08723141e-001, 1.69690073e-001,
          2.42509041e-002, 4.17474322e-002, 6.57659546e-002,
          1.71881318e-001, 2.82980919e-001, 9.01188701e-002,
          7.71436021e-002, 3.39093059e-002, 1.04796020e-002,
          9.67960432e-002, 1.20780319e-001, 1.76878884e-001,
          2.82980919e-001, 2.82980919e-001, 2.82980919e-001,
          1.66728452e-001, 8.02502483e-002, 9.15479138e-002,
          1.57989413e-002, 5.49030267e-002, 7.68748596e-002,
          2.08572954e-001, 2.82980919e-001, 1.56925872e-001,
          8.56675208e-002, 1.61770582e-002, 1.20775867e-002,
          1.40116662e-002, 5.44562489e-002, 7.83902779e-002,
          2.75117159e-001, 2.55460560e-001, 1.70597091e-001,
          7.85388798e-002, 2.38694791e-002, 3.41309165e-003,
          7.60314986e-004, 3.18918303e-002, 1.88543752e-001,
          2.86818415e-001, 2.86818415e-001, 2.80756086e-001,
          3.47789675e-002, 1.80190727e-002, 9.02029497e-005,
          1.33412601e-002, 8.93533826e-002, 1.02120288e-001,
          2.86818415e-001, 2.86818415e-001, 2.25796610e-001,
          7.35612214e-002, 3.76009904e-002, 1.48827769e-002,
          3.19041486e-004, 2.61488911e-002, 1.85295433e-001,
          2.86818415e-001, 2.86818415e-001, 2.86818415e-001,
          7.81312957e-002, 2.24014930e-002, 5.86810405e-004,
          4.80430480e-003, 3.35699469e-002, 1.85064167e-001,
          2.77006090e-001, 2.77006090e-001, 2.60424465e-001,
          4.51039337e-002, 1.60704982e-002, 3.97313805e-003,
          1.08172633e-002, 2.65680458e-002, 1.07970476e-001,
          2.30284631e-001, 2.77006090e-001, 2.77006090e-001,
          1.14691682e-001, 2.86065061e-002, 8.64002388e-003,
          1.43138990e-002, 1.11492500e-002, 1.57088354e-001,
          2.77006090e-001, 2.77006090e-001, 2.74633497e-001,
          5.64942211e-002, 6.94552157e-003, 1.36024933e-002,
          3.14905755e-002, 3.04079410e-002, 7.44022653e-002,
          2.71125257e-001, 2.77006090e-001, 2.77006090e-001,
          1.10529669e-001, 1.89377181e-002, 2.99254861e-002,
          2.57109702e-002, 4.30708788e-002, 5.21669351e-002,
          1.44665033e-001, 2.45455459e-001, 1.66290179e-001,
          9.40780193e-002, 3.40455212e-002, 4.28808257e-002,
          1.51274949e-001, 1.40304908e-001, 1.45935938e-001,
          2.45455459e-001, 2.45455459e-001, 2.36545235e-001,
          2.30415076e-001, 1.60229713e-001, 1.37770593e-001,
          5.58133274e-002, 8.65992084e-002, 2.11126339e-002,
          1.44722313e-001, 2.45455459e-001, 1.86541244e-001,
          8.53763297e-002, 3.40454951e-002, 4.92720455e-002,
          2.45455459e-001, 2.40187064e-001, 8.26893225e-002,
          2.45455459e-001, 2.45455459e-001, 2.45455459e-001,
          1.83447212e-001, 1.38137862e-001, 1.93356499e-001,
          3.68547887e-002, 9.07979831e-002, 1.87973320e-001,
          3.01254809e-001, 3.01254809e-001, 1.38106063e-001,
          1.32985845e-001, 5.68723120e-002, 2.39523705e-002,
          7.46204257e-002, 2.35681847e-001, 1.41368657e-001,
          1.61867842e-001, 1.09178036e-001, 8.86271372e-002,
          8.83296952e-002, 8.58609304e-002, 1.00290984e-001,
          3.19381990e-002, 5.45134246e-002, 7.77720511e-002,
          2.01881394e-001, 3.01254809e-001, 3.01254809e-001,
          2.80947506e-001, 1.40167132e-001, 5.57538830e-002,
          5.30215576e-002, 1.47822276e-001, 1.09167919e-001,
          9.40889344e-002, 1.18696548e-001, 2.14935228e-001,
          2.32695818e-001, 2.52601027e-001, 1.41436175e-001,
          6.10876903e-002, 1.44405410e-001, 7.23962858e-002,
          1.47126541e-001, 2.92976379e-001, 1.55502662e-001,
          1.07362904e-001, 4.56977673e-002, 1.07637279e-001,
          2.75170133e-002, 4.07069959e-002, 5.53536415e-002,
          2.83569455e-001, 2.94100434e-001, 2.94100434e-001,
          1.64232165e-001, 3.13299485e-002, 3.79992239e-002,
          3.87045890e-002, 1.33003607e-001, 7.80111924e-002,
          2.08692148e-001, 2.94100434e-001, 1.82644576e-001,
          1.45042688e-001, 1.01610228e-001, 1.25271499e-001,
          3.23644578e-002, 6.31294772e-002, 8.65875855e-002,
          2.94100434e-001, 2.94100434e-001, 2.94100434e-001,
          1.09534040e-001, 2.62845140e-002, 4.06823792e-002,
          2.82993820e-002, 3.58609408e-002, 4.55425531e-002,
          9.06652957e-002, 2.83899158e-001, 1.67778522e-001,
          5.06211519e-002, 3.98093797e-002, 3.93827744e-002,
          1.77148446e-001, 1.80870503e-001, 1.35214880e-001,
          1.54467210e-001, 2.83899158e-001, 2.83899158e-001,
          1.22114584e-001, 9.92541611e-002, 1.43472150e-001,
          4.33310382e-002, 3.27263847e-002, 5.76549135e-002,
          1.14851221e-001, 2.83899158e-001, 1.67354643e-001,
          5.05779423e-002, 3.43424045e-002, 5.75683154e-002,
          2.39503846e-001, 1.18285023e-001, 1.50339127e-001,
          1.16308078e-001, 2.83899158e-001, 2.83899158e-001,
          2.36922324e-001, 1.30455688e-001, 2.83899158e-001,
          1.55525461e-001, 1.54655606e-001, 1.29019693e-001,
          1.91673547e-001, 2.91801214e-001, 2.91801214e-001,
          1.89579040e-001, 9.25977305e-002, 8.71239454e-002,
          1.86513532e-002, 3.68906297e-002, 4.81948555e-002,
          1.31379783e-001, 2.82853305e-001, 1.53239399e-001,
          7.49100447e-002, 1.13586355e-002, 5.50688850e-003,
          1.92497700e-001, 1.00440964e-001, 1.59596533e-001,
          1.38684064e-001, 2.91801214e-001, 2.91801214e-001,
          2.91801214e-001, 1.23602465e-001, 1.92015469e-001,
          1.61981285e-002, 4.46852595e-002, 8.13052580e-002,
          1.15282990e-001, 2.91801214e-001, 1.68083459e-001,
          8.51975158e-002, 1.94856822e-002, 1.64506002e-003,
          1.00514097e-002, 5.83375171e-002, 7.40441903e-002,
          2.62874991e-001, 2.91843355e-001, 2.25769565e-001,
          5.37964851e-002, 1.55518502e-002, 1.01107489e-002,
          4.21019690e-003, 2.51022037e-002, 8.81134048e-002,
          2.91843355e-001, 2.91843355e-001, 2.86619544e-001,
          5.55641279e-002, 1.27579309e-002, 5.49599703e-004,
          1.21914390e-002, 5.85462525e-002, 1.14534438e-001,
          2.42181912e-001, 2.91843355e-001, 2.90225148e-001,
          6.49322197e-002, 1.22261737e-002, 1.92253711e-003,
          9.45032109e-003, 2.46155169e-002, 7.97251761e-002,
          2.91843355e-001, 2.91843355e-001, 2.91843355e-001,
          6.12915978e-002, 2.87043187e-003, 1.12125126e-004,
          5.76734310e-003, 4.47925366e-003, 7.01884851e-002,
          2.96935678e-001, 2.96935678e-001, 2.16653004e-001,
          3.66040580e-002, 8.20839498e-003, 1.00291716e-002,
          2.03669183e-002, 1.21564055e-002, 7.09640533e-002,
          2.96935678e-001, 2.96935678e-001, 2.13846415e-001,
          6.29084855e-002, 1.62689909e-002, 2.76726130e-002,
          3.04713333e-003, 5.72557887e-003, 5.59938438e-002,
          2.96935678e-001, 2.96935678e-001, 2.96935678e-001,
          7.81627297e-002, 7.54602952e-003, 4.75798035e-003,
          3.30409035e-002, 1.70602184e-002, 1.13417856e-001,
          2.96935678e-001, 2.96935678e-001, 2.49527201e-001,
          8.26249048e-002, 1.94426160e-002, 2.59117354e-002,
          3.48462909e-002, 5.59593067e-002, 3.33131216e-002,
          1.82900861e-001, 2.99936920e-001, 1.06582336e-001,
          5.89582995e-002, 3.87813598e-002, 2.04034261e-002,
          1.34364396e-001, 1.77545980e-001, 6.88269287e-002,
          2.99936920e-001, 2.99936920e-001, 2.04490632e-001,
          9.92895514e-002, 1.16630696e-001, 1.18147500e-001,
          7.56955221e-002, 4.70752046e-002, 7.21185878e-002,
          2.48930886e-001, 2.99936920e-001, 6.77723289e-002,
          6.46384507e-002, 5.03552258e-002, 2.03857180e-002,
          2.20408216e-001, 1.88799858e-001, 1.81350738e-001,
          2.99936920e-001, 2.99936920e-001, 1.29699051e-001,
          9.41382721e-002, 1.20004497e-001, 1.54859439e-001,
          8.92096665e-003, 2.99239047e-002, 4.32813317e-002,
          1.08545572e-001, 3.12876105e-001, 3.12876105e-001,
          2.45854497e-001, 1.57593668e-001, 3.38733606e-002,
          3.85478958e-002, 7.94759467e-002, 7.63840675e-002,
          4.14720736e-002, 1.00079261e-001, 2.06043497e-001,
          2.20127434e-001, 2.64395416e-001, 1.12893760e-001,
          4.13116673e-003, 8.74514598e-003, 2.44751610e-002,
          2.11757183e-001, 3.12876105e-001, 3.12876105e-001,
          2.55211473e-001, 1.20582528e-001, 4.08159606e-002,
          5.66319525e-002, 6.75481707e-002, 6.97946325e-002,
          1.19913682e-001, 2.07622424e-001, 1.68534935e-001,
          1.89276710e-001, 1.90705135e-001, 8.78573656e-002,
          4.69875485e-002, 1.01203300e-001, 1.04077064e-001,
          2.15933785e-001, 2.26805225e-001, 1.84108093e-001,
          1.26629755e-001, 1.04942173e-001, 1.02686040e-001,
          2.52891462e-002, 7.90666863e-002, 1.34166077e-001,
          2.87817687e-001, 2.87817687e-001, 2.87817687e-001,
          9.40441042e-002, 1.93835236e-002, 2.16568727e-002,
          7.64071643e-002, 1.41628265e-001, 1.49851620e-001,
          2.20357656e-001, 1.97932690e-001, 1.08643264e-001,
          9.95075777e-002, 7.20983893e-002, 5.18378243e-002,
          7.19996095e-002, 1.98196679e-001, 2.31568322e-001,
          2.87817687e-001, 2.87817687e-001, 2.87817687e-001,
          8.95567909e-002, 2.82338448e-002, 9.28006414e-003,
          4.58561443e-002, 3.64588238e-002, 4.78758737e-002,
          1.57183900e-001, 2.75913686e-001, 9.94243845e-002,
          3.85361984e-002, 3.34803164e-002, 4.54790853e-002,
          2.03916460e-001, 7.21270218e-002, 1.79354638e-001,
          1.90631926e-001, 2.76404947e-001, 1.76967368e-001,
          1.54949248e-001, 8.88789073e-002, 2.24323526e-001,
          1.14687949e-001, 1.01067774e-001, 7.95647725e-002,
          2.76404947e-001, 2.76404947e-001, 9.64487791e-002,
          3.37086990e-002, 2.76189055e-002, 5.78281544e-002,
          2.76404947e-001, 1.45924464e-001, 2.12732062e-001,
          2.76404947e-001, 2.76404947e-001, 1.26338422e-001,
          8.89945924e-002, 7.59094730e-002, 2.20100299e-001,
          1.30765423e-001, 4.36390005e-002, 2.28994533e-001,
          2.20972165e-001, 3.13469976e-001, 2.80499339e-001,
          1.57425150e-001, 4.79812063e-002, 1.44732729e-001,
          5.06026112e-003, 3.74683477e-002, 7.60742724e-002,
          1.21239759e-001, 3.13469976e-001, 1.37560964e-001,
          5.13075739e-002, 1.83071382e-002, 3.47925723e-003,
          1.91921979e-001, 6.92822114e-002, 2.44595021e-001,
          3.13469976e-001, 3.13469976e-001, 1.77194178e-001,
          8.20549577e-002, 4.65706363e-002, 1.35109186e-001,
          1.41581949e-002, 2.71920227e-002, 5.49968891e-002,
          1.79379284e-001, 3.08562398e-001, 1.36806369e-001,
          4.70458120e-002, 2.63057519e-002, 4.83822823e-003,
          6.72604330e-003, 8.50384161e-002, 9.37504172e-002,
          2.10471362e-001, 2.93415844e-001, 2.53124237e-001,
          8.98675174e-002, 4.27639186e-002, 4.76544024e-003,
          2.90214783e-003, 2.45182272e-002, 5.24122678e-002,
          2.93415844e-001, 2.93415844e-001, 2.93415844e-001,
          1.01692542e-001, 1.91249978e-002, 7.60601775e-004,
          2.71277763e-002, 5.75565584e-002, 4.54496965e-002,
          2.06426278e-001, 2.93415844e-001, 2.73412049e-001,
          1.05213828e-001, 9.11009312e-002, 1.38039887e-002,
          6.06014207e-003, 3.44262533e-002, 1.74742676e-002,
          2.89899796e-001, 2.93415844e-001, 2.93415844e-001,
          1.01818897e-001, 8.00075755e-002, 2.47513223e-002,
          7.04668555e-003, 1.29472548e-002, 3.95648964e-002,
          2.65585452e-001, 2.94561714e-001, 2.94561714e-001,
          1.11022942e-001, 1.03404373e-002, 5.40197920e-003,
          2.70961560e-002, 3.53622250e-002, 1.02124088e-001,
          2.94561714e-001, 2.94561714e-001, 2.49287248e-001,
          9.81524959e-002, 2.15655901e-002, 2.17251126e-002,
          1.46095948e-002, 4.70191874e-002, 4.56107631e-002,
          1.65239349e-001, 2.94561714e-001, 2.94561714e-001,
          9.76145864e-002, 3.89572866e-002, 1.45813981e-002,
          2.50345487e-002, 8.53271559e-002, 1.10451102e-001,
          2.51235634e-001, 2.94561714e-001, 2.79513419e-001,
          1.09306186e-001, 5.69579899e-002, 1.29359653e-002,
          6.24394976e-002, 3.20228338e-002, 5.57046905e-002,
          2.01336205e-001, 2.90352911e-001, 7.67927095e-002,
          8.76140818e-002, 1.82886049e-002, 2.74895150e-002,
          1.95501402e-001, 1.03743687e-001, 1.95320934e-001,
          2.90352911e-001, 2.90352911e-001, 1.43692136e-001,
          1.49631023e-001, 3.87167931e-002, 1.22902334e-001,
          9.16069895e-002, 6.87788352e-002, 3.71998213e-002,
          2.04014838e-001, 2.90352911e-001, 9.49638039e-002,
          1.13567606e-001, 3.71423699e-002, 4.52455468e-002,
          2.80269831e-001, 1.15052640e-001, 9.55812037e-002,
          2.90352911e-001, 2.90352911e-001, 1.44547001e-001,
          1.95779100e-001, 8.70918930e-002, 1.79067343e-001 ]
      - [ 2.19032884e-001, 1.03633851e-001, 8.47281814e-002,
          1.12256169e-001, 1.15606017e-001, 8.22415650e-002,
          1.38831064e-001, 9.02254879e-002, 1.83410972e-001,
          1.97341084e-001, 1.22791275e-001, 1.23173714e-001,
          7.25573674e-002, 5.20383418e-002, 3.46968099e-002,
          5.52981272e-002, 6.80639297e-002, 1.09194331e-001,
          2.46833488e-001, 2.47581035e-001, 1.70074537e-001,
          2.47581035e-001, 2.47581035e-001, 2.47581035e-001,
          2.47581035e-001, 2.47581035e-001, 2.47581035e-001,
          1.27632633e-001, 1.36538386e-001, 2.47581035e-001,
          2.47581035e-001, 1.85534433e-001, 9.05663967e-002,
          1.07195996e-001, 6.63889945e-002, 6.99143857e-002,
          2.63888836e-001, 2.63888836e-001, 2.63888836e-001,
          1.50271416e-001, 4.77011539e-002, 1.15290461e-002,
          1.72365606e-002, 3.88660096e-002, 1.25892222e-001,
          2.63888836e-001, 2.63888836e-001, 2.63888836e-001,
          1.66525349e-001, 4.11215723e-002, 1.19048031e-002,
          2.46090181e-002, 3.87084708e-002, 1.29673779e-001,
          1.70942634e-001, 2.63888836e-001, 2.63888836e-001,
          2.63888836e-001, 9.17253792e-002, 2.34288331e-002,
          3.47032994e-002, 3.44344676e-002, 7.65192360e-002,
          1.81510210e-001, 2.63888836e-001, 2.63888836e-001,
          1.84117481e-001, 4.95777503e-002, 3.88086587e-002,
          5.57016209e-002, 7.46243820e-002, 1.19639367e-001,
          1.26806095e-001, 2.25943089e-001, 2.02370331e-001,
          1.82428598e-001, 1.64206132e-001, 6.18483536e-002,
          5.79775423e-002, 3.85000333e-002, 4.40299176e-002,
          9.73848477e-002, 9.38154161e-002, 8.47461373e-002,
          2.46190220e-001, 2.93380409e-001, 1.63371101e-001,
          1.87720999e-001, 1.47648945e-001, 1.56358063e-001,
          7.18071535e-002, 1.06060758e-001, 1.17919758e-001,
          1.54841721e-001, 1.23200431e-001, 7.15166926e-002,
          6.05508499e-002, 5.93952984e-002, 6.11448772e-002,
          1.15104906e-001, 9.02205408e-002, 1.46513134e-001,
          2.93380409e-001, 2.93380409e-001, 2.93380409e-001,
          2.93380409e-001, 2.16815531e-001, 1.34696364e-001,
          6.82097450e-002, 4.84255701e-002, 2.45334879e-002,
          7.78523460e-002, 1.13427326e-001, 6.10115007e-002,
          1.82171911e-001, 1.59620419e-001, 1.22967966e-001,
          4.72460240e-002, 4.81808074e-002, 1.84466969e-002,
          3.32008563e-002, 5.20609617e-002, 6.34241477e-002,
          1.60484716e-001, 1.34727031e-001, 6.79864958e-002,
          1.01411521e-001, 6.40750825e-002, 9.77784097e-002,
          2.55200952e-001, 3.32106560e-001, 1.85735330e-001,
          3.32106560e-001, 3.32106560e-001, 1.35275587e-001,
          4.53100652e-002, 2.09753308e-002, 4.98408936e-002,
          5.50868176e-002, 2.82187939e-001, 1.94859222e-001,
          3.32106560e-001, 3.32106560e-001, 1.11480258e-001,
          6.04487993e-002, 6.48798719e-002, 1.09396642e-002,
          4.45315838e-002, 1.10759571e-001, 1.77629039e-001,
          2.73714423e-001, 2.73714423e-001, 8.44902769e-002,
          1.16886117e-001, 2.99760066e-002, 7.99407158e-003,
          1.43112643e-002, 7.47206956e-002, 1.18182264e-001,
          2.73714423e-001, 2.73714423e-001, 2.47388676e-001,
          5.06522544e-002, 2.52867360e-002, 2.99416855e-002,
          3.46062183e-002, 2.73714423e-001, 2.73714423e-001,
          2.73714423e-001, 2.73714423e-001, 9.41717252e-002,
          1.29062355e-001, 1.18334331e-001, 5.20410500e-002,
          2.08315924e-002, 1.10960469e-001, 1.33696482e-001,
          2.07768098e-001, 2.73714423e-001, 2.12505430e-001,
          2.47628868e-001, 9.63083655e-002, 2.41201259e-002,
          5.97699219e-003, 3.36607546e-002, 3.75524275e-002,
          1.74072877e-001, 2.56402731e-001, 2.56402731e-001,
          2.56402731e-001, 2.56402731e-001, 2.56402731e-001,
          1.33492664e-001, 3.64665799e-002, 2.73901857e-002,
          3.97469252e-002, 8.13139603e-002, 2.56402731e-001,
          2.34824613e-001, 1.65866524e-001, 1.00786425e-001,
          1.26810987e-002, 3.30213867e-002, 3.46256085e-002,
          1.24558628e-001, 1.89392552e-001, 2.56402731e-001,
          2.56402731e-001, 2.56402731e-001, 2.53401399e-001,
          1.25591874e-001, 3.98289002e-002, 4.73481826e-002,
          5.43761291e-002, 6.49077073e-002, 1.89674556e-001,
          1.75017536e-001, 2.60421813e-001, 2.60421813e-001,
          2.39139423e-001, 6.59677014e-002, 2.01017093e-002,
          1.55897113e-002, 1.93660762e-002, 7.22385049e-002,
          1.70773655e-001, 2.60421813e-001, 2.60421813e-001,
          1.93694055e-001, 9.18231755e-002, 6.34519607e-002,
          3.34042720e-002, 4.93753664e-002, 7.74643421e-002,
          1.26424998e-001, 2.56813467e-001, 2.32175663e-001,
          1.75132319e-001, 7.78461173e-002, 3.69135700e-002,
          4.67367396e-002, 3.60997245e-002, 5.15183806e-002,
          2.34184265e-001, 2.13382065e-001, 2.60421813e-001,
          2.60421813e-001, 2.60421813e-001, 1.32632494e-001,
          1.64090216e-001, 5.55758625e-002, 8.65965262e-002,
          1.54850915e-001, 2.42707029e-001, 1.90892965e-001,
          2.12304801e-001, 3.21314454e-001, 1.62247270e-001,
          9.54895988e-002, 1.42584100e-001, 2.14176133e-001,
          1.79160610e-002, 4.82268445e-002, 1.29890770e-001,
          2.45413825e-001, 2.43947729e-001, 3.82392704e-002,
          2.77192220e-002, 1.83972400e-002, 1.99244469e-002,
          9.71978009e-002, 1.03923827e-001, 1.36196211e-001,
          3.04139346e-001, 3.21314454e-001, 2.06590876e-001,
          1.92454886e-002, 4.79418412e-002, 9.27385688e-002,
          1.08085033e-002, 3.64400484e-002, 1.03933796e-001,
          2.81132489e-001, 3.21314454e-001, 4.64991517e-002,
          4.86470992e-003, 5.75521495e-003, 6.80462690e-003,
          1.45644709e-001, 2.23860964e-001, 2.55870312e-001,
          2.55870312e-001, 1.49189085e-001, 3.96125130e-002,
          5.17756604e-002, 2.57771928e-002, 2.45646890e-002,
          2.55870312e-001, 2.41348773e-001, 2.24908918e-001,
          1.74587920e-001, 1.16370000e-001, 8.58914480e-002,
          9.87660885e-002, 9.10351053e-002, 1.07950315e-001,
          1.50362462e-001, 2.44478524e-001, 2.55870312e-001,
          2.55870312e-001, 1.88325346e-001, 4.17550094e-002,
          5.42907640e-002, 3.15690935e-002, 3.41839492e-002,
          2.41719171e-001, 1.97845683e-001, 1.57284990e-001,
          1.31031096e-001, 2.40688384e-001, 8.85390788e-002,
          1.27839208e-001, 1.02403693e-001, 1.55837029e-001,
          4.96413000e-002, 3.83540578e-002, 5.72131388e-002,
          8.18876848e-002, 7.03091696e-002, 5.36552966e-002,
          6.09688349e-002, 4.23004627e-002, 4.76866327e-002,
          2.27010939e-002, 2.20905282e-002, 2.79104054e-001,
          3.31194639e-001, 3.31194639e-001, 2.57599741e-001,
          3.06671590e-001, 9.69602913e-002, 2.98227929e-002,
          3.53029743e-002, 3.07514481e-002, 3.26624922e-002,
          5.36474362e-002, 1.42756060e-001, 7.59764537e-002,
          9.49338749e-002, 4.68460694e-002, 4.05781716e-002,
          6.34937435e-002, 3.29535902e-002, 2.53907144e-001,
          3.31194639e-001, 3.31194639e-001, 2.89900512e-001,
          2.34443277e-001, 1.19572654e-001, 1.03845872e-001,
          3.22197005e-002, 4.58611846e-002, 2.18184456e-001,
          1.48731560e-001, 2.42093727e-001, 1.01827897e-001,
          2.42093727e-001, 1.69071823e-001, 3.63980532e-002,
          6.18134327e-002, 6.01157956e-002, 1.92396700e-001,
          7.74831250e-002, 2.42093727e-001, 1.48141533e-001,
          2.42093727e-001, 2.42093727e-001, 6.66207001e-002,
          1.24465503e-001, 9.08410773e-002, 2.42093727e-001,
          2.21032217e-001, 2.42093727e-001, 1.06233701e-001,
          1.00873604e-001, 6.02187216e-002, 1.03963450e-001,
          1.67011052e-001, 1.31914765e-001, 2.42093727e-001,
          1.76311091e-001, 2.42093727e-001, 1.79427728e-001,
          2.16619223e-001, 4.93167043e-002, 1.16987690e-001,
          8.92129168e-002, 5.97583354e-002, 1.61392480e-001,
          1.26902297e-001, 2.88863152e-001, 2.88863152e-001,
          2.88863152e-001, 2.49053136e-001, 8.76457468e-002,
          8.52623135e-002, 1.27997994e-001, 5.13937138e-002,
          5.35234101e-002, 1.06547996e-001, 1.05631374e-001,
          9.63054672e-002, 9.82895494e-002, 9.61848050e-002,
          1.49297372e-001, 1.05942637e-001, 2.41803050e-001,
          2.65999466e-001, 2.88863152e-001, 2.88863152e-001,
          2.88863152e-001, 7.23322481e-002, 1.29725352e-001,
          6.77925572e-002, 1.53254017e-001, 8.93379450e-002,
          1.02937631e-001, 1.63794994e-001, 1.37115136e-001,
          9.78873670e-002, 6.09900877e-002, 5.31453229e-002,
          2.35423565e-001, 2.35423565e-001, 1.72612399e-001,
          8.18434805e-002, 1.07939444e-001, 8.45884383e-002,
          1.09945625e-001, 1.45973638e-001, 1.60269499e-001,
          2.35423565e-001, 2.35423565e-001, 2.35423565e-001,
          1.84389338e-001, 9.90774184e-002, 6.74684942e-002,
          8.68988186e-002, 1.22572169e-001, 1.58792064e-001,
          1.95778057e-001, 2.35423565e-001, 1.88431710e-001,
          2.01918870e-001, 1.60328373e-001, 1.04936324e-001,
          8.88382420e-002, 1.34003043e-001, 9.14501324e-002,
          2.03843385e-001, 2.35423565e-001, 2.02900991e-001,
          2.06385732e-001, 1.34855762e-001, 1.02020264e-001,
          1.41803876e-001, 1.50307879e-001, 1.30347222e-001,
          9.57097560e-002, 1.07057095e-001, 8.20779055e-002,
          1.16276652e-001, 6.02812879e-002, 3.00228875e-002,
          6.10087924e-002, 5.63607402e-002, 5.88607155e-002,
          1.27983436e-001, 1.40243739e-001, 3.03546488e-001,
          2.71186948e-001, 3.03546488e-001, 2.40498066e-001,
          2.60505855e-001, 9.22564790e-002, 1.06213041e-001,
          6.61493689e-002, 1.05156727e-001, 5.98414391e-002,
          8.22682530e-002, 5.16316146e-002, 4.55565415e-002,
          8.08336884e-002, 8.14577490e-002, 5.16651757e-002,
          8.68798196e-002, 7.39152580e-002, 2.95199931e-001,
          2.08714604e-001, 3.03546488e-001, 3.03546488e-001,
          3.03546488e-001, 1.62163138e-001, 9.50055569e-002,
          1.90758724e-002, 1.40536325e-002, 2.11159177e-002,
          2.81607091e-001, 3.77985924e-001, 2.26420686e-001,
          1.96403675e-002, 3.82521227e-002, 4.27325070e-002,
          1.26003493e-002, 1.99899226e-002, 6.90141171e-002,
          2.13294312e-001, 3.77985924e-001, 6.25794828e-002,
          3.78355617e-003, 1.24548131e-003, 5.71847668e-005,
          3.74540128e-002, 2.10399516e-002, 4.21780497e-002,
          3.49860668e-001, 3.77985924e-001, 1.75014034e-001,
          3.82663198e-002, 3.89119014e-002, 4.33806889e-002,
          9.58392676e-003, 1.33866342e-002, 8.57144371e-002,
          2.48477399e-001, 3.77985924e-001, 6.14325330e-002,
          8.84791184e-003, 1.67840172e-003, 0., 1.33187145e-001,
          1.73510686e-001, 2.45978028e-001, 2.45978028e-001,
          2.36900896e-001, 8.26462135e-002, 4.41474356e-002,
          2.89884955e-002, 3.06886993e-002, 1.80163950e-001,
          1.21309765e-001, 1.15031138e-001, 1.17734052e-001,
          2.31212243e-001, 1.38640270e-001, 1.54134229e-001,
          1.16329297e-001, 1.50139406e-001, 1.11820586e-001,
          1.46273747e-001, 2.45978028e-001, 2.45978028e-001,
          2.45978028e-001, 1.23244487e-001, 4.75030281e-002,
          4.06279266e-002, 3.66234258e-002, 1.76347166e-001,
          1.98453277e-001, 1.95611387e-001, 2.33310774e-001,
          1.80505052e-001, 2.43463367e-001, 1.57227263e-001,
          1.36878580e-001, 1.44489273e-001, 2.73421146e-002,
          1.97821911e-002, 3.27272341e-002, 8.00344348e-002,
          1.59588292e-001, 1.07746750e-001, 9.73041356e-002,
          4.70890813e-002, 3.45880687e-002, 6.00119233e-002,
          2.96139885e-002, 1.10652365e-001, 3.20646405e-001,
          3.22494507e-001, 3.22494507e-001, 2.76442230e-001,
          1.04559451e-001, 1.01796828e-001, 3.88460346e-002,
          6.00782260e-002, 7.28717595e-002, 1.55854747e-001,
          1.65728286e-001, 1.76224679e-001, 9.80758294e-002,
          4.91752513e-002, 3.79473604e-002, 1.05616651e-001,
          7.16444999e-002, 9.96219963e-002, 2.85998315e-001,
          3.22494507e-001, 3.22494507e-001, 2.88827717e-001,
          6.39175549e-002, 5.20378165e-002, 1.03114530e-001,
          4.83186096e-002, 1.23135522e-001, 2.12427467e-001,
          2.97371984e-001, 1.43140256e-001, 1.05141483e-001,
          4.36370671e-002, 8.82153809e-002, 1.23814039e-001,
          7.13435933e-002, 1.72396943e-001, 2.82465369e-001,
          2.97371984e-001, 1.69120580e-001, 1.61366567e-001,
          2.19819564e-002, 7.98354000e-002, 8.21882710e-002,
          2.99768448e-002, 3.68988514e-002, 1.42552987e-001,
          2.97371984e-001, 2.97371984e-001, 1.91581726e-001,
          5.27610965e-002, 7.02452362e-002, 1.02024354e-001,
          3.68700773e-002, 1.44988641e-001, 2.97371984e-001,
          2.97371984e-001, 1.74314931e-001, 1.11335531e-001,
          5.55134304e-002, 9.01480317e-002, 6.81788325e-002,
          4.41188551e-002, 1.59835443e-001, 3.47801954e-001,
          3.47801954e-001, 3.44650686e-001, 2.76344717e-001,
          4.16018367e-002, 5.77450283e-002, 2.93580703e-002,
          7.21699148e-002, 6.60762116e-002, 1.27643541e-001,
          1.55633226e-001, 1.06537648e-001, 7.04368651e-002,
          5.30338846e-002, 2.70010456e-002, 7.23965019e-002,
          4.80331369e-002, 2.26856455e-001, 3.47801954e-001,
          3.47801954e-001, 1.89764112e-001, 9.59981382e-002,
          7.76150525e-002, 5.26447482e-002, 4.02535312e-002,
          8.48593265e-002, 8.48516300e-002, 1.91996202e-001,
          1.41546696e-001, 1.07231006e-001, 7.40071088e-002,
          7.45795667e-002, 3.17396075e-002, 1.04486905e-001,
          2.27596492e-001, 1.71179712e-001, 2.35575259e-001,
          1.45789832e-001, 6.63675219e-002, 8.33628625e-002,
          9.33945030e-002, 5.57779372e-002, 1.21905982e-001,
          2.38242790e-001, 2.11176947e-001, 2.35483289e-001,
          1.41850978e-001, 1.49217114e-001, 1.45138592e-001,
          9.80372652e-002, 5.69006428e-002, 1.37608603e-001,
          2.38242790e-001, 2.38242790e-001, 2.38242790e-001,
          1.53243914e-001, 6.22544363e-002, 7.06301555e-002,
          9.28775743e-002, 7.13095218e-002, 1.43167093e-001,
          2.38242790e-001, 2.38242790e-001, 2.38242790e-001,
          2.34723553e-001, 1.57257214e-001, 1.25864312e-001,
          1.62909195e-001, 9.71291140e-002, 3.92718501e-002,
          9.71609727e-002, 6.87512532e-002, 9.01359543e-002,
          5.86010404e-002, 1.08131200e-001, 1.08280241e-001,
          7.80893415e-002, 3.17534842e-002, 8.34497288e-002,
          4.70479839e-002, 1.60449505e-001, 1.96184427e-001,
          3.11999232e-001, 3.11999232e-001, 3.11999232e-001,
          1.58520773e-001, 9.67808366e-002, 3.66560631e-002,
          6.91378340e-002, 5.32913618e-002, 1.50090620e-001,
          1.11395538e-001, 1.32087424e-001, 1.48500457e-001,
          1.24700092e-001, 5.18437736e-002, 4.24614213e-002,
          6.90081045e-002, 1.22110561e-001, 3.11999232e-001,
          3.11999232e-001, 3.11999232e-001, 3.11999232e-001,
          1.54479861e-001, 5.29566705e-002, 3.06299590e-002,
          2.31365114e-002, 3.85144837e-002, 3.26380551e-001,
          3.78623843e-001, 1.17517464e-001, 4.12502401e-002,
          9.73118749e-003, 1.83230396e-002, 5.06918970e-003,
          1.08388439e-002, 6.87465817e-002, 2.20993415e-001,
          3.78623843e-001, 4.49704304e-002, 9.24211182e-003,
          2.06746743e-003, 4.44363657e-004, 1.75657421e-002,
          1.89394094e-002, 1.92360505e-002, 3.68459225e-001,
          3.78623843e-001, 2.29789838e-001, 6.75394535e-002,
          1.53669696e-002, 1.47723677e-002, 9.48887132e-003,
          1.27754901e-002, 3.75904590e-002, 1.95683450e-001,
          3.78623843e-001, 8.06268007e-002, 1.84579398e-002,
          9.29213222e-003, 6.73886575e-003, 7.66318291e-002,
          1.15078524e-001, 2.50715703e-001, 2.50715703e-001,
          2.43554309e-001, 1.31057322e-001, 4.35680896e-002,
          3.44847813e-002, 3.97119038e-002, 1.28765583e-001,
          2.08535478e-001, 1.70840770e-001, 2.00956047e-001,
          2.00235546e-001, 2.50715703e-001, 9.73306149e-002,
          7.39718825e-002, 1.02915645e-001, 4.84141372e-002,
          8.61903578e-002, 1.97026581e-001, 2.50715703e-001,
          2.50715703e-001, 2.50715703e-001, 1.17296092e-001,
          7.73986205e-002, 6.29088879e-002, 1.08307272e-001,
          1.53300881e-001, 1.31805360e-001, 1.99983045e-001,
          2.50715703e-001, 2.50715703e-001, 1.51048586e-001,
          6.45804331e-002, 8.48635137e-002, 2.32770909e-002,
          3.88577841e-002, 7.03491047e-002, 1.10353999e-001,
          1.59719288e-001, 1.14010110e-001, 3.37135307e-002,
          1.36980452e-002, 1.44427456e-002, 1.64945960e-001,
          8.35547447e-002, 1.03938192e-001, 2.06377864e-001,
          2.96686620e-001, 2.96686620e-001, 1.21986866e-001,
          4.00416441e-002, 7.18570575e-002, 3.08498722e-002,
          2.93348394e-002, 1.19733639e-001, 2.09885314e-001,
          2.96686620e-001, 1.33807406e-001, 4.13055234e-002,
          2.04582661e-002, 1.61738675e-002, 1.38219804e-001,
          6.44255430e-002, 2.56672204e-001, 2.96686620e-001,
          2.96686620e-001, 2.96686620e-001, 2.58083165e-001,
          1.97884470e-001, 1.58286005e-001, 1.45405412e-001,
          6.41763508e-002, 3.54424380e-002, 7.80382007e-002,
          2.40974456e-001, 2.40974456e-001, 1.29385427e-001,
          8.09758157e-002, 1.51882112e-001, 1.23996146e-001,
          5.85109778e-002, 1.21812917e-001, 2.21830070e-001,
          2.40974456e-001, 1.39366522e-001, 1.10069141e-001,
          9.84254926e-002, 1.70989633e-001, 1.23655327e-001,
          6.07300960e-002, 1.34986565e-001, 1.67540282e-001,
          2.40974456e-001, 2.40974456e-001, 1.68723896e-001,
          1.73050210e-001, 2.13373423e-001, 9.41356346e-002,
          7.99257904e-002, 2.28413641e-001, 2.40974456e-001,
          2.40974456e-001, 2.11428106e-001, 1.59916118e-001,
          1.35066226e-001, 1.83510467e-001, 7.95640349e-002,
          6.20473474e-002, 1.75339401e-001, 3.13183516e-001,
          3.13183516e-001, 1.71773285e-001, 1.08862057e-001,
          7.04929829e-002, 9.08808708e-002, 2.07443610e-002,
          5.16739003e-002, 8.91675875e-002, 1.50795817e-001,
          1.33083418e-001, 8.73175338e-002, 4.57091294e-002,
          2.61662714e-002, 1.21630207e-002, 6.26639277e-002,
          7.29381666e-002, 2.31259614e-001, 3.13183516e-001,
          3.13183516e-001, 3.13183516e-001, 2.57970065e-001,
          1.09722264e-001, 1.05393536e-001, 6.32328261e-003,
          9.65829287e-003, 7.70205185e-002, 2.23521993e-001,
          3.13183516e-001, 1.97808191e-001, 5.29595502e-002,
          1.92054287e-002, 7.53789628e-003, 8.07013959e-002,
          1.23446442e-001, 1.94639638e-001, 2.66977459e-001,
          1.17757477e-001, 5.23829684e-002, 3.78616117e-002,
          4.42740284e-002, 4.75123301e-002, 1.02234192e-001,
          9.78676677e-002, 1.59105897e-001, 2.66977459e-001,
          1.41239882e-001, 1.02560334e-001, 6.21204264e-002,
          1.24418981e-001, 1.15644008e-001, 5.82003593e-002,
          3.25653851e-002, 2.66977459e-001, 2.66977459e-001,
          2.66977459e-001, 1.18947364e-001, 5.02843000e-002,
          5.94137162e-002, 8.59717056e-002, 1.09412558e-001,
          4.14280780e-002, 2.66977459e-001, 2.66977459e-001,
          2.66977459e-001, 2.62105674e-001, 1.80242285e-001,
          1.91415876e-001, 2.30507880e-001, 2.46153716e-002,
          3.38522308e-002, 4.86196801e-002, 1.65122688e-001,
          1.21558517e-001, 1.40553489e-001, 1.04444072e-001,
          8.78925100e-002, 4.85790484e-002, 1.37717836e-002,
          9.28920582e-002, 7.51898289e-002, 2.76967853e-001,
          2.76967853e-001, 2.76967853e-001, 2.76967853e-001,
          8.89256299e-002, 1.74472332e-002, 2.08311025e-002,
          1.83608439e-002, 7.60924220e-002, 2.65434742e-001,
          2.64282286e-001, 2.60230511e-001, 1.20113246e-001,
          6.84061423e-002, 5.74542992e-002, 1.45777892e-002,
          9.08218399e-002, 1.53301492e-001, 2.76967853e-001,
          2.76967853e-001, 2.76967853e-001, 2.48560354e-001,
          1.37344629e-001, 3.26431356e-002, 1.52961407e-002,
          3.91447581e-002, 2.59665847e-002, 3.64500344e-001,
          3.64500344e-001, 2.66689926e-001, 4.17759344e-002,
          2.45695207e-002, 1.87235884e-002, 7.02644838e-003,
          1.44755291e-002, 3.07989698e-002, 1.48955464e-001,
          3.64500344e-001, 8.22131932e-002, 1.32537298e-002,
          1.17328363e-002, 6.66184723e-003, 3.72274742e-002,
          8.22729394e-002, 6.36817962e-002, 3.64500344e-001,
          3.64500344e-001, 1.88479871e-001, 2.34797392e-002,
          4.16118577e-002, 3.31109427e-002, 1.17650731e-002,
          2.71093883e-002, 4.40791771e-002, 1.75644398e-001,
          3.64500344e-001, 8.43526199e-002, 2.03759912e-002,
          9.67580359e-003, 3.80474189e-003, 4.18990143e-002,
          9.29895341e-002, 1.94041073e-001, 2.07848221e-001,
          2.33534947e-001, 1.64058477e-001, 8.95293355e-002,
          9.12954286e-002, 6.27466366e-002, 9.21402276e-002,
          1.04354329e-001, 1.66601554e-001, 2.41537914e-001,
          2.41537914e-001, 2.41537914e-001, 1.01215906e-001,
          7.97724202e-002, 8.30418989e-002, 1.06384486e-001,
          1.92080528e-001, 2.41537914e-001, 2.41537914e-001,
          2.41537914e-001, 1.24733739e-001, 8.82689804e-002,
          9.17820111e-002, 3.60988900e-002, 1.05220214e-001,
          1.85878336e-001, 2.00989783e-001, 2.41537914e-001,
          2.41537914e-001, 2.41537914e-001, 1.03219368e-001,
          1.56942159e-001, 7.93152377e-002, 1.82001367e-002,
          2.46008597e-002, 4.79955450e-002, 1.44300014e-001,
          3.18400353e-001, 1.41892686e-001, 2.94045415e-002,
          1.72850173e-002, 8.23648181e-003, 4.95016314e-002,
          8.38250071e-002, 1.76982656e-001, 3.04224521e-001,
          3.18400353e-001, 2.98008263e-001, 1.59440368e-001,
          1.15749970e-001, 5.63873872e-002, 1.24022514e-002,
          4.25087623e-002, 1.81156285e-002, 1.07562847e-001,
          3.18400353e-001, 1.96854830e-001, 4.67675291e-002,
          2.61651836e-002, 9.24480055e-003, 6.87620789e-002,
          2.06605241e-001, 1.75171748e-001, 2.58169264e-001,
          3.18400353e-001, 2.60691434e-001, 1.07123286e-001,
          3.77513506e-002, 2.31703650e-002, 8.41515288e-002,
          4.20713536e-002, 1.91317663e-001, 1.79511979e-001,
          2.59860903e-001, 1.39008433e-001, 1.31020173e-001,
          8.21737275e-002, 6.95729777e-002, 8.56062695e-002,
          5.38267568e-002, 1.89492524e-001, 2.59860903e-001,
          2.59860903e-001, 2.48759300e-001, 1.87355831e-001,
          5.69369122e-002, 4.69126850e-002, 1.10957623e-001,
          7.48226568e-002, 1.84118703e-001, 1.93365142e-001,
          2.59860903e-001, 9.55702066e-002, 1.24628030e-001,
          9.78976265e-002, 9.95840654e-002, 1.47134885e-001,
          6.54174611e-002, 1.33636400e-001, 1.93777964e-001,
          2.59860903e-001, 2.36479044e-001, 2.46580824e-001,
          1.95043743e-001, 1.26391515e-001, 3.36346962e-002,
          4.40860167e-002, 9.39112902e-002, 3.21664751e-001,
          3.21664751e-001, 3.21664751e-001, 1.72126591e-001,
          4.12897095e-002, 1.69031247e-002, 1.29110529e-003,
          2.19069445e-003, 2.89627556e-002, 1.56580448e-001,
          3.21664751e-001, 1.30837068e-001, 2.21763290e-002,
          9.92019475e-003, 1.40132208e-003, 8.47707018e-002,
          7.95124546e-002, 8.88175219e-002, 3.21664751e-001,
          3.21664751e-001, 2.64782488e-001, 1.60498992e-001,
          1.10251315e-001, 4.33912724e-002, 2.70088040e-003,
          8.16991460e-003, 3.47249135e-002, 1.70922071e-001,
          3.21664751e-001, 1.53166324e-001, 2.51617376e-002,
          5.27826743e-003, 1.71679317e-003, 6.21713931e-003,
          2.12880112e-002, 1.32612646e-001, 2.88181037e-001,
          2.88181037e-001, 1.36666447e-001, 3.68369520e-002,
          3.13036554e-002, 3.73308510e-002, 1.45390127e-002,
          3.83282155e-002, 1.49501964e-001, 2.88181037e-001,
          2.88181037e-001, 2.16680348e-001, 1.07037418e-001,
          8.03051442e-002, 8.98019820e-002, 1.82088241e-002,
          4.46528792e-002, 6.34090751e-002, 1.91932544e-001,
          2.88181037e-001, 2.88181037e-001, 1.31502286e-001,
          1.46601573e-002, 8.88349582e-003, 4.44613844e-002,
          1.16028562e-001, 1.09200932e-001, 2.88181037e-001,
          2.88181037e-001, 2.88181037e-001, 1.51408896e-001,
          2.56332438e-002, 2.30360702e-002, 4.64356178e-003,
          9.47960559e-003, 4.78818230e-002, 1.90925747e-001,
          3.05084199e-001, 2.00449198e-001, 6.05172291e-002,
          3.04409638e-002, 2.54698824e-002, 1.14472816e-002,
          2.77025271e-002, 1.70343265e-001, 3.05084199e-001,
          3.05084199e-001, 2.92296380e-001, 7.52275214e-002,
          6.28749281e-002, 2.13204958e-002, 1.90421697e-002,
          4.38302085e-002, 4.14053947e-002, 2.70316958e-001,
          3.05084199e-001, 1.73153445e-001, 3.25076021e-002,
          6.94559421e-003, 1.70551408e-002, 2.90186591e-002,
          3.69836576e-002, 1.24633141e-001, 3.05084199e-001,
          3.05084199e-001, 3.05084199e-001, 9.18238834e-002,
          9.37425066e-003, 3.18282396e-002, 3.08068190e-002,
          5.99947684e-002, 3.81260961e-002, 2.38297358e-001,
          4.34170693e-001, 2.22842976e-001, 4.68493663e-002,
          4.63034101e-002, 6.10091798e-002, 8.47630203e-003,
          2.12887600e-002, 1.90051105e-002, 8.29421133e-002,
          3.54804993e-001, 1.65722504e-001, 8.00220519e-002,
          1.97741222e-002, 9.82519519e-003, 2.68521309e-002,
          1.91561393e-002, 2.71327030e-002, 1.52751431e-001,
          4.34170693e-001, 3.05769205e-001, 5.23440540e-002,
          3.81054133e-002, 5.44824861e-002, 3.42107541e-003,
          2.76073813e-003, 2.08490225e-003, 3.28461416e-002,
          3.38683993e-001, 2.68927246e-001, 1.20628066e-001,
          3.64476144e-002, 1.78011172e-002, 7.93930665e-002,
          1.03375189e-001, 9.97117162e-002, 1.18080005e-001,
          1.52677089e-001, 2.03579262e-001, 2.42022783e-001,
          1.64351553e-001, 7.20850378e-002, 1.06286287e-001,
          1.00277610e-001, 9.18941796e-002, 2.42022783e-001,
          2.42022783e-001, 1.37801498e-001, 1.54367507e-001,
          2.42022783e-001, 1.13534264e-001, 9.16515142e-002,
          4.19712998e-002, 2.29674503e-002, 5.37311397e-002,
          9.08030495e-002, 2.42022783e-001, 2.42022783e-001,
          2.42022783e-001, 1.37064174e-001, 1.69499576e-001,
          1.11639082e-001, 1.38471171e-001, 2.42022783e-001,
          1.72581211e-001, 1.52892604e-001, 2.22617060e-001,
          2.42022783e-001, 2.08251700e-001, 2.37722341e-002,
          4.10697572e-002, 2.85284109e-002, 1.77051246e-001,
          2.79694885e-001, 2.30873913e-001, 7.55166933e-002,
          7.55991340e-002, 2.12297048e-002, 9.23504829e-002,
          2.00556561e-001, 1.70928523e-001, 2.71869004e-001,
          2.79694885e-001, 2.79694885e-001, 1.74625352e-001,
          1.24331817e-001, 6.37702197e-002, 3.33291665e-002,
          3.02131157e-002, 7.94797391e-002, 1.96567699e-001,
          2.14497685e-001, 1.97535023e-001, 7.09379762e-002,
          8.48762915e-002, 3.73586304e-002, 1.05044924e-001,
          1.67617187e-001, 1.50336713e-001, 2.79694885e-001,
          2.79694885e-001, 2.41567120e-001, 1.42365947e-001,
          9.17133987e-002, 1.00840785e-001, 7.67058581e-002,
